<?xml version="1.0"?>
<opencv_storage>
<my_svm type_id="opencv-ml-svm">
  <svm_type>C_SVC</svm_type>
  <kernel><type>LINEAR</type></kernel>
  <C>1.0000000000000001e-01</C>
  <term_criteria><epsilon>1.1920928955078125e-07</epsilon>
    <iterations>1000</iterations></term_criteria>
  <var_all>1764</var_all>
  <var_count>1764</var_count>
  <class_count>2</class_count>
  <class_labels type_id="opencv-matrix">
    <rows>1</rows>
    <cols>2</cols>
    <dt>i</dt>
    <data>
      -1 1</data></class_labels>
  <sv_total>1</sv_total>
  <support_vectors>
    <_>
      1.59673527e-01 -6.45261407e-02 3.41191776e-02 2.29688715e-02
      4.59646024e-02 -1.24062769e-01 -3.17638181e-02 2.50134850e-03
      2.04785377e-01 9.97060537e-02 -5.76485470e-02 6.92735659e-03
      -5.53851165e-02 -6.87684417e-02 -1.44075915e-01 1.47702284e-02
      8.20702389e-02 1.74583435e-01 1.21341087e-01 -1.90510571e-01
      -8.32241252e-02 -2.60167234e-02 1.62901860e-02 -4.30538226e-03
      9.18227509e-02 -4.84705493e-02 1.42965585e-01 -5.39092384e-02
      -1.87087074e-01 -1.18399281e-02 -9.44659337e-02 1.13954186e-03
      -7.04313740e-02 -5.15479632e-02 -1.95254281e-01 -8.71291906e-02
      9.15647522e-02 -1.86253376e-02 1.19665414e-01 -2.97128987e-02
      1.07961679e-02 -9.44854990e-02 -2.98987236e-02 9.17060226e-02
      1.70031771e-01 4.44827005e-02 -1.21511444e-01 -6.19070716e-02
      -7.39580765e-02 -5.61940745e-02 -7.30657279e-02 -1.69389024e-02
      1.08990304e-01 1.10727362e-01 -1.26954645e-01 -2.13530683e-03
      1.40756359e-02 -8.96450784e-03 -4.74408567e-02 5.25377057e-02
      5.27167022e-02 1.48451924e-02 -9.67047662e-02 -4.36974168e-02
      -2.47759093e-02 -8.12431127e-02 -1.27592012e-01 -9.50113311e-02
      -1.99609309e-01 -6.37661815e-02 -4.52896431e-02 -1.79809809e-01
      7.77159035e-02 5.35407988e-03 6.95097968e-02 -4.17483449e-02
      -3.84839773e-02 -6.16179183e-02 -1.04434858e-03 8.46517161e-02
      1.44626200e-01 6.96419775e-02 7.79028609e-02 1.67587642e-02
      -1.65757164e-01 -2.33185127e-01 -2.27834955e-01 -7.51502663e-02
      8.03593099e-02 1.15867553e-03 -6.50242018e-03 3.86155099e-02
      9.06866044e-02 -6.95311800e-02 -3.84694524e-02 -1.14426367e-01
      -2.78019048e-02 -1.64090544e-02 -9.95922014e-02 2.49088109e-02
      5.58554567e-02 1.11764066e-01 -6.93746284e-02 -4.47428189e-02
      -2.46948540e-01 -1.34558856e-01 -6.87465221e-02 -7.35573024e-02
      2.10859075e-01 1.67632744e-01 3.78573500e-02 -9.32526216e-02
      -6.78589791e-02 -1.22311510e-01 -9.20173898e-02 1.82427540e-02
      6.32475764e-02 1.38228133e-01 8.34254548e-04 -1.06908880e-01
      -9.18224528e-02 3.63512263e-02 -1.30421579e-01 -5.85701801e-02
      4.15045545e-02 8.49132165e-02 1.01906866e-01 1.25614256e-01
      9.48657990e-02 -1.93170775e-02 -1.27664208e-01 -2.02513501e-01
      -2.07985356e-01 -1.00753538e-01 -5.81547506e-02 8.61243010e-02
      9.40606669e-02 -2.84034032e-02 8.06226432e-02 5.18807359e-02
      -1.91538885e-01 -2.85276234e-01 -6.81473613e-02 -1.21078864e-02
      2.05040872e-01 1.27505213e-01 3.51537317e-02 4.21918966e-02
      -8.66754502e-02 -3.32391821e-02 -8.00633729e-02 5.84227107e-02
      1.27155259e-01 1.78525090e-01 6.05354048e-02 -1.76054891e-02
      1.37210846e-01 -6.05874434e-02 5.32002822e-02 -1.04517065e-01
      4.91035655e-02 9.11068395e-02 1.14477940e-01 3.83320078e-02
      3.42763178e-02 7.60757029e-02 -8.02174434e-02 -1.40754044e-01
      -2.94003665e-01 -2.01546848e-01 3.12416386e-02 3.91805209e-02
      3.46355396e-03 5.23493737e-02 1.54820517e-01 -6.10320270e-02
      -1.47386864e-01 -1.85795963e-01 -1.68381054e-02 -1.50934467e-02
      2.23945379e-01 3.26489471e-02 -6.41430169e-02 1.27092883e-01
      -3.32021751e-02 -3.32077928e-02 -3.04205030e-01 -1.19986117e-01
      3.41294855e-02 1.96247458e-01 8.43424723e-02 -8.00830033e-03
      4.72496785e-02 -2.41841860e-02 -1.37442514e-01 -2.73597687e-01
      -1.14539042e-01 4.86845449e-02 6.91678599e-02 -3.18168812e-02
      -2.58874651e-02 1.64940059e-01 -1.51379053e-02 -1.05171673e-01
      -3.43063354e-01 -3.25624980e-02 1.76850073e-02 2.11755276e-01
      -4.84166900e-03 5.77784851e-02 -1.12604871e-02 2.76501272e-02
      -1.92632481e-01 -2.50205994e-01 2.46977191e-02 -2.90827570e-03
      -4.25504055e-03 -9.08805579e-02 -6.37204796e-02 7.21385777e-02
      6.07341193e-02 -4.43369411e-02 -1.22193232e-01 -7.68802986e-02
      -6.15353584e-02 1.84862122e-01 2.58837603e-02 3.90823968e-02
      9.40546542e-02 1.51507080e-01 -1.46214873e-01 -2.13408202e-01
      -1.21363990e-01 3.33572999e-02 4.24061157e-02 -2.18351278e-02
      -4.22255695e-02 5.01130000e-02 -1.79108977e-01 -2.86607236e-01
      -2.03162998e-01 1.21057767e-03 -5.96247576e-02 1.81279749e-01
      -2.31123995e-02 4.65762205e-02 1.26166254e-01 1.04304641e-01
      -8.58691856e-02 -1.22642525e-01 -7.35041946e-02 1.73685268e-01
      1.10019021e-01 3.17904018e-02 -3.13310437e-02 -1.58291608e-02
      4.89126407e-02 -1.13100752e-01 7.34004304e-02 -5.20617776e-02
      8.86172801e-02 8.16735700e-02 1.73873715e-02 -9.46964100e-02
      -1.93277553e-01 -6.09797873e-02 -1.36862770e-01 8.47338140e-03
      -2.52355542e-02 5.68122789e-02 -1.58196136e-01 -8.43484551e-02
      8.47004633e-03 -6.52972013e-02 -1.10439658e-01 -2.34677657e-01
      -6.65656924e-02 -1.01773672e-01 -2.25800499e-01 -1.03049040e-01
      5.48064113e-02 -5.21816462e-02 -1.94343939e-01 3.09503675e-02
      -2.25475520e-01 -3.86933275e-02 -1.46608308e-01 -1.58059165e-01
      9.78296772e-02 8.71601254e-02 -3.24571617e-02 -7.53274113e-02
      -8.73071179e-02 -4.95141447e-02 1.46627843e-01 5.87351844e-02
      1.75669104e-01 3.84314768e-02 2.83887610e-03 6.74626455e-02
      -1.18382536e-01 -1.43683687e-01 -1.96105406e-01 1.74844936e-02
      -4.29903381e-02 3.58014181e-02 -1.42377280e-02 2.03482732e-02
      -6.87776878e-02 -1.60535604e-01 5.27137630e-02 -7.51227215e-02
      7.39562958e-02 -1.04943492e-01 6.65260702e-02 -6.29341304e-02
      -1.11166500e-01 8.64553601e-02 -1.19616792e-01 5.73783703e-02
      -9.08650309e-02 1.36445956e-02 -2.40086794e-01 -5.14819473e-02
      1.30554205e-02 6.41683415e-02 2.10080430e-01 3.56391259e-02
      2.96603851e-02 -5.28768823e-02 5.41076064e-02 -3.65056917e-02
      1.00958152e-02 2.25734562e-02 -2.69733202e-02 -5.17657073e-03
      -1.16742909e-01 -6.49764538e-02 -4.44068648e-02 5.21139093e-02
      -1.61941081e-01 -9.49251875e-02 -3.66064385e-02 -1.05170198e-01
      1.52196914e-01 9.05436203e-02 9.42141116e-02 5.19910036e-03
      7.26149157e-02 -6.32207245e-02 -2.31125820e-02 -7.27420449e-02
      -1.37163088e-01 6.34020418e-02 5.64926080e-02 -1.06486201e-01
      -7.14697316e-02 2.56576296e-02 -1.98336199e-01 -5.07666506e-02
      1.57542229e-01 1.62023842e-01 1.08676173e-01 -2.74674664e-03
      -8.21671113e-02 -1.13919541e-01 6.04133233e-02 2.97875814e-02
      3.06136049e-02 9.35721546e-02 1.03080772e-01 3.48387957e-02
      -7.41449464e-03 1.49152637e-01 -6.48625344e-02 -2.14004725e-01
      -2.78954115e-03 5.62384278e-02 4.30165641e-02 9.52332169e-02
      1.69587836e-01 7.65021592e-02 9.91194025e-02 -4.66192774e-02
      8.67686346e-02 3.59167568e-02 1.25741735e-01 5.10129929e-02
      1.18262477e-01 4.43039760e-02 9.65782404e-02 -1.61653534e-02
      -1.59760966e-04 -1.23354584e-01 -6.34384900e-02 3.99829820e-02
      1.26756862e-01 8.90915021e-02 5.41251265e-02 9.30117965e-02
      -2.12801341e-02 -5.74465133e-02 -2.40491226e-01 -8.30720067e-02
      1.23984501e-01 2.50043869e-02 -6.13331050e-02 7.48396218e-02
      1.23502582e-01 1.96118355e-02 -4.87448499e-02 3.45293246e-02
      9.95532870e-02 2.18049347e-04 1.41032875e-01 -1.21228443e-02
      2.77976859e-02 2.45359972e-01 5.60155846e-02 -3.12191863e-02
      -1.44703567e-01 5.23373969e-02 1.86144635e-01 1.06947035e-01
      -2.37904061e-02 1.76102340e-01 2.88487732e-01 1.23943195e-01
      -6.15360588e-02 -1.57744348e-01 4.57128175e-02 9.37469080e-02
      -9.31621436e-03 -1.43358797e-01 -3.00909542e-02 3.68234776e-02
      -4.36322531e-03 -7.72801191e-02 -3.17463018e-02 1.10117070e-01
      4.20269519e-02 7.64525011e-02 -2.14207228e-02 2.77973134e-02
      3.82302552e-02 5.46037033e-02 -1.71261489e-01 -3.78484242e-02
      -1.05633326e-02 -1.06736317e-01 -4.30678055e-02 -8.55482444e-02
      1.55235112e-01 2.92383850e-01 -1.70250703e-02 -1.62972599e-01
      -7.60607123e-02 -1.16701141e-01 3.49405296e-02 1.79173514e-01
      4.63314131e-02 1.76807076e-01 1.72534406e-01 6.86660558e-02
      6.76106587e-02 -8.49090442e-02 -3.93404700e-02 1.92628786e-01
      6.16650619e-02 -1.14446897e-02 -6.92528337e-02 -4.79382984e-02
      1.42955817e-02 -8.01147148e-02 -2.15550110e-01 -7.55460039e-02
      1.81946717e-02 5.11058308e-02 -1.59622338e-02 1.19827941e-01
      1.97688997e-01 8.55738297e-02 -1.10141665e-01 -2.02027962e-01
      -6.96141422e-02 1.38673512e-02 9.95869488e-02 2.70077679e-02
      8.18478391e-02 9.84972790e-02 1.06979702e-02 -1.64729469e-02
      -1.06236100e-01 -7.74800777e-02 1.32763714e-01 -1.23225488e-01
      1.42419953e-02 1.21511839e-01 2.28093624e-01 4.57386747e-02
      -1.11856364e-01 -1.02313876e-01 -1.07427865e-01 -8.85573924e-02
      4.58569527e-02 7.38692060e-02 2.75995806e-02 -2.89792456e-02
      -7.42953718e-02 -1.73502237e-01 -1.12847999e-01 -9.58965719e-03
      4.28151563e-02 -9.11304876e-02 1.04251355e-01 -6.22393424e-03
      -2.02467442e-01 4.63207904e-03 -2.95298733e-02 8.53484198e-02
      3.69257517e-02 -4.82763685e-02 -2.70700734e-03 -4.56341431e-02
      -6.15275688e-02 -1.46912158e-01 -2.91293375e-02 -1.37993351e-01
      -1.27842367e-01 -4.80289832e-02 -2.31596995e-02 -1.03492133e-01
      -1.29149988e-01 -6.08670153e-02 -2.60626674e-01 -2.17098240e-02
      -5.91162629e-02 3.59818935e-02 -8.38220939e-02 -3.37915756e-02
      -7.32351840e-02 -2.58884905e-03 3.55650997e-03 -6.88601285e-02
      1.25940382e-01 6.19369298e-02 1.47428200e-01 -4.28589955e-02
      -6.54676259e-02 9.66473203e-03 -8.51432011e-02 5.76961040e-02
      1.20790666e-02 1.35875836e-01 2.51709716e-03 2.27683522e-02
      -1.19287655e-01 -1.24565355e-01 -1.78922221e-01 -2.27159247e-01
      -1.01106584e-01 -4.81481627e-02 2.58310676e-01 1.08768143e-01
      1.54857561e-01 -8.94627422e-02 -9.17016119e-02 -9.34825763e-02
      -1.23565450e-01 -3.40581015e-02 2.55006421e-02 2.24094197e-01
      6.46407753e-02 6.74204305e-02 -9.67447981e-02 -2.80521251e-02
      -9.96695161e-02 -3.60288844e-02 1.44421458e-01 -2.15132232e-03
      6.37122244e-02 -6.39848039e-02 -1.25198402e-02 -7.19373971e-02
      -1.56939387e-01 -1.21277452e-01 -1.03919916e-01 1.10563658e-01
      4.02848609e-02 6.93394765e-02 -9.93595496e-02 2.08851881e-02
      -5.40617555e-02 -1.03922583e-01 -4.40387242e-02 -3.70720890e-03
      1.60198823e-01 9.38697439e-03 4.65278625e-02 -5.93216792e-02
      -1.18353311e-02 -3.79774272e-02 -7.16796443e-02 -2.25001127e-02
      -6.59938678e-02 1.43116489e-01 5.33726439e-02 1.00303933e-01
      -5.57986163e-02 2.18761601e-02 -2.96498761e-02 -3.55001353e-02
      -1.19185336e-01 -8.12811553e-02 6.79054707e-02 -5.24141453e-02
      -1.03436098e-01 -1.15765452e-01 4.41034175e-02 -5.10873236e-02
      -7.85394683e-02 -5.96067077e-03 5.98150538e-04 -1.95128378e-02
      -2.73760967e-02 3.59426290e-02 -4.95751873e-02 -6.61432445e-02
      -1.04968362e-01 7.67041594e-02 -5.23745716e-02 -4.23084460e-02
      1.59592673e-01 1.00784324e-01 1.84055343e-01 8.53823125e-02
      6.55942783e-02 1.30651519e-02 3.94646637e-02 1.00504220e-01
      2.79829130e-02 2.18850821e-01 2.70265788e-02 1.52468532e-01
      1.69760734e-01 1.55114576e-01 1.11713424e-01 2.20698163e-01
      -2.26683035e-01 -1.22599810e-01 -4.82245572e-02 -1.06459007e-01
      -1.68200761e-01 4.51251753e-02 -7.95576125e-02 5.43536656e-02
      7.09415646e-03 -4.62999828e-02 1.04840603e-02 8.82545710e-02
      1.19447105e-01 -3.84586304e-02 6.75323531e-02 -1.65394768e-02
      5.21828644e-02 -6.20099567e-02 1.85806677e-02 8.70312378e-02
      1.45584017e-01 7.78559074e-02 1.25500128e-01 2.36964971e-01
      1.66715279e-01 1.71216831e-01 2.39218265e-01 1.72549143e-01
      1.40835226e-01 2.78304189e-01 9.04651731e-02 2.25272067e-02
      6.73107505e-02 6.67992607e-02 5.85459806e-02 2.85931319e-01
      -6.29315600e-02 -1.95431426e-01 -4.15877923e-02 -2.16960609e-02
      -2.57625908e-01 -6.33124635e-02 -1.92880690e-01 -1.07462749e-01
      2.22420029e-04 2.87881028e-02 -1.43662035e-01 1.74209513e-02
      8.71677697e-02 -7.61265531e-02 -1.63297310e-01 -1.06623992e-01
      -9.27108750e-02 6.12793677e-02 7.06760287e-02 1.76269524e-02
      1.38022304e-01 4.47860621e-02 -8.03634077e-02 -5.67924604e-02
      -5.27467281e-02 1.13201449e-02 1.84142172e-01 8.33309293e-02
      -4.58676144e-02 1.49279907e-01 2.17325047e-01 2.75412593e-02
      2.42736675e-02 6.54897615e-02 1.11668639e-01 1.88346222e-01
      -1.10007606e-01 -3.78043726e-02 4.68011536e-02 1.08987436e-01
      2.08631270e-02 -1.04995057e-01 -2.11188212e-01 -1.70301616e-01
      -8.09575841e-02 -5.53136468e-02 -3.98278423e-02 1.09959304e-01
      1.49729744e-01 -7.10107312e-02 -2.18449265e-01 -1.41268328e-01
      -2.02999696e-01 -6.11435995e-02 4.14593033e-02 -8.37790444e-02
      4.63006422e-02 1.45515233e-01 6.29239902e-03 -1.01351887e-02
      4.11434695e-02 1.93381794e-02 1.05999120e-01 5.58573119e-02
      2.84389071e-02 1.29325166e-01 1.27549261e-01 8.21206905e-03
      -1.25796020e-01 -1.70540541e-01 -4.86369133e-02 7.42994696e-02
      1.61785837e-02 -2.20171623e-02 5.17775211e-03 -9.05141234e-02
      -6.75808564e-02 -1.75285593e-01 4.28572595e-02 -1.77123230e-02
      -6.73125982e-02 -1.44112155e-01 -2.02533960e-01 -8.13575760e-02
      -2.32110173e-01 -8.71380866e-02 -1.29078582e-01 -1.24493726e-02
      -1.02142803e-01 -1.55492663e-01 8.11142474e-02 -1.21207803e-01
      -5.70265464e-02 -7.11986348e-02 -1.41109815e-02 -1.53918177e-01
      -3.41027938e-02 1.00958617e-02 -8.79216706e-04 -9.91372205e-03
      -1.32307783e-01 -1.99645329e-02 -6.54742047e-02 -6.21298365e-02
      -6.72327504e-02 -7.11286813e-02 -1.26208737e-01 4.02119868e-02
      -1.37160555e-01 -1.29047915e-01 -4.52038124e-02 -1.15074776e-01
      2.89963558e-02 4.60880026e-02 1.27602875e-01 -1.85778797e-01
      -1.39658570e-01 -1.30859122e-01 -2.19224822e-02 1.00491941e-01
      4.34495620e-02 1.47982299e-01 2.38314997e-02 5.60672842e-02
      -1.96543753e-01 -2.98191980e-02 -1.79639772e-01 -1.95573926e-01
      -3.85041581e-03 4.31588702e-02 -7.85011724e-02 3.22757885e-02
      9.31438655e-02 -7.48477429e-02 -9.89226177e-02 -1.60540417e-01
      -2.25495607e-01 9.80594661e-03 5.76506890e-02 2.03398913e-01
      2.85172928e-02 1.12221718e-01 -9.06357318e-02 -6.49087206e-02
      -1.06755057e-02 7.87343923e-03 1.45727068e-01 -1.60206798e-02
      -6.41625598e-02 -9.65985805e-02 -3.48952711e-02 -2.49151647e-01
      -9.99074504e-02 5.86570129e-02 -1.30806984e-02 1.27463430e-01
      1.60845313e-02 4.06547226e-02 -6.41780794e-02 -1.81937404e-02
      -1.29808351e-01 -6.20498955e-02 -7.77768567e-02 -1.50600672e-01
      -6.82625324e-02 -1.03487223e-01 5.32456972e-02 -2.33556405e-02
      4.67761122e-02 -1.20820791e-01 -1.27883315e-01 9.28493738e-02
      -6.14920035e-02 -2.10084599e-02 -1.52584882e-02 3.99897732e-02
      -4.19343002e-02 3.85052823e-02 2.10326607e-03 -1.78345125e-02
      -1.81936640e-02 -7.76491985e-02 8.95090252e-02 1.85521990e-02
      3.19743007e-02 -2.85086632e-02 1.96986478e-02 -1.28645152e-01
      -1.44102156e-01 6.43314943e-02 7.13931918e-02 1.78733483e-01
      4.13134694e-02 1.09605365e-01 4.25445661e-02 1.19962879e-01
      -3.03127449e-02 -2.72741895e-02 -2.10501347e-02 -3.55893075e-02
      -4.08366658e-02 -3.70066091e-02 5.75417541e-02 -3.15320306e-02
      6.83958158e-02 1.97888557e-02 -4.26155515e-02 1.35436691e-02
      1.23557225e-01 7.96766877e-02 5.54379188e-02 5.01887128e-02
      -7.75154904e-02 2.43115686e-02 -7.89919347e-02 -1.20010301e-01
      -1.84915304e-01 -6.25841543e-02 2.80930125e-03 -5.90777062e-02
      -3.38122770e-02 -9.87747591e-03 5.58331423e-02 -1.46216512e-01
      -2.35805050e-01 -1.68835942e-03 -6.94144294e-02 1.16920276e-02
      1.53495772e-02 -4.56245542e-02 -2.78617200e-02 7.47570023e-02
      -4.20070402e-02 7.74437487e-02 5.23291826e-02 2.63291728e-02
      1.30601689e-01 1.80538949e-02 1.99174434e-02 -9.29702446e-02
      -4.05563638e-02 -3.87846343e-02 -1.37116909e-01 7.31656179e-02
      -3.96870300e-02 5.72338738e-02 1.04510412e-01 7.87443295e-02
      2.86931805e-02 1.09654166e-01 5.15406691e-02 2.53505241e-02
      -2.84761697e-01 -3.67991507e-01 -1.99020937e-01 -2.05299065e-01
      -1.64982751e-01 -1.88473001e-01 -1.43052280e-01 -1.28321975e-01
      -1.76201239e-01 -3.58949415e-02 -6.31708354e-02 3.16368155e-02
      6.81063831e-02 -5.88698499e-03 -6.78010210e-02 -1.91294447e-01
      -4.90076002e-03 7.14009181e-02 -1.12041850e-02 -1.21035405e-01
      -1.32073894e-01 -9.24111828e-02 5.27637824e-02 4.99871932e-02
      1.83684111e-01 3.28250751e-02 -6.56171981e-03 -6.95904121e-02
      -5.28029576e-02 -1.21080894e-02 -1.18503021e-02 8.67097378e-02
      1.50661886e-01 5.45552559e-02 7.57189989e-02 6.76233470e-02
      -1.50719825e-02 -1.56555966e-01 -4.03614566e-02 -1.25145689e-01
      -1.41820788e-01 -1.85566351e-01 -9.15629044e-02 -7.54565522e-02
      8.59836489e-02 -7.35721886e-02 -1.49033219e-01 -1.02256514e-01
      -2.70850287e-04 -6.39267415e-02 -2.54175395e-01 -3.05158466e-01
      -1.04262300e-01 -9.66554731e-02 2.95261629e-02 -1.28974542e-01
      -1.12878501e-01 1.26797555e-03 8.93136412e-02 2.95406729e-02
      4.62059118e-02 1.65763907e-02 1.30428165e-01 2.03420579e-01
      -4.77456562e-02 3.66843343e-02 2.53059436e-02 1.50257856e-01
      5.60979992e-02 -2.61874143e-02 -9.66174453e-02 1.60425261e-01
      1.08566776e-01 -9.37866271e-02 -1.18408412e-01 4.04230645e-03
      1.20871186e-01 9.56251565e-03 3.04620583e-02 1.04943149e-01
      7.10478127e-02 -8.27485770e-02 -2.76810050e-01 -2.32168332e-01
      -7.73367286e-02 -1.52400970e-01 -9.15647298e-02 -4.65992913e-02
      -1.78404152e-02 -5.23807220e-02 1.92769662e-01 -2.53918748e-02
      -9.76064876e-02 -9.40305218e-02 8.09556842e-02 -1.16039058e-02
      1.61375031e-02 4.22661267e-02 1.26087382e-01 -6.79326653e-02
      -1.53919160e-01 -4.26980816e-02 -1.28681242e-01 -1.13081820e-01
      -3.75017673e-02 -2.41771359e-02 1.11913970e-02 5.99078536e-02
      -2.06729069e-01 -2.57475376e-01 -9.71417055e-02 1.46401495e-01
      5.50976433e-02 8.95831641e-03 1.57334790e-01 6.93522245e-02
      -4.54174466e-02 -2.66170502e-01 -1.95605621e-01 1.06318984e-02
      1.67901754e-01 2.35978350e-01 6.96029738e-02 1.43388733e-01
      3.74876335e-02 -1.42887026e-01 -1.80489868e-01 -1.75228149e-01
      -1.09910302e-01 3.91564071e-02 -9.69649479e-02 1.82371270e-02
      1.49139792e-01 3.79150137e-02 3.01255099e-02 -1.34709343e-01
      -1.43993914e-01 -1.07107842e-02 9.96272340e-02 2.29542106e-01
      4.84625846e-02 1.41815305e-01 1.97089128e-02 -3.77288163e-02
      -1.91871747e-01 -1.64050922e-01 -1.94923859e-02 -5.47884069e-02
      -1.44242421e-02 -6.08089985e-03 6.17530011e-02 1.36347171e-02
      -1.64113149e-01 1.40056580e-01 -1.39393425e-03 1.48661025e-02
      -4.15460281e-02 3.39267030e-02 1.81912808e-04 9.27502140e-02
      9.68855470e-02 7.37716854e-02 -1.00277290e-01 -1.10746250e-01
      2.82787699e-02 -2.33263113e-02 1.15762018e-01 -8.57453607e-03
      1.03519261e-01 -8.69508013e-02 -8.70960280e-02 4.49539628e-03
      -5.66543750e-02 -1.27694547e-01 -5.61498813e-02 1.34256601e-01
      1.63798332e-01 2.15456709e-01 6.70925081e-02 -4.46756929e-02
      -1.04165703e-01 -2.35571060e-02 -7.04114651e-03 -1.12575125e-02
      6.06331453e-02 -9.48145613e-03 1.11376774e-03 -4.03250568e-02
      -7.57188573e-02 1.17695823e-01 2.08545569e-02 2.97736544e-02
      -1.02974713e-01 9.69860330e-02 -5.98798855e-04 6.95123225e-02
      7.10844481e-03 5.06283417e-02 -1.34010941e-01 -1.60739888e-02
      -3.94707285e-02 -1.45025522e-01 1.60918403e-02 -5.84012903e-02
      -3.80650572e-02 -1.55993029e-01 -2.10422233e-01 4.17736918e-02
      8.33033174e-02 1.05928704e-01 -6.77957907e-02 3.41904201e-02
      4.26798686e-02 1.51548445e-01 1.27274841e-01 6.59118295e-02
      2.69703772e-02 -4.18213941e-02 4.23882762e-03 -1.26525238e-01
      1.14588952e-02 -2.10463390e-01 -7.88136497e-02 -1.32550716e-01
      -9.26314145e-02 1.70386896e-01 1.10976048e-01 1.45756587e-01
      2.24474706e-02 5.04466742e-02 -3.95522192e-02 1.63406022e-02
      5.43626770e-03 7.18593076e-02 -6.99511915e-02 -6.89099133e-02
      -1.07698910e-01 -2.10029289e-01 7.51196686e-03 -1.84877694e-01
      -6.46993667e-02 -2.21193526e-02 -1.52420714e-01 -1.02128178e-01
      7.73688853e-02 -6.89273477e-02 -9.52670202e-02 9.25486982e-02
      -3.04532107e-02 5.65430447e-02 5.22589758e-02 -3.41529846e-02
      -1.55075686e-02 -8.43081921e-02 -2.01838724e-02 -1.49537995e-01
      -4.83845770e-02 -1.30751580e-01 -7.71590099e-02 -7.77791739e-02
      -7.21904859e-02 -1.92124974e-02 6.57011662e-03 1.00836650e-01
      5.97565919e-02 1.34349138e-01 -5.83581673e-03 -1.21498987e-01
      -5.18379770e-02 1.76318758e-03 -5.04401252e-02 -8.84492844e-02
      -1.31279126e-01 -1.20932683e-01 6.09840788e-02 -1.70590326e-01
      -1.26770973e-01 -1.11664012e-01 7.18971118e-02 4.87430282e-02
      -1.52879000e-01 -8.39933455e-02 -8.99803825e-03 5.66436499e-02
      -1.29473597e-01 -1.87483341e-01 -5.46751879e-02 2.72769090e-02
      -1.08674966e-01 -2.72622317e-01 -1.76638961e-01 -7.62499049e-02
      4.99225929e-02 -3.48312082e-03 -9.15848836e-02 -3.21307853e-02
      7.21503347e-02 -5.01185581e-02 -1.24260664e-01 -5.96629083e-02
      -1.57517307e-02 1.11272046e-02 -6.42591566e-02 -1.20493159e-01
      -1.00396566e-01 3.41284126e-02 -1.63247380e-02 -2.30460614e-01
      -1.17808864e-01 -1.25771433e-01 4.12183367e-02 -2.81110462e-02
      -1.25133693e-01 -7.33224377e-02 6.20377287e-02 -2.69258674e-02
      -3.23689878e-01 -1.36235133e-01 4.49503735e-02 -7.37236738e-02
      -5.81257939e-02 -8.47999752e-02 -1.60975233e-01 -8.06492195e-02
      7.48790726e-02 1.32114440e-01 8.19383711e-02 -1.04202084e-01
      1.92735270e-02 -3.91822346e-02 -1.99519292e-01 -7.68238604e-02
      -1.57856327e-02 -1.08414792e-01 -1.21687338e-01 -1.08416349e-01
      -1.84807062e-01 -1.15436442e-01 -1.07532360e-01 -2.67753094e-01
      -2.10160285e-01 -1.60724476e-01 1.52160317e-01 8.93600937e-03
      -2.92983372e-02 -9.49566439e-02 3.24727371e-02 1.13289431e-01
      4.86850590e-02 1.15562351e-02 1.36267766e-01 8.29122588e-02
      -4.66221869e-02 -3.17027308e-02 -8.62184837e-02 -4.58026081e-02
      5.13920970e-02 1.23140765e-02 -1.02432989e-01 -2.26394851e-02
      -1.29288938e-02 -1.42708808e-01 -1.17053054e-01 -2.28197332e-02
      4.45332117e-02 8.80544558e-02 1.62052289e-02 -7.95233324e-02
      5.24112619e-02 -1.30309433e-01 -2.20248237e-01 -8.94696414e-02
      -8.40328708e-02 4.24287990e-02 -8.05466175e-02 -2.01880671e-02
      -3.21358666e-02 -7.72644728e-02 6.02959245e-02 -6.68051988e-02
      8.45091417e-02 -7.98339769e-02 2.30162172e-03 9.89799574e-02
      3.37888859e-02 -2.90291961e-02 -3.64663228e-02 4.34962548e-02
      -8.97606164e-02 -1.26007032e-02 -1.07557222e-01 3.73206870e-03
      1.11982368e-01 1.19421765e-01 3.71254571e-02 -6.39665546e-03
      -3.06776688e-02 -1.95334136e-01 -1.18107326e-01 -1.35115117e-01
      2.55511552e-02 -2.27349978e-02 1.85849339e-01 1.39546677e-01
      -6.77659176e-03 1.78429186e-02 -1.34309590e-01 -1.13684520e-01
      -2.39593517e-02 1.72522277e-01 1.53855458e-01 2.08347246e-01
      1.08307704e-01 9.47552919e-03 -2.03472264e-02 -7.94595107e-02
      -6.08779378e-02 -5.96903488e-02 -8.04125220e-02 -6.16369676e-03
      7.20743760e-02 -1.92172900e-02 -1.39293253e-01 2.41769888e-02
      -8.53637755e-02 -9.08318236e-02 2.40530595e-02 8.46999511e-02
      4.35654670e-02 7.67646208e-02 -6.34099394e-02 -9.71591071e-05
      -8.96213874e-02 -1.11958794e-01 -1.10180087e-01 -9.76655260e-02
      8.44397694e-02 1.08396979e-02 9.85039305e-03 -8.56383741e-02
      -1.88991889e-01 1.25016555e-01 1.53756350e-01 1.04377374e-01
      -2.15855334e-02 1.98143885e-01 1.03371762e-01 9.59631279e-02
      5.77434823e-02 -4.90795774e-03 -1.20501250e-01 -1.59670040e-01
      -1.54462159e-01 -1.67433739e-01 4.54438664e-03 -4.65447903e-02
      -7.83103108e-02 -1.14303187e-01 -3.11299693e-02 -5.16572744e-02
      -1.77015811e-02 -4.22984436e-02 -4.60147895e-02 1.34123415e-01
      8.05205256e-02 1.25842944e-01 6.07476011e-02 6.40893728e-02
      -8.13800171e-02 -2.75815073e-02 -8.01200569e-02 -1.43201366e-01
      1.63451850e-01 -3.73516455e-02 -2.39595026e-03 2.76949331e-02
      -1.39700264e-01 3.05030663e-02 2.49115955e-02 -9.10997167e-02
      -3.49240117e-02 1.52046666e-01 1.37279913e-01 1.11092538e-01
      1.89430237e-01 7.63882771e-02 -1.11359790e-01 -1.30772650e-01
      -5.77250794e-02 -1.76588655e-01 3.99689469e-03 -1.73314005e-01
      -1.71712279e-01 -1.38022140e-01 -1.03904240e-01 -9.92824603e-03
      -5.96762262e-02 -1.13008758e-02 -8.22170451e-02 -4.11567725e-02
      -2.45493148e-02 1.74609246e-03 -5.21271713e-02 -1.27222398e-02
      -4.55180630e-02 -1.60132006e-01 -1.09631777e-01 -1.59164786e-01
      8.08570236e-02 1.59756839e-02 -5.44938743e-02 5.85400648e-02
      1.13351069e-01 4.04661894e-02 -4.55722697e-02 3.44668031e-02
      7.52855092e-02 1.81667119e-01 1.21847435e-03 -2.58109700e-02
      9.28269848e-02 8.77193063e-02 -6.73496053e-02 -1.57135457e-01
      -1.04647852e-01 -1.14608675e-01 -7.36249611e-02 -1.56837076e-01
      -5.84517755e-02 2.69216078e-04 4.78098691e-02 5.22307530e-02
      -1.57138377e-01 -1.65697202e-01 -9.19733271e-02 7.41680190e-02
      -1.15832180e-01 -2.40703057e-02 7.62234395e-03 4.30089645e-02
      9.22737550e-03 -1.69419840e-01 -1.20393835e-01 -1.58300828e-02
      2.25731432e-01 -3.42715234e-02 -1.77069698e-02 3.72790475e-03
      3.11261360e-02 1.26564234e-01 -3.60238627e-02 7.26422220e-02
      1.60622388e-01 -7.32386298e-03 -8.60423222e-02 -6.13881275e-02
      -5.45436479e-02 3.69115993e-02 -8.00733920e-03 -1.06271893e-01
      -7.00412914e-02 -4.94547784e-02 -1.08203031e-02 -1.26254678e-01
      -1.86977759e-02 -1.73861727e-01 -8.21122304e-02 6.15496300e-02
      -5.41941524e-02 -1.87857658e-01 -1.25967801e-01 -8.48046876e-03
      -2.01312006e-01 -1.67191744e-01 -1.89831048e-01 4.57813516e-02
      5.99318892e-02 -1.80352200e-02 -9.76599455e-02 -2.06310138e-01
      -4.13638465e-02 -2.21546981e-02 -5.92115298e-02 -1.53357565e-01
      3.24603133e-02 3.50740142e-02 -1.76071420e-01 -2.64122158e-01
      -1.96977600e-01 -1.24095790e-01 -1.25182405e-01 -6.23406693e-02
      -1.18023068e-01 -8.91802460e-02 2.46358708e-01 1.89497292e-01
      1.17523335e-01 -1.19284298e-02 8.20514113e-02 1.49363074e-02
      1.00786708e-01 -4.02918756e-02 1.78939134e-01 -5.95553871e-03
      6.12264164e-02 -3.31028998e-02 -1.44818500e-01 -6.85133487e-02
      -9.99588817e-02 -6.42268658e-02 -1.48445025e-01 -6.46416098e-02
      9.60840136e-02 4.45909128e-02 7.18182176e-02 -7.01387078e-02
      -4.53726053e-02 4.09846865e-02 6.37955144e-02 4.29197028e-02
      1.39154196e-01 8.70823208e-03 -1.57920524e-01 -1.16904885e-01
      -1.55139610e-01 -1.32564142e-01 -8.46439302e-02 1.59136262e-02
      -8.50009993e-02 -6.22625649e-02 1.20405987e-01 1.96564212e-01
      2.75244087e-01 2.35548001e-02 7.23701268e-02 1.14157645e-03
      1.21894389e-01 1.74128398e-01 1.07318372e-01 -9.83492136e-02
      -2.07988992e-02 6.16693422e-02 -9.33718681e-02 -6.43378571e-02
      -1.91065490e-01 -3.97923253e-02 2.10348237e-02 -8.79088268e-02
      1.02843239e-03 -3.39475684e-02 -2.93726493e-02 -5.54946659e-04
      9.70719978e-02 -3.17114480e-02 5.20977937e-02 -3.41698937e-02
      -5.00930436e-02 1.43610956e-02 -8.24806839e-02 -1.16929092e-01
      -1.12275772e-01 5.17861545e-02 -4.23489623e-02 4.38997149e-02
      -5.22033661e-04 -3.76315117e-02 -6.73357025e-02 -5.13599701e-02
      -2.08915342e-02 -1.30673110e-01 -7.44988546e-02 -3.76630388e-03
      1.08486615e-01 1.01478010e-01 3.19588743e-02 8.09105188e-02
      -7.03871530e-03 -1.20171398e-01 -7.13681057e-02 7.40050673e-02
      1.48872003e-01 1.59955576e-01 1.30576506e-01 1.51293218e-01
      -9.74726155e-02 -1.69591933e-01 -8.67014900e-02 -1.49701193e-01
      6.79986775e-02 1.13395248e-02 8.37943405e-02 5.78459650e-02
      3.50253209e-02 3.39978784e-02 -6.43504709e-02 -4.92054000e-02
      -1.38284750e-02 1.69089094e-01 -3.32647120e-03 1.59773082e-01
      5.25730141e-02 2.67526835e-01 -3.00989244e-02 -1.69837326e-01
      -1.01034880e-01 -1.29300922e-01 1.04638040e-01 1.39199272e-01
      1.01375744e-01 1.13133371e-01 2.12159380e-01 -3.85240950e-02
      -1.82431266e-01 -1.36429414e-01 -1.84675884e-02 2.36341611e-01
      1.36583000e-01 1.03525929e-01 2.61288844e-02 1.30048305e-01
      1.39791118e-02 3.65662063e-03 4.44969982e-02 2.40308400e-02
      9.21059027e-02 -3.14174592e-02 -2.30738185e-02 2.43403073e-02
      1.33456618e-01 -1.07780285e-02 8.69945511e-02 1.76381543e-02
      3.14164311e-02 -4.27447027e-03 -4.35760943e-03 5.64442249e-03
      5.02017513e-02 -9.41673443e-02 -1.20647565e-01 -1.69485778e-01
      -1.13221869e-01 -6.81800991e-02 1.14649080e-01 3.55881602e-02
      1.63465980e-02 2.79232487e-03 -8.99309479e-03 -9.19101536e-02
      2.10231207e-02 6.01541400e-02 3.78664508e-02 -5.35988659e-02
      -1.01270251e-01 3.24453674e-02 5.97840808e-02 -1.36273295e-01
      1.83590464e-02 1.97049230e-02 3.13080437e-02 -9.67712328e-02
      -1.27789602e-01 -6.27526343e-02 5.67800403e-02 1.24559678e-01
      6.74513355e-02 1.73677802e-01 1.87700223e-02 8.23377594e-02
      -4.37113177e-03 1.14832014e-01 1.21375598e-01 2.29476273e-01
      2.13446394e-01 2.36011788e-01 -4.89250459e-02 9.86207835e-03
      1.69254914e-01 -1.07001781e-01 -1.58039376e-01 -1.07690580e-01
      -6.57138824e-02 6.24317396e-03 -1.20769426e-01 -1.38699990e-02
      -1.69725716e-02 -2.15034131e-02 -5.32274060e-02 -3.52782235e-02
      3.36296931e-02 6.70289174e-02 -6.15918301e-02 -9.62992385e-02
      1.19113088e-01 8.31743628e-02 6.64751306e-02 5.94945066e-03
      -6.07084436e-03 6.57686293e-02 2.02228144e-01 1.92197189e-02
      1.64521545e-01 2.10523263e-01 6.20472506e-02 6.77838847e-02
      4.03536670e-03 6.48332536e-02 7.62771666e-02 3.26840319e-02
      -8.60775709e-02 1.70651123e-01 -2.70469673e-02 -1.67485386e-01
      -2.08545830e-02 3.76905724e-02 1.38790295e-01 -1.95540916e-02
      4.39148396e-02 -5.66009656e-02 -9.63928625e-02 -9.23538283e-02
      -2.32626200e-01 3.75163779e-02 2.68920809e-02 9.46843028e-02
      -6.58466714e-03 7.02785654e-03 -2.13680610e-01 -1.02642238e-01</_></support_vectors>
  <decision_functions>
    <_>
      <sv_count>1</sv_count>
      <rho>-4.5622986607993132e+00</rho>
      <alpha>
        1.</alpha>
      <index>
        0</index></_></decision_functions></my_svm>
</opencv_storage>
