<?xml version="1.0"?>
<opencv_storage>
<my_svm type_id="opencv-ml-svm">
  <svm_type>C_SVC</svm_type>
  <kernel><type>LINEAR</type></kernel>
  <C>1.0000000000000001e-01</C>
  <term_criteria><epsilon>1.1920928955078125e-07</epsilon>
    <iterations>1000</iterations></term_criteria>
  <var_all>1764</var_all>
  <var_count>1764</var_count>
  <class_count>2</class_count>
  <class_labels type_id="opencv-matrix">
    <rows>1</rows>
    <cols>2</cols>
    <dt>i</dt>
    <data>
      -1 1</data></class_labels>
  <sv_total>1</sv_total>
  <support_vectors>
    <_>
      3.16418648e-01 6.39721230e-02 9.02040973e-02 -1.29189163e-01
      2.52546489e-01 5.85940331e-02 1.38322756e-01 7.41019174e-02
      3.03272396e-01 8.51603970e-02 2.59835236e-02 1.02600306e-01
      -2.98792906e-02 4.06501330e-02 -5.53235039e-02 6.84276298e-02
      -2.73116603e-02 1.87627554e-01 2.38496929e-01 3.42018232e-02
      1.81591068e-03 -2.13360652e-01 1.68338597e-01 -6.41131997e-02
      9.21050832e-02 -7.55576342e-02 1.20791778e-01 -2.49608252e-02
      -6.94996789e-02 1.11477919e-01 -1.56512856e-01 5.08631244e-02
      -1.07402027e-01 5.24764061e-02 -1.12914190e-01 -9.60577503e-02
      2.11532488e-02 4.28708978e-02 2.21646890e-01 8.29906091e-02
      2.38795519e-01 -3.62214930e-02 1.51272818e-01 5.91438673e-02
      1.42358482e-01 -1.07077099e-02 -5.62998205e-02 6.57885373e-02
      -5.69868311e-02 5.79370707e-02 -1.71912208e-01 5.71483225e-02
      9.10610259e-02 1.32086605e-01 -1.15758412e-01 -3.48434784e-02
      1.25816867e-01 -2.97761094e-02 6.53021485e-02 7.35088438e-02
      1.41363129e-01 6.23769425e-02 -1.72223821e-01 -3.83529253e-02
      -2.00654596e-01 -1.06261663e-01 -1.64724901e-01 1.67495906e-02
      -5.33991866e-02 4.64529321e-02 -1.42510951e-01 -1.94574714e-01
      4.93989065e-02 -6.20183861e-03 2.33334094e-01 -3.00471997e-03
      -8.29897299e-02 -2.02342384e-02 -4.01132889e-02 2.04338536e-01
      2.50649810e-01 1.86359845e-02 -4.95889112e-02 -1.38454493e-02
      -4.64927703e-01 -2.80238509e-01 -2.08178610e-01 -4.49995771e-02
      1.04532912e-01 1.26572371e-01 -2.59527769e-02 5.38363587e-03
      1.84111789e-01 -1.59068331e-02 -2.87372116e-02 4.89097796e-02
      -1.31915554e-01 -1.32144913e-01 -6.81345910e-02 9.78605598e-02
      9.22116041e-02 2.29698196e-01 -3.56916077e-02 -2.77093593e-02
      -2.22318068e-01 -1.13136910e-01 -1.40209466e-01 -1.73537228e-02
      6.08972972e-03 3.67188901e-02 1.46002574e-02 -2.39308506e-01
      -1.50306314e-01 4.50887457e-02 5.89917712e-02 1.44469086e-02
      -4.73662233e-03 -2.44544521e-02 -8.81132409e-02 -2.29677483e-01
      -1.91474527e-01 -7.02270493e-02 -1.59458980e-01 -7.81022431e-03
      -7.34478012e-02 3.90749648e-02 1.36108562e-01 1.48673311e-01
      1.76235303e-01 5.13937064e-02 -1.74414605e-01 -1.49352267e-01
      -2.65157372e-01 -2.23760083e-01 -2.44461119e-01 1.39341867e-02
      1.90459415e-01 1.51635200e-01 1.20662659e-01 6.37633028e-04
      -1.17908545e-01 -1.74414754e-01 -4.71827723e-02 -1.19806305e-01
      1.52046338e-01 1.38761014e-01 4.56814282e-02 1.09754905e-01
      -1.16889410e-01 1.55888706e-01 2.35769860e-02 -6.31595477e-02
      7.18084574e-02 6.47086278e-02 -3.20715345e-02 8.92315879e-02
      -1.46429706e-02 -2.10699201e-01 1.30847991e-01 9.09752250e-02
      -2.59491466e-02 -2.38821842e-02 9.73480791e-02 7.72621185e-02
      5.55614829e-02 5.49497642e-02 -6.92396611e-03 2.34553386e-02
      -1.97262019e-01 -2.00721592e-01 -2.48142965e-02 8.25415775e-02
      -6.36996608e-03 -4.87343874e-03 -1.55637423e-02 -5.16800098e-02
      6.07927218e-02 -9.19522494e-02 -3.57112885e-02 6.90276474e-02
      9.29930359e-02 -1.40536591e-01 -2.87037287e-02 -1.28293112e-01
      -9.48812962e-02 2.13127751e-02 -1.11923873e-01 5.38130924e-02
      -9.53210965e-02 1.95857689e-01 -3.79259773e-02 -5.55265732e-02
      -2.98343208e-02 1.22094072e-01 1.51038647e-01 2.25001317e-03
      -8.87024309e-03 -6.46703988e-02 6.30914196e-02 3.98728661e-02
      -1.85707286e-02 -7.63773844e-02 -1.76211908e-01 -9.75644663e-02
      -4.34868395e-01 -7.52817467e-02 2.66124196e-02 3.43326718e-01
      1.04564495e-01 1.51488319e-01 -1.13773160e-02 1.85006335e-01
      -8.76795035e-03 -1.22908019e-01 4.48392481e-02 5.29975481e-02
      -4.18124199e-02 -1.23684928e-01 -9.96470451e-03 2.07480579e-03
      1.01472050e-01 1.64003998e-01 4.21290100e-02 3.04236058e-02
      -8.32587108e-02 1.24959871e-01 1.85485393e-01 2.41127059e-01
      2.55906582e-02 2.27685392e-01 9.66902152e-02 8.17541331e-02
      1.58667609e-01 1.47795141e-01 8.42173919e-02 1.15349377e-02
      6.76853443e-03 4.77342978e-02 -3.45946439e-02 -2.25558415e-01
      -1.48285821e-01 -7.87316859e-02 -1.08106306e-03 3.21671218e-01
      1.53544173e-01 1.15100369e-01 3.05624511e-02 2.28734016e-01
      1.23319633e-01 9.60268825e-02 9.20268446e-02 2.65521824e-01
      2.14264989e-01 1.26490548e-01 9.04426053e-02 -7.93259293e-02
      2.61456579e-01 -1.15369961e-01 4.53246832e-02 -1.37637794e-01
      1.43533692e-01 2.01386791e-02 -2.20339168e-02 2.19601803e-02
      -1.75880790e-01 -7.50590041e-02 -2.32968986e-01 -2.12815478e-02
      -1.43324465e-01 1.61974318e-03 -1.10071516e-02 -1.78294238e-02
      4.83609773e-02 -9.08499137e-02 1.49957687e-02 -1.65277943e-01
      -3.70306671e-02 -1.41459882e-01 -1.40850514e-01 -2.93264478e-01
      -1.25649348e-01 -1.69919804e-02 -1.76170558e-01 -1.53937060e-02
      -2.11330280e-01 -7.47155324e-02 -2.85127163e-01 -2.39221022e-01
      1.16456926e-01 -8.84067174e-03 7.19820410e-02 -7.70078897e-02
      -1.91886537e-02 5.42977042e-02 2.81206071e-01 1.25737309e-01
      1.95166618e-01 1.07018523e-01 -1.24846086e-01 6.61589280e-02
      -2.86539476e-02 9.55043659e-02 5.15445545e-02 1.45696476e-01
      -9.63090211e-02 -1.57513186e-01 -1.52982429e-01 -9.12489966e-02
      -2.07105745e-02 -1.86536267e-01 -7.84738883e-02 -1.15135863e-01
      3.38687934e-03 -1.34522125e-01 6.79805726e-02 -1.08472355e-01
      -1.66770265e-01 3.56667563e-02 -1.28072843e-01 1.70752913e-01
      -3.52430791e-02 -7.83661846e-03 -3.14739972e-01 -2.15752855e-01
      5.47876582e-02 -3.53248231e-02 1.95822060e-01 4.28707860e-02
      4.35080044e-02 1.01556860e-01 3.53320204e-02 -8.69944766e-02
      -6.13909066e-02 1.06284715e-01 -1.88634899e-02 7.04992861e-02
      -1.52294070e-01 -1.29585207e-01 1.59334596e-02 2.91329026e-02
      -1.46061838e-01 -5.07068709e-02 7.61112422e-02 -1.21951118e-01
      2.16196299e-01 1.09094255e-01 5.01037538e-02 6.12848960e-02
      6.64345967e-03 -4.56291810e-02 8.22487548e-02 9.68816429e-02
      -7.08871558e-02 1.15733080e-01 3.88409309e-02 3.76597904e-02
      -3.17604244e-02 1.85921416e-02 -1.90379322e-01 4.66406308e-02
      4.92305867e-02 1.10895865e-01 1.25142366e-01 -5.05595058e-02
      -1.20462455e-01 -6.19571880e-02 1.47051560e-02 -2.77201701e-02
      -2.36935783e-02 -4.43438441e-02 8.34384486e-02 6.41778186e-02
      -5.97182624e-02 -5.78427687e-02 -6.25998378e-02 -2.08401442e-01
      -3.12649389e-03 -4.25703116e-02 -4.38033789e-02 6.27484396e-02
      2.24685743e-01 1.39257029e-01 1.70784935e-01 7.80787170e-02
      4.33932133e-02 2.76078768e-02 1.29903451e-01 -7.38978386e-02
      2.17771649e-01 -3.60430330e-02 5.20746820e-02 8.52936134e-02
      1.24126680e-01 -1.21466011e-01 3.37370485e-02 5.14252745e-02
      1.68843046e-02 6.98267445e-02 1.95557103e-02 4.71886992e-02
      -2.09876969e-01 2.19177362e-02 -1.63033515e-01 -9.17714015e-02
      6.66687712e-02 3.22313420e-02 -3.91521603e-02 7.18791187e-02
      6.33668676e-02 2.39480305e-02 -3.78159285e-02 -4.39079292e-02
      -2.69140825e-02 -7.14417323e-02 4.47798632e-02 -2.21685320e-03
      1.11627519e-01 3.67121905e-01 -1.37724252e-02 3.83386910e-02
      -1.50809571e-01 7.39373341e-02 2.60160834e-01 1.39849633e-01
      1.57106621e-03 2.28786603e-01 2.67727256e-01 4.96853516e-02
      -5.66001348e-02 -9.01870131e-02 1.29277319e-01 4.59190831e-02
      5.98092750e-02 -8.71023685e-02 5.01808748e-02 -4.10889499e-02
      -1.44704543e-02 -3.84055525e-02 -7.89119899e-02 2.71259267e-02
      -2.62606498e-02 -8.41991231e-03 -9.72058624e-03 4.43154499e-02
      -1.87751986e-02 -1.01495497e-01 -1.85500771e-01 -2.11696342e-01
      -2.54091412e-01 -2.30811924e-01 8.34379997e-03 -4.17079702e-02
      2.08807260e-01 2.10994840e-01 -4.05380428e-02 -1.77437529e-01
      4.11485136e-02 -1.36565298e-01 -1.70706511e-01 2.17036694e-01
      -6.88808644e-03 9.25058424e-02 1.12071633e-01 2.20975697e-01
      2.20388532e-01 1.28113836e-01 6.61642477e-03 1.40665561e-01
      -1.51700191e-02 -1.64435089e-01 -1.53120607e-01 -8.59126598e-02
      -5.57106398e-02 6.55288622e-02 -1.77437201e-01 -1.73564270e-01
      2.35030949e-02 9.51420218e-02 3.23031023e-02 1.53653190e-01
      8.56269710e-03 -2.82893199e-02 -3.31758149e-02 -9.97144878e-02
      -1.47656968e-03 4.69011813e-02 -6.88349688e-03 -8.27038810e-02
      7.29126036e-02 8.51980150e-02 -5.64655066e-02 -1.28670380e-01
      -7.73660317e-02 -1.59357548e-01 -7.96812475e-02 6.70233518e-02
      6.20319135e-02 2.05773011e-01 3.15921642e-02 -1.18914858e-01
      2.57821230e-04 -7.68078566e-02 -4.50972430e-02 3.61686125e-02
      4.04415615e-02 1.07364826e-01 9.91793275e-02 1.12030968e-01
      7.51529485e-02 -2.31715873e-01 -1.08550876e-01 4.14046604e-04
      -2.68692095e-02 -1.87888995e-01 -8.55870992e-02 -5.94706926e-03
      -1.13892071e-01 -7.31693655e-02 -2.18193337e-01 -3.72083932e-02
      -2.29476802e-02 -7.87267759e-02 1.06850035e-01 1.15472473e-01
      -1.09747527e-02 -1.61653563e-01 8.93852636e-02 -2.21576735e-01
      -1.04705602e-01 6.77147822e-04 -3.94609794e-02 -1.66740105e-01
      -2.40377054e-01 -1.48993954e-01 -2.30517730e-01 -6.45119473e-02
      -1.59631193e-01 -3.72299366e-02 -1.13626324e-01 -3.90246771e-02
      -1.66674614e-01 -4.47654761e-02 4.22475561e-02 -1.67714998e-01
      -4.84456196e-02 -1.26384180e-02 9.50571746e-02 3.17624584e-02
      6.85420185e-02 9.24071204e-03 -1.39678538e-01 3.52071486e-02
      -7.60032758e-02 8.56215954e-02 -6.77534863e-02 6.36990592e-02
      4.29840609e-02 -9.95833706e-03 -1.96048021e-01 -1.62161112e-01
      -1.12305231e-01 -1.39076397e-01 1.13544084e-01 -3.44118066e-02
      6.11479208e-02 1.34442318e-02 5.83889559e-02 -1.71210036e-01
      -8.76357555e-02 -2.85629090e-02 1.78654399e-02 1.75949633e-01
      -7.63540119e-02 -1.00941934e-01 -6.53459504e-02 -6.07341453e-02
      -2.86079168e-01 -1.26148105e-01 1.71773329e-01 1.62726678e-02
      -6.45622090e-02 -1.42356619e-01 -4.86357957e-02 -1.86672136e-02
      -1.55401990e-01 -1.09093532e-01 1.10666091e-02 2.50055850e-01
      6.96641654e-02 4.47312668e-02 -1.12386748e-01 -3.20657738e-03
      -7.44244307e-02 -1.08615272e-01 -1.44206271e-01 -1.39234185e-01
      1.88490689e-01 1.44498140e-01 6.99984934e-03 -1.75271198e-01
      -1.02227643e-01 -1.96753189e-01 -1.40650958e-01 2.48990655e-02
      -2.96227038e-02 2.58420855e-01 7.72164315e-02 1.44827683e-02
      -1.80285409e-01 -1.94904134e-02 -3.10998200e-03 1.09237425e-01
      -2.90391773e-01 -1.55215845e-01 5.61446557e-03 -1.51407257e-01
      -1.64312094e-01 -9.23909694e-02 5.22763915e-02 -2.48087142e-02
      -8.35167244e-02 -1.66919485e-01 -3.11110225e-02 -1.81503683e-01
      -9.08521786e-02 1.00700967e-01 9.06846672e-02 -4.04559039e-02
      -6.91732317e-02 -3.32865231e-02 -3.21011263e-04 -1.26696527e-01
      3.39600630e-02 2.18104851e-02 2.72367090e-01 1.05816804e-01
      1.39946312e-01 -4.28228127e-03 1.29406294e-02 8.66162702e-02
      -1.33408874e-01 1.60249725e-01 -6.85738847e-02 2.11707488e-01
      2.02900887e-01 7.82498047e-02 -1.07002772e-01 1.44263327e-01
      -2.98579365e-01 -2.99152374e-01 -1.63354069e-01 -5.12338877e-02
      -1.82119295e-01 1.28521919e-01 -1.81467593e-01 5.51459827e-02
      -1.81027986e-02 1.14051346e-02 -1.96060091e-01 9.27042887e-02
      1.50244996e-01 -1.20256692e-01 -7.48590603e-02 -4.47118133e-02
      -6.18805289e-02 -1.41063775e-03 2.26913206e-02 -7.88318515e-02
      2.48634860e-01 2.25905403e-01 5.88614158e-02 2.35623673e-01
      8.95955339e-02 2.72769574e-02 1.46527633e-01 2.60446697e-01
      -1.10201333e-02 2.58009166e-01 2.05637559e-01 7.24145025e-02
      1.16236344e-01 2.15945411e-02 6.93677366e-02 3.26264799e-01
      -2.06007343e-02 -2.22716331e-01 -8.52763653e-02 -1.45593673e-01
      -1.48027301e-01 -1.91173151e-01 -9.52596292e-02 -1.97495725e-02
      -1.82276219e-02 1.50525972e-01 -1.47427991e-01 -6.28790781e-02
      2.27514543e-02 -2.21235375e-03 -1.72514230e-01 -1.71904325e-01
      -1.72948480e-01 -1.30772050e-02 3.15914378e-02 -1.23884641e-02
      1.56971291e-01 7.25123584e-02 6.70928285e-02 -4.32567261e-02
      -1.09820375e-02 6.97990693e-03 4.64650616e-02 2.22629711e-01
      3.55208255e-02 1.62047699e-01 1.28017008e-01 2.36541241e-01
      7.20126331e-02 1.13986041e-02 4.86936457e-02 2.73131013e-01
      -2.40597483e-02 -1.99866984e-02 -5.64573966e-02 -1.26898885e-01
      -9.63846035e-03 -1.33732498e-01 -3.34613532e-01 -2.09151998e-01
      -2.63406951e-02 -1.36351466e-01 -1.91427469e-01 -1.13019906e-02
      -2.15959489e-01 -3.28640044e-01 -1.99065715e-01 -1.77520230e-01
      -6.59101009e-02 1.99101157e-02 2.04405636e-01 -6.27975538e-02
      -4.36495654e-02 -1.00927986e-01 -7.20884576e-02 1.13701522e-01
      1.13392778e-01 2.65675448e-02 2.84487486e-01 5.68859465e-02
      5.61030172e-02 1.11625314e-01 6.58811117e-03 -1.06838398e-01
      6.11559227e-02 -7.15644434e-02 6.37867451e-02 2.13490427e-01
      2.51912594e-01 1.55394778e-01 1.02214940e-01 -2.08339512e-01
      -5.27030416e-02 -1.43246338e-01 5.77538423e-02 -4.18303628e-03
      -2.96583399e-03 -1.26312360e-01 -1.97179183e-01 -2.34182626e-01
      -2.39683151e-01 -2.67481208e-01 -2.43805617e-01 -1.82898685e-01
      -1.75895452e-01 -1.40118897e-01 9.37827379e-02 -5.02756946e-02
      1.42497951e-02 -1.80143304e-02 -1.26892831e-02 -1.72766168e-02
      3.57486517e-03 3.15054655e-02 8.68861750e-02 -2.71182414e-02
      -5.62093742e-02 -1.24625750e-01 -9.08772275e-02 -1.57897323e-01
      -1.69650644e-01 2.37215776e-03 -1.24355569e-01 9.55694318e-02
      -1.77810237e-01 -1.48389816e-01 -1.45829469e-01 -1.77284703e-01
      -7.16014728e-02 -6.49625510e-02 5.94741330e-02 -1.13404192e-01
      4.52217013e-02 -1.93680480e-01 -3.26515399e-02 1.48779064e-01
      5.17515764e-02 8.77065808e-02 3.91363017e-02 -7.37147182e-02
      -1.14344940e-01 -1.16649561e-01 -1.87543705e-01 -1.08481042e-01
      -9.03089568e-02 -1.95272844e-02 -8.37310478e-02 8.98110308e-03
      1.48293972e-01 1.04628034e-01 -3.13218012e-02 -8.61111581e-02
      -1.11702316e-01 1.38778105e-01 1.90948233e-01 2.68847018e-01
      8.20487812e-02 1.36179373e-01 4.02681231e-02 -1.56268865e-01
      -4.10097502e-02 -3.17452885e-02 1.27719179e-01 -2.74005476e-02
      -1.82821646e-01 -4.74338271e-02 -8.58777612e-02 -2.81027913e-01
      -3.13766778e-01 1.88166365e-01 8.80345181e-02 1.73747912e-01
      6.19673841e-02 -4.15402646e-05 -4.15263027e-02 3.15716416e-02
      -4.64375988e-02 -1.05458669e-01 -1.55441746e-01 -1.93197615e-02
      1.18128466e-03 -3.66078094e-02 -9.32204202e-02 9.55226086e-03
      4.30867858e-02 -7.01060817e-02 -2.07437038e-01 5.03684096e-02
      7.70238936e-02 5.31834029e-02 1.34306459e-03 8.19364637e-02
      -1.19368337e-01 -2.70238351e-02 1.96028296e-02 1.50559023e-01
      -1.42937750e-01 -1.76686078e-01 -8.87723267e-02 -1.10918969e-01
      1.02794813e-02 -1.78137064e-01 -5.44339009e-02 -9.19213817e-02
      -3.03709298e-01 9.37077925e-02 3.00400071e-02 6.88671246e-02
      -6.23213761e-02 1.94885775e-01 -4.35268208e-02 3.10256500e-02
      -9.69266146e-02 7.18793552e-03 -1.44225201e-02 -8.83530453e-02
      -4.78969179e-02 -1.50379807e-01 1.50063103e-02 -2.90741235e-01
      -1.06143162e-01 -4.15727161e-02 1.54306125e-02 1.16343461e-01
      1.93156034e-01 1.23957463e-01 4.50506024e-02 1.10674083e-01
      -1.51012450e-01 1.24366628e-02 1.25082478e-01 7.70468712e-02
      -2.11610287e-01 -8.22761431e-02 -3.45923603e-02 -4.04044986e-02
      -5.37643023e-02 -1.03846379e-01 -1.42375559e-01 -2.75529057e-01
      -3.15173388e-01 1.41287614e-02 -1.49441719e-01 -9.20315385e-02
      1.00472413e-01 -6.65994212e-02 -1.99814374e-03 8.10160637e-02
      5.92927374e-02 4.18463610e-02 -2.65283398e-02 8.17062929e-02
      1.16806686e-01 -5.54334745e-02 2.23402549e-02 -1.15169391e-01
      -1.37200728e-01 -2.43287422e-02 -1.55503497e-01 9.16471630e-02
      2.42018737e-02 1.16023995e-01 8.67009461e-02 9.73887295e-02
      -3.49729657e-02 9.05268565e-02 1.42876983e-01 6.49187416e-02
      -4.16572303e-01 -5.21744668e-01 -2.47970536e-01 -2.89501190e-01
      -2.91770305e-02 -1.14407338e-01 -1.13594048e-01 -1.08083546e-01
      -2.75738806e-01 -1.04561456e-01 -9.69583839e-02 -2.39603426e-02
      -1.21451534e-01 -8.01240653e-02 -9.49565172e-02 -2.00382605e-01
      3.73522192e-02 -4.37912755e-02 -3.44674699e-02 -3.94973904e-02
      7.25196153e-02 -4.60455231e-02 8.48838016e-02 -5.53630330e-02
      9.56616104e-02 -4.45825718e-02 -1.26746325e-02 -1.19777344e-01
      3.78783606e-02 -5.27082533e-02 -1.61311496e-02 1.81163460e-01
      1.35817364e-01 1.15797594e-01 1.57259583e-01 1.26478568e-01
      7.86680430e-02 -5.02330698e-02 -2.06596833e-02 -3.21331382e-01
      -2.50521988e-01 -1.13103636e-01 -1.73593611e-01 -7.96711817e-02
      1.41778380e-01 -1.17224842e-01 -1.05795488e-01 -1.30184084e-01
      -1.86107472e-01 -2.19487533e-01 -1.68815807e-01 -2.86625892e-01
      -3.95285375e-02 -2.21586134e-02 -6.95013851e-02 -1.14249259e-01
      -2.56762337e-02 5.15704155e-02 1.14691474e-01 -1.71499571e-03
      6.29955232e-02 -3.91231105e-02 3.78598236e-02 3.00231092e-02
      -1.03513077e-01 -1.00812115e-01 8.55982378e-02 2.21660733e-01
      1.65925041e-01 2.06709728e-01 4.13765423e-02 1.42080724e-01
      5.21133207e-02 -1.06027827e-01 -1.82394490e-01 5.38685359e-02
      1.15235433e-01 6.78983331e-02 2.92022107e-03 6.63479641e-02
      1.41769856e-01 -2.16503903e-01 -2.81328112e-01 -2.89909542e-01
      -2.94056326e-01 -3.38438421e-01 -2.56720752e-01 -7.99042434e-02
      -1.01746731e-01 -7.03704134e-02 3.33330244e-01 1.69132710e-01
      2.47021448e-02 1.05106913e-01 1.50788441e-01 -4.09858823e-02
      -3.48319001e-02 1.68395147e-01 2.66314119e-01 -5.18181808e-02
      -2.59681940e-02 -6.25923052e-02 -1.56360894e-01 6.56482577e-02
      -6.09131977e-02 -2.35558804e-02 3.49823497e-02 8.16095024e-02
      -3.79699737e-01 -3.20282549e-01 -4.07787174e-01 -1.69351213e-02
      3.30817513e-02 7.77981058e-02 2.45601758e-01 1.01172276e-01
      -3.41874212e-02 -3.40209872e-01 -4.48417068e-02 -3.15981023e-02
      2.32219666e-01 3.23235303e-01 1.85323700e-01 1.27236217e-01
      1.46639213e-01 -2.21123755e-01 -2.37833440e-01 -1.41899958e-01
      -2.32680112e-01 -8.09801891e-02 -1.08347453e-01 7.99200609e-02
      1.47001252e-01 -4.75847162e-03 -1.23114383e-04 -1.38493225e-01
      -1.01085745e-01 -6.78912923e-02 1.59781545e-01 3.89123619e-01
      2.11653188e-01 9.44995061e-02 6.90781092e-03 5.77481426e-02
      -2.30182588e-01 -1.22763574e-01 -4.17436548e-02 -5.88746034e-02
      -1.59736216e-01 -4.74217013e-02 4.04988155e-02 3.41546424e-02
      -2.64338464e-01 1.51394993e-01 6.91442937e-02 9.10688285e-03
      -3.83294001e-02 5.58459945e-02 -1.58109620e-01 6.24800362e-02
      6.22398108e-02 6.30527958e-02 -1.68378845e-01 -4.61267456e-02
      1.68611839e-01 5.32660298e-02 3.59860025e-02 -6.82438985e-02
      -5.02052344e-02 -1.57281250e-01 -1.90411091e-01 2.07863115e-02
      5.05834993e-04 -1.84001382e-02 2.34193295e-01 1.84376255e-01
      1.41921610e-01 2.42403239e-01 5.83497696e-02 -6.19563088e-02
      -9.87157226e-02 -6.16609715e-02 -6.73622489e-02 -1.29528493e-01
      7.59497508e-02 -1.52080327e-01 -8.22414830e-02 -6.76423162e-02
      -1.36268869e-01 1.43845886e-01 1.82750598e-01 1.68480605e-01
      -2.58215107e-02 1.81512475e-01 -3.44793275e-02 1.18417427e-01
      1.14992328e-01 5.72332628e-02 -1.92058966e-01 -3.13909650e-02
      -6.54353425e-02 -1.07685681e-02 8.70866850e-02 -9.82239470e-02
      -4.13191542e-02 -1.84887528e-01 -3.46198857e-01 2.03896295e-02
      7.59584606e-02 9.18246880e-02 2.24973764e-02 7.53114522e-02
      -1.12499528e-01 1.67619199e-01 2.08443895e-01 1.73966154e-01
      -8.12781416e-03 2.00834330e-02 7.90188238e-02 -2.08137110e-01
      3.09918672e-02 -3.09493542e-01 -1.50514171e-01 -1.72146499e-01
      -1.94784835e-01 2.83540696e-01 1.53941587e-01 2.23601133e-01
      -2.88079102e-02 1.37047902e-01 -1.84568837e-01 8.83652419e-02
      5.44331484e-02 1.36256188e-01 -2.11344622e-02 -1.11583233e-01
      -1.44683838e-01 -3.34817231e-01 -1.02688201e-01 -2.81010836e-01
      -1.25582755e-01 -6.71717077e-02 -9.28438604e-02 -7.18271732e-02
      9.27447453e-02 -1.02934130e-01 -2.27052853e-01 7.83399493e-02
      4.20794860e-02 9.05409828e-02 4.69668172e-02 -7.98020884e-02
      5.57891317e-02 -1.34043962e-01 4.11771871e-02 -1.52914330e-01
      6.67719170e-02 -3.10826600e-01 -1.33189648e-01 -1.84494942e-01
      -1.54607370e-01 1.59081873e-02 1.04147652e-02 1.42924609e-02
      3.45449559e-02 2.07782090e-01 -3.68363447e-02 -1.49083078e-01
      -6.87684342e-02 -2.89989412e-02 7.10814819e-02 -3.54697220e-02
      -1.26458228e-01 -1.34537295e-01 1.41129762e-01 -9.63396057e-02
      -2.90825199e-02 -6.24195412e-02 6.43850043e-02 6.22491576e-02
      -4.37567458e-02 -1.34948418e-01 -1.89617515e-01 8.74082744e-02
      -8.00683796e-02 -9.24028233e-02 -1.23464592e-01 -1.94673091e-02
      -6.29360601e-02 -1.73168451e-01 -1.37403712e-01 -3.76087651e-02
      9.16610062e-02 -3.53140384e-02 -6.20576851e-02 -5.58759645e-02
      8.66836756e-02 -1.94994152e-01 -1.42639810e-02 -1.37807518e-01
      4.59317155e-02 4.85197939e-02 -1.67483121e-01 -8.72817189e-02
      -1.15632161e-01 -7.33563229e-02 -1.22072296e-02 -2.73193806e-01
      -1.97613358e-01 -1.66633233e-01 1.46981001e-01 -5.62646538e-02
      -8.92623588e-02 -1.75795376e-01 8.89229923e-02 -1.12250775e-01
      -2.69397259e-01 -3.22195143e-01 -1.09289937e-01 -2.43251435e-02
      -3.38338800e-02 -9.04490352e-02 -2.58561552e-01 -1.58172831e-01
      -8.54988757e-04 1.30118981e-01 1.28893927e-01 -3.36394086e-02
      -1.24541305e-01 -1.28015012e-01 -2.10600778e-01 -7.67601356e-02
      -8.17290507e-03 -2.22276643e-01 -1.42431051e-01 -1.66305676e-01
      -2.44031653e-01 -2.41262540e-01 -1.82136849e-01 -2.43776500e-01
      -2.44427174e-01 -1.58636734e-01 2.16947943e-01 1.43523961e-01
      3.51568043e-01 7.58820176e-02 7.30938986e-02 7.39181340e-02
      5.73760346e-02 5.89180328e-02 3.31052274e-01 -3.70526016e-02
      -6.08374588e-02 3.25080380e-02 -1.62437707e-01 -1.43671241e-02
      -6.30399399e-03 8.57634544e-02 -6.27343729e-02 -2.58000474e-03
      -9.90638733e-02 -2.33125821e-01 -4.18252140e-01 -2.48530775e-01
      -5.91978058e-02 1.01961434e-01 2.81399768e-02 4.43501323e-02
      2.49600649e-04 -2.16834053e-01 -2.53432870e-01 -2.12881103e-01
      -2.36559555e-01 1.28965648e-02 -4.99165021e-02 -5.10026813e-02
      -7.26571009e-02 -1.65199533e-01 2.00416148e-01 1.29595831e-01
      3.99214029e-02 -7.47446343e-02 3.55957150e-02 3.52194160e-02
      3.75502296e-02 5.63928187e-02 -6.98266327e-02 1.23995155e-01
      2.39262655e-02 -8.53084680e-03 -5.29809855e-02 9.18648168e-02
      1.31548390e-01 1.29322618e-01 1.80773720e-01 3.26237679e-02
      -2.14914590e-01 -3.62645179e-01 -1.03435300e-01 -1.75431222e-01
      6.93775937e-02 5.91181684e-03 1.89962909e-01 2.88832933e-02
      -7.28810579e-02 3.92445773e-02 -3.93228196e-02 1.31542981e-01
      1.82641551e-01 1.55452833e-01 1.70203462e-01 2.72439033e-01
      3.64841036e-02 1.42040208e-01 -6.68220744e-02 -1.80683002e-01
      4.37028818e-02 -3.88622619e-02 -9.44069698e-02 -5.31271994e-02
      1.14133745e-01 6.85367584e-02 -7.99626783e-02 -1.83877781e-01
      -1.78544804e-01 5.89061202e-03 1.19659662e-01 1.50369316e-01
      9.51278880e-02 1.64703861e-01 -6.80055246e-02 9.31211188e-02
      -1.79090202e-01 -2.14741319e-01 -8.26819986e-02 9.78261232e-02
      9.25639123e-02 1.48859406e-02 5.94224669e-02 -2.63986140e-02
      -8.17841738e-02 1.94160998e-01 1.87342823e-01 2.53868043e-01
      1.71674326e-01 2.95440584e-01 2.54932977e-02 1.24189503e-01
      1.37647793e-01 1.03578053e-01 -2.24246308e-01 -1.35619029e-01
      -1.22592472e-01 -1.35536939e-01 -9.49783903e-03 -1.81720898e-01
      -1.87380061e-01 -1.27256900e-01 1.50736226e-02 3.76284868e-02
      -2.77738515e-02 -2.02202927e-02 -1.94481239e-01 1.23931833e-01
      -5.97942434e-02 6.91224411e-02 2.25783572e-01 1.77498817e-01
      -3.76164801e-02 -1.33638442e-01 -1.22748613e-01 -2.60846257e-01
      1.30782023e-01 -1.52764961e-01 -7.94355348e-02 -8.83297995e-02
      -1.67760178e-01 1.46606967e-01 4.66004312e-02 -3.66192125e-02
      1.37170032e-02 9.11726132e-02 1.84607819e-01 1.39787227e-01
      8.53845105e-02 1.58424631e-01 -1.65341586e-01 -1.10430002e-01
      -1.16494283e-01 -2.19123423e-01 5.71535975e-02 -1.53808624e-01
      -2.20543295e-01 -1.83642283e-01 -1.76147014e-01 -2.14857738e-02
      -6.26323372e-02 -1.42780215e-01 -3.73501778e-02 -1.23669989e-01
      -2.31880635e-01 -6.47057444e-02 -7.78056160e-02 -4.16348986e-02
      6.90617561e-02 -1.45031705e-01 -5.90687059e-02 -1.61519259e-01
      1.11963466e-01 1.73800275e-01 1.21678598e-01 -3.15167941e-02
      6.59681484e-02 9.02368799e-02 1.15538649e-01 1.60956994e-01
      1.58529416e-01 2.90683448e-01 -2.88781431e-02 3.66247259e-02
      1.55906081e-02 7.74952173e-02 -6.74784482e-02 -2.05454916e-01
      -1.08008236e-01 -1.04616471e-02 -5.38048856e-02 -2.34985501e-01
      -5.42777441e-02 -3.96183059e-02 5.16366214e-02 -5.69310486e-02
      -1.27178133e-01 -1.42477617e-01 -5.53738549e-02 2.88370967e-01
      -1.70985550e-01 -9.58669782e-02 -2.25683361e-01 -5.72705343e-02
      7.00465962e-02 -5.44886962e-02 -2.58375794e-01 -6.06064349e-02
      1.74366608e-01 -2.52615754e-02 1.14392273e-01 8.04801658e-02
      1.83737800e-01 1.05441391e-01 1.72094017e-01 2.51018554e-01
      1.44944519e-01 2.81414408e-02 2.03570276e-01 1.59788638e-01
      8.84563699e-02 1.00731812e-01 1.06213644e-01 -1.67154223e-02
      4.00665663e-02 -6.29472136e-02 8.14247504e-02 -2.08509102e-01
      -3.06744110e-02 -1.63991272e-01 8.31927136e-02 -1.61763176e-01
      1.66757219e-02 -1.39876306e-01 -3.56543481e-01 -8.76006335e-02
      -1.27702504e-01 -1.28744049e-02 -9.81093794e-02 -1.38886943e-01
      -3.16743776e-02 1.08746579e-02 8.08494017e-02 -1.11720785e-01
      -1.27722576e-01 -3.53538953e-02 -2.45874718e-01 -2.65802592e-01
      -3.27752642e-02 -1.82130203e-01 -3.20311069e-01 -3.40601861e-01
      -3.13139260e-01 -1.65026620e-01 -1.86253980e-01 -1.24600627e-01
      -2.08744451e-01 -2.19612002e-01 3.43706548e-01 1.96907789e-01
      3.83917063e-01 1.44482508e-01 3.07189494e-01 1.30231515e-01
      1.83539033e-01 9.62741673e-02 2.68072546e-01 -1.11541905e-01
      -2.78294291e-02 -5.08587733e-02 -2.96640009e-01 -1.12870134e-01
      -2.07904518e-01 3.76395485e-03 -6.53791502e-02 -1.16366237e-01
      1.16132572e-01 6.55478761e-02 -7.06650540e-02 -1.02648988e-01
      -8.36527795e-02 -5.57860173e-02 -1.03209494e-02 1.02012511e-03
      1.65690616e-01 -1.83647648e-01 -2.72212625e-01 -2.33141482e-01
      -2.17414752e-01 -1.37724131e-01 -1.77276909e-01 4.64714505e-03
      -5.76232597e-02 -2.25293234e-01 1.91486895e-01 2.54908830e-01
      4.02100861e-01 9.36626494e-02 9.54958424e-02 3.55269052e-02
      1.06122479e-01 2.26436719e-01 6.91241324e-02 -5.41977584e-02
      6.11484125e-02 1.03813529e-01 -1.70142502e-01 -4.24433826e-03
      -2.29562730e-01 -7.04421550e-02 2.75511900e-03 -2.06395894e-01
      -4.33754139e-02 -1.90079838e-01 -2.11604804e-01 -2.79806536e-02
      1.45588800e-01 -1.46238282e-02 1.12407327e-01 1.01422183e-01
      -6.35057539e-02 -1.25594348e-01 -3.22789967e-01 -2.04068139e-01
      -1.70379385e-01 4.00223397e-02 -1.91766024e-02 1.63919538e-01
      7.99339190e-02 4.31359708e-02 4.40478325e-02 4.61907126e-02
      -4.79188329e-03 -1.53745208e-02 -6.99310284e-03 3.27026658e-02
      1.15149461e-01 1.16275154e-01 1.08508274e-01 -2.85057388e-02
      -5.30320592e-02 -1.84654027e-01 -1.36292577e-01 4.91360202e-03
      -2.49852217e-03 6.57368004e-02 1.06654011e-01 1.99971393e-01
      -1.48909122e-01 -2.37585291e-01 -1.53957620e-01 -9.64559689e-02
      9.31502581e-02 -6.78945193e-03 1.45631403e-01 5.81321009e-02
      7.18075186e-02 1.68582484e-01 -6.39885217e-02 1.11380499e-02
      7.71070970e-03 2.23324493e-01 -7.71183744e-02 1.60949141e-01
      9.43413228e-02 2.22590819e-01 -1.74330115e-01 -1.65721461e-01
      -8.17516446e-02 -1.00202374e-01 9.20147896e-02 -2.10475828e-02
      1.06264323e-01 2.83118039e-02 1.82029083e-02 -2.56401300e-01
      -1.23932093e-01 -8.12515095e-02 -1.88395362e-02 3.95927578e-02
      -2.20645852e-02 1.39819577e-01 -5.20506985e-02 -6.03454299e-02
      -5.17304353e-02 -4.15329784e-02 -6.21074624e-02 7.88192544e-03
      9.73622426e-02 1.14663504e-01 4.16664295e-02 1.50690377e-02
      5.51701039e-02 -8.81345384e-03 7.17596710e-02 1.56470258e-02
      5.60121797e-02 2.73785945e-02 8.65844265e-02 1.70465335e-01
      1.25580311e-01 -4.41885851e-02 -2.62669832e-01 -2.14339003e-01
      -1.45760149e-01 -9.85843912e-02 -6.02171570e-02 1.47082773e-03
      -1.65230234e-03 -1.15127608e-01 -1.61989912e-01 -1.67532757e-01
      1.45668596e-01 3.10925301e-03 -1.05287388e-01 -1.65651008e-01
      -1.46102086e-01 6.50931448e-02 1.16347503e-02 -1.54654786e-01
      1.85384636e-03 1.05742486e-02 -2.99242977e-02 -2.13707104e-01
      -9.21528935e-02 4.66827229e-02 5.81394993e-02 2.34355584e-01
      1.16463087e-01 1.43781826e-01 8.81186500e-03 2.38631740e-01
      8.18961337e-02 1.75423592e-01 2.28643958e-02 1.72521338e-01
      1.11852951e-01 2.51448005e-01 -1.23666823e-01 2.27865770e-01
      1.40595540e-01 -2.01164216e-01 -1.20701224e-01 -1.23573087e-01
      -1.87718235e-02 7.27782845e-02 -7.25443140e-02 -1.06589369e-01
      1.38626054e-01 5.42813465e-02 -6.71257377e-02 3.86908092e-02
      2.10337248e-02 8.67125243e-02 6.40376508e-02 -7.67067149e-02
      8.97741839e-02 1.06293850e-01 9.13549438e-02 -4.93329465e-02
      -6.81294361e-03 3.03207580e-02 1.53618574e-01 8.54958743e-02
      1.82858318e-01 2.30436951e-01 2.85321444e-01 2.10592076e-01
      -7.10276663e-02 2.15950627e-02 9.97766331e-02 1.76015377e-01
      -8.50797445e-02 1.56140864e-01 -1.09333307e-01 -2.31804885e-02
      1.27308831e-01 3.92282195e-02 1.49089798e-01 2.01515947e-02
      2.71950010e-02 7.39281699e-02 -1.87440842e-01 -1.75588541e-02
      1.71459075e-02 1.59528982e-02 -1.39492288e-01 5.67170233e-02
      1.20603748e-01 1.28484875e-01 -1.43798456e-01 3.94863002e-02</_></support_vectors>
  <decision_functions>
    <_>
      <sv_count>1</sv_count>
      <rho>-5.6910298858140163e+00</rho>
      <alpha>
        1.</alpha>
      <index>
        0</index></_></decision_functions></my_svm>
</opencv_storage>
