<?xml version="1.0"?>
<opencv_storage>
<my_svm type_id="opencv-ml-svm">
  <svm_type>C_SVC</svm_type>
  <kernel><type>LINEAR</type></kernel>
  <C>1.0000000000000001e-01</C>
  <term_criteria><epsilon>1.1920928955078125e-07</epsilon>
    <iterations>1000</iterations></term_criteria>
  <var_all>1764</var_all>
  <var_count>1764</var_count>
  <class_count>2</class_count>
  <class_labels type_id="opencv-matrix">
    <rows>1</rows>
    <cols>2</cols>
    <dt>i</dt>
    <data>
      -1 1</data></class_labels>
  <sv_total>1</sv_total>
  <support_vectors>
    <_>
      8.04369301e-02 2.32313611e-02 3.31956930e-02 1.62847601e-02
      5.32245040e-02 2.35145427e-02 7.81407207e-02 5.55405319e-02
      9.38055366e-02 1.12812974e-01 3.28145139e-02 1.43366326e-02
      2.73997355e-02 1.03882737e-02 1.10424114e-02 1.84508003e-02
      1.22566475e-02 1.03275731e-01 1.12200722e-01 -4.26669829e-02
      3.55628915e-02 1.06756128e-02 1.75124500e-02 3.18163708e-02
      7.58701414e-02 4.22227234e-02 1.13533519e-01 -2.17908416e-02
      -9.19436142e-02 4.75110523e-02 1.31093320e-02 -6.25734776e-02
      4.92452234e-02 1.81127414e-02 -2.83603277e-02 -1.60986446e-02
      1.13849632e-01 2.97087040e-02 3.74990515e-02 3.31809334e-02
      5.94780371e-02 2.61488184e-02 1.01873977e-02 1.36374566e-03
      9.04671773e-02 1.38140321e-01 3.64003256e-02 4.60406952e-02
      2.91850492e-02 -1.44097582e-02 4.85551581e-02 2.95458511e-02
      3.94742377e-02 1.13060497e-01 -6.97672516e-02 5.47328070e-02
      8.05324614e-02 5.06599396e-02 8.70840028e-02 1.14042938e-01
      3.22795589e-03 -1.24445725e-02 -7.45965913e-02 2.19171285e-03
      5.24385497e-02 3.03122774e-02 2.64573173e-05 -8.48210603e-02
      -4.31968234e-02 -2.66647656e-02 -7.36298785e-02 -9.00052786e-02
      1.27158478e-01 4.20798250e-02 6.68799505e-02 2.39918511e-02
      1.67614389e-02 2.95815878e-02 1.86836030e-02 1.50360186e-02
      1.08434372e-01 7.71365613e-02 2.14073472e-02 5.05084209e-02
      -4.41558054e-03 -7.54116327e-02 -8.44384134e-02 -5.44828027e-02
      1.18468134e-02 8.28334168e-02 3.28096636e-02 3.92452180e-02
      6.08479008e-02 2.78696232e-02 -1.22491224e-02 -2.43050698e-02
      -4.40341420e-03 -4.50232551e-02 -2.10746750e-02 5.68583421e-03
      6.92986995e-02 1.09515078e-01 4.56387289e-02 -1.14668354e-01
      -1.18816920e-01 -1.13607034e-01 -1.07696749e-01 -6.69453740e-02
      8.39154199e-02 3.33645903e-02 8.54874775e-02 6.60565645e-02
      3.10564674e-02 -4.85441089e-03 -6.07823534e-03 -5.35637466e-03
      6.95881546e-02 8.35061669e-02 6.04411885e-02 4.94239181e-02
      2.31922697e-02 1.04784667e-01 -1.28174108e-02 -2.30358448e-03
      2.44808756e-03 7.23054186e-02 4.31791656e-02 5.99210523e-02
      1.15834296e-01 6.13802560e-02 -4.24620099e-02 -6.18661344e-02
      -1.71184570e-01 -1.30219072e-01 -4.66982536e-02 5.14176935e-02
      8.60196352e-02 4.14041728e-02 6.14082329e-02 -6.80202469e-02
      -1.06014319e-01 -1.09505408e-01 -5.68880104e-02 6.62074285e-03
      2.75377575e-02 9.60792005e-02 9.36680883e-02 5.41411862e-02
      1.23975622e-02 -1.59537625e-02 -7.46878684e-02 -4.89015132e-02
      -5.36281569e-03 3.53956269e-03 4.01651710e-02 4.41053398e-02
      2.60773487e-02 6.04323186e-02 6.39384671e-05 -7.92011470e-02
      -5.84248863e-02 -3.64073366e-02 1.07399136e-01 7.66780525e-02
      7.03818128e-02 3.75595018e-02 -5.02803475e-02 -6.46632537e-02
      -1.56814933e-01 -1.06986448e-01 6.43526167e-02 1.21714629e-01
      8.00564736e-02 7.34392479e-02 2.89315581e-02 -1.21358074e-02
      -3.62490080e-02 -6.51525483e-02 -2.94767227e-02 1.09222800e-01
      2.25132070e-02 3.08880415e-02 5.77965602e-02 6.59810081e-02
      9.43200886e-02 2.22263746e-02 -1.37844741e-01 -9.72148851e-02
      -5.81601225e-02 4.72900867e-02 2.19474193e-02 4.87240925e-02
      4.02493738e-02 6.82957768e-02 1.75951067e-02 -8.12186450e-02
      -5.79198301e-02 -8.37180018e-03 8.89352113e-02 4.10706364e-02
      4.72174622e-02 5.84031008e-02 1.17579103e-02 -9.26809292e-03
      -2.60324478e-01 -1.09951526e-01 9.72894428e-04 8.99747238e-02
      2.68864501e-02 2.93621253e-02 2.81474870e-02 6.87505910e-03
      -3.99399810e-02 -6.10407889e-02 -4.10984941e-02 -2.75311433e-03
      3.81708741e-02 1.97965503e-02 3.78029048e-02 3.12274117e-02
      3.97111066e-02 -8.94131698e-03 -4.82369401e-02 -3.79493646e-02
      -6.87065814e-03 3.94863375e-02 1.29246097e-02 2.79105343e-02
      2.59928480e-02 5.60544357e-02 1.89334918e-02 4.91108634e-02
      7.95962382e-03 2.32376233e-02 6.06230833e-02 2.83194762e-02
      2.55373716e-02 -7.02107558e-03 -1.48046851e-01 -1.73194960e-01
      -1.29980475e-01 -1.96190123e-02 -2.37181857e-02 1.01841763e-01
      3.73631082e-02 4.79447395e-02 3.98766473e-02 7.30224326e-02
      2.19354755e-03 -2.72532478e-02 -5.39838970e-02 6.13131747e-02
      7.65920803e-02 7.49576371e-03 4.74310964e-02 1.04710050e-02
      1.55720739e-02 2.35143844e-02 5.69192544e-02 1.49147501e-02
      7.91840628e-02 6.25906065e-02 4.08064164e-02 8.42724890e-02
      1.20579479e-02 1.17893412e-03 1.35743599e-02 5.98009825e-02
      3.36102745e-03 6.11534007e-02 -8.84827822e-02 -3.16641517e-02
      5.45728877e-02 1.65164694e-02 -3.97223905e-02 4.26257448e-03
      4.22535948e-02 1.00912051e-02 -6.39779270e-02 -5.74290939e-02
      2.33943947e-02 -2.83108931e-03 -5.73594030e-03 -5.02634444e-04
      -3.72258238e-02 4.42874245e-02 -5.63819669e-02 -6.46466613e-02
      9.97133404e-02 6.51663840e-02 7.27933124e-02 3.27200107e-02
      2.72782594e-02 3.56015787e-02 2.19388455e-02 -3.70927528e-02
      7.57963136e-02 5.84728196e-02 5.28418720e-02 9.92141441e-02
      2.44201850e-02 -4.79486473e-02 -5.48154004e-02 -5.87175563e-02
      -1.06245674e-01 -1.52970925e-02 -4.09166031e-02 4.00160924e-02
      6.14726208e-02 2.59173010e-02 1.41833778e-02 4.07993123e-02
      6.02810644e-02 -3.43807340e-02 -3.02539654e-02 -1.32685825e-01
      5.63522466e-02 1.64049327e-01 6.25461265e-02 2.44736113e-02
      2.13527810e-02 -5.78653626e-02 -1.31200135e-01 -1.21328451e-01
      7.12072551e-02 4.84840870e-02 8.19246620e-02 4.02987972e-02
      2.57408787e-02 7.08847307e-03 -4.13681567e-02 -8.79142359e-02
      -1.51660349e-02 5.47235049e-02 1.87722500e-02 4.90732752e-02
      3.40342186e-02 5.40505201e-02 2.55042780e-03 -5.31310774e-03
      -3.39616686e-02 8.53065774e-03 -9.19512007e-04 1.10820375e-01
      1.68534398e-01 1.04706347e-01 3.39995734e-02 8.53014179e-03
      -8.17113891e-02 -1.13132402e-01 -3.16783898e-02 -5.30659370e-02
      1.87794361e-02 2.92746071e-02 6.27483428e-02 -7.47832954e-02
      -5.15183620e-02 -5.81515618e-02 -1.12171009e-01 -1.00909315e-01
      2.90949196e-02 4.67662998e-02 7.64242187e-02 5.18475138e-02
      -9.27721791e-04 -5.62871695e-02 -8.65952149e-02 -5.60713038e-02
      1.10417930e-02 2.74689402e-02 3.24777924e-02 2.00190078e-02
      1.72322225e-02 5.03517129e-03 -5.12616411e-02 -5.37009910e-02
      -5.64806862e-03 4.51646559e-02 2.58066934e-02 3.94703448e-02
      5.17626330e-02 2.16171276e-02 5.33214398e-02 -1.99072659e-02
      -1.16384532e-02 -7.59144202e-02 -1.78315360e-02 -1.40148569e-02
      4.50870916e-02 4.22338359e-02 3.41989435e-02 -1.62979383e-02
      2.48864200e-02 -5.60890809e-02 -7.24282116e-02 -1.85632743e-02
      7.93425515e-02 5.01268841e-02 -2.00265218e-02 -2.43737586e-02
      -7.85875246e-02 -2.64631473e-02 -1.20041482e-01 -6.39596954e-02
      5.90747260e-02 5.21584786e-02 3.16307880e-02 1.92196686e-02
      1.30105605e-02 -4.64005489e-03 -5.27803227e-02 -1.60506330e-02
      3.10581941e-02 5.34095243e-02 7.65636414e-02 3.31258886e-02
      1.79817667e-03 3.56228650e-02 -1.15681086e-02 2.15078946e-02
      -2.33504903e-02 1.62006170e-02 7.31592774e-02 4.39603366e-02
      1.26007674e-02 5.28429577e-04 3.19631957e-02 -3.73373441e-02
      -6.13115355e-02 -9.44358632e-02 -2.66124364e-02 5.02620339e-02
      1.06457412e-01 3.08705140e-02 3.40735503e-02 1.92765314e-02
      -5.69111202e-03 -3.39185372e-02 -8.21684971e-02 -5.32185324e-02
      4.67822626e-02 7.23111182e-02 5.66071831e-02 3.92079763e-02
      4.46279161e-02 -1.31002078e-02 -5.85391559e-02 -1.09898023e-01
      -9.44096595e-02 -3.21086943e-02 7.93057233e-02 2.70633548e-02
      1.17694233e-02 8.26927871e-02 -1.07051238e-01 -1.65094882e-01
      -4.69722860e-02 -1.77768115e-02 5.87320589e-02 9.55034867e-02
      7.10903108e-02 5.05686775e-02 7.74830654e-02 -3.44603471e-02
      6.87128399e-03 -2.97333766e-02 -1.42615219e-03 1.13172270e-01
      1.18298739e-01 3.99152860e-02 2.76683904e-02 2.53078304e-02
      3.84387337e-02 -7.27484152e-02 -8.54698494e-02 -6.75169304e-02
      9.75777432e-02 7.46107996e-02 5.31169996e-02 5.75402938e-02
      5.30057028e-02 1.36841713e-02 -6.05586767e-02 -5.30640706e-02
      -3.91722098e-02 4.53640446e-02 7.39500970e-02 6.31321892e-02
      5.05523980e-02 1.11429341e-01 1.76345147e-02 7.67499954e-03
      -8.07202086e-02 -2.84152143e-02 7.62932599e-02 4.98052537e-02
      3.12806033e-02 3.45472209e-02 2.90135127e-02 -8.06980953e-02
      -1.18878916e-01 -6.10091016e-02 -7.52780810e-02 9.66576952e-03
      2.34526359e-02 4.26422022e-02 6.96628243e-02 5.69673106e-02
      1.11356545e-02 -2.61817053e-02 6.88413298e-03 1.28837274e-02
      1.38455769e-02 -3.75678651e-02 5.36561646e-02 9.03958753e-02
      1.04600172e-02 7.74870301e-03 -2.25693383e-03 9.39869434e-02
      4.51116413e-02 -4.14312519e-02 -6.96923062e-02 -7.92382136e-02
      -2.80427728e-02 -1.15127563e-02 2.68453155e-02 3.87221272e-03
      2.83698402e-02 3.25452210e-03 -7.87195191e-02 -1.34712845e-01
      -7.38663897e-02 -2.34623346e-02 1.84836444e-02 5.09989262e-02
      2.90903635e-02 8.34565423e-03 -3.74715626e-02 -1.57899857e-01
      -8.60692188e-02 2.40561496e-02 8.59109759e-02 3.86126935e-02
      1.66214686e-02 4.35296074e-03 2.85902526e-02 -4.11382467e-02
      -9.10039842e-02 -4.59944941e-02 9.70134977e-03 9.37103480e-02
      7.10257888e-02 5.34180366e-02 2.74248812e-02 -3.46420743e-02
      -5.73860407e-02 -7.58439675e-02 -9.75901335e-02 -3.57533656e-02
      1.42803605e-04 6.42912388e-02 8.20387602e-02 4.79048379e-02
      3.25427987e-02 -3.35038230e-02 -1.04966253e-01 -5.27373776e-02
      -2.68209688e-02 4.11204481e-03 8.18738341e-02 6.81729466e-02
      3.73798050e-02 2.96875406e-02 -2.34322026e-02 -3.69805694e-02
      -7.95614570e-02 4.38709632e-02 1.32886112e-01 4.79222052e-02
      3.81440930e-02 4.46230732e-03 -5.42874783e-02 -1.06998868e-01
      -1.13147147e-01 -6.33501634e-02 1.57399904e-02 4.15014923e-02
      5.32507636e-02 4.05590832e-02 2.68804971e-02 1.22489277e-02
      -5.03773615e-02 -6.47764280e-02 -4.23242524e-02 1.20909195e-02
      4.19017486e-02 3.17453556e-02 2.30578166e-02 -5.53080440e-03
      2.42983755e-02 1.13778459e-02 -1.90020092e-02 -6.73678750e-03
      4.59913611e-02 6.96880072e-02 3.07877325e-02 4.16708663e-02
      -1.17531558e-02 1.36637557e-02 -5.76441456e-03 4.24405932e-03
      -8.71902779e-02 -4.48787659e-02 1.72214191e-02 -3.26051749e-02
      -2.14879755e-02 -1.43841673e-02 -4.86782268e-02 -8.83016810e-02
      -5.43017685e-02 -3.85485440e-02 -2.18347441e-02 3.37229148e-02
      2.21218821e-02 2.07895841e-02 5.65750152e-02 -1.95372831e-02
      -5.58287837e-02 -1.66357439e-02 2.18663402e-02 -1.41274454e-02
      -1.16454139e-02 6.37231907e-03 7.16243684e-02 1.72677431e-02
      -9.75626521e-03 -9.94740985e-03 3.56437825e-02 4.50429097e-02
      1.02021135e-02 4.11745086e-02 1.18831731e-02 6.02174588e-02
      5.99361956e-02 2.13649664e-02 2.49352469e-03 5.56419231e-02
      -1.25360489e-01 -3.46958116e-02 -7.41833635e-03 -4.68503051e-02
      -2.64408849e-02 7.72153810e-02 2.52249539e-02 1.97869129e-02
      -9.69321355e-02 -7.12799234e-03 -2.26717256e-02 -5.12530804e-02
      1.75729562e-02 -5.62184751e-02 -9.23550781e-03 -3.28740454e-03
      1.61927957e-02 -1.19259320e-02 5.37823588e-02 3.90380658e-02
      9.07256454e-02 7.42406920e-02 1.44354284e-01 8.32598507e-02
      9.21954438e-02 5.06365485e-02 6.97389692e-02 6.83850870e-02
      1.31509509e-02 3.01543586e-02 3.44930962e-02 -3.74518847e-03
      -3.88110802e-02 6.86303107e-03 -3.07813031e-03 4.23503779e-02
      5.26168682e-02 6.61950745e-03 -3.64208743e-02 6.74611926e-02
      -1.04006857e-01 8.69985390e-03 -1.43387783e-02 -5.59455017e-03
      8.41797069e-02 6.38281479e-02 4.63548377e-02 8.70996993e-03
      1.68183334e-02 -1.02773599e-01 -3.80429532e-03 2.23360416e-02
      2.47880835e-02 4.26558740e-02 5.69566600e-02 2.26305630e-02
      -1.80846713e-02 2.14919988e-02 -6.00070469e-02 -2.91182306e-02
      -1.42785357e-02 -2.71487050e-03 9.22491103e-02 6.28202856e-02
      4.32888754e-02 2.36330610e-02 -6.26803667e-04 -4.74226028e-02
      -4.17009741e-02 -3.23891602e-02 -1.09266839e-03 4.98717912e-02
      8.92444700e-02 1.03581801e-01 8.79388005e-02 8.87631178e-02
      6.16927408e-02 4.53289300e-02 -5.58136357e-03 3.36878188e-02
      8.92341882e-02 6.86715469e-02 4.50148694e-02 4.74880636e-02
      1.14740795e-02 -1.06135115e-01 -1.23726182e-01 -1.05549559e-01
      -5.25899231e-02 3.11905071e-02 7.08097667e-02 3.96913551e-02
      1.77858826e-02 -4.21855450e-02 -6.98398575e-02 -7.88855627e-02
      -3.30864526e-02 -2.37624031e-02 8.84587094e-02 6.43262789e-02
      1.62714887e-02 -1.26042897e-02 -7.14782774e-02 -1.52952030e-01
      -1.46394372e-01 -1.06123120e-01 -1.78418402e-02 6.59297928e-02
      -7.99958929e-02 -3.11336573e-02 -3.88696827e-02 5.11260750e-03
      3.91636081e-02 -4.70874179e-03 5.06587885e-02 -8.85258196e-04
      -8.94141272e-02 -1.11498319e-01 -8.16591755e-02 -2.09976472e-02
      4.14168946e-02 9.20906663e-02 5.58467619e-02 6.25224486e-02
      3.32807861e-02 -7.95283467e-02 -5.38563393e-02 -7.17173889e-02
      -1.05051056e-01 -1.13037322e-02 3.59614566e-02 -2.71456037e-03
      -1.52638313e-04 1.50175449e-02 -3.90963033e-02 -5.84612265e-02
      -8.96519795e-02 -8.09873268e-02 1.31404744e-02 3.93082760e-02
      2.39699781e-02 2.15822402e-02 -4.44659992e-04 -3.22806425e-02
      -5.05318679e-02 -8.18142369e-02 -4.97978404e-02 -8.45112279e-03
      -3.31502780e-02 -5.13244560e-03 2.29254477e-02 -3.44238654e-02
      -6.05880842e-02 -1.55107612e-02 -4.48309584e-03 2.26661488e-02
      4.64066826e-02 4.57102433e-02 3.48419622e-02 2.56221779e-02
      2.29917951e-02 1.10654896e-02 -1.51549160e-01 -1.02520540e-01
      -7.21998215e-02 -1.42728593e-02 -2.26081870e-02 4.01284136e-02
      8.84374604e-02 5.24821132e-02 -1.50227249e-01 -6.41456172e-02
      -1.15649281e-02 1.75582711e-02 -1.10560516e-02 -6.93637691e-03
      3.29423919e-02 7.97345191e-02 4.09793556e-02 -3.00134532e-02
      -7.43028820e-02 -1.20959831e-02 4.09025699e-03 6.50385814e-03
      -6.13495568e-03 -4.70661707e-02 -9.65837110e-03 -4.22554538e-02
      -5.07598147e-02 2.35602222e-02 3.24437581e-02 4.06688526e-02
      7.09054014e-03 4.54969332e-03 -2.15991326e-02 7.06928447e-02
      6.19241931e-02 3.17046717e-02 -8.54983926e-02 -8.18709806e-02
      -4.91352156e-02 -7.70818070e-02 -5.50528010e-03 3.85230929e-02
      3.23100872e-02 -2.37597413e-02 -4.81074229e-02 -2.55860128e-02
      -1.95816942e-02 3.46699194e-03 -2.80891620e-02 -2.71789520e-03
      4.74058613e-02 1.20283127e-01 9.23055038e-02 7.77622627e-04
      -9.58737265e-03 -2.58875806e-02 2.62342636e-02 -1.26044182e-02
      -2.71633337e-03 -2.67916322e-02 1.13287913e-02 -6.51868526e-04
      4.04748507e-02 2.76895575e-02 -1.77603438e-02 9.64704622e-03
      -1.47646433e-02 2.40191426e-02 1.27419531e-02 3.93700488e-02
      -3.72603012e-04 5.79308011e-02 -4.27127369e-02 -7.26697035e-03
      -2.61114836e-02 -7.14047253e-02 -8.18893537e-02 1.54261710e-02
      1.20791651e-01 1.39201581e-01 -2.28056982e-02 -1.39067033e-02
      -4.34261421e-03 -1.81951672e-02 -1.38291968e-02 -3.10802348e-02
      -4.72734403e-03 6.79061115e-02 5.52634969e-02 -1.48021756e-02
      -7.85872564e-02 -7.23892869e-03 1.82510149e-02 1.39625529e-02
      3.54815014e-02 3.28201428e-02 5.54826185e-02 4.28676279e-03
      -2.51165945e-02 1.96406152e-02 9.21637751e-03 4.90439720e-02
      6.13940470e-02 9.40400455e-03 1.31831011e-02 7.02903867e-02
      2.25691479e-02 1.70975197e-02 2.40670145e-02 3.26599702e-02
      6.58240020e-02 4.14915867e-02 5.60201518e-02 5.57286777e-02
      9.62573141e-02 1.15103766e-01 3.33262719e-02 -5.85463755e-02
      -5.19103482e-02 -1.74827961e-04 3.81765254e-02 -1.63850281e-02
      -4.15511755e-03 4.15403321e-02 4.04112935e-02 -2.23883130e-02
      -7.30786547e-02 -1.34195641e-01 -2.13473439e-02 -1.16082504e-01
      -9.11029279e-02 -2.68675834e-02 4.44646925e-02 1.15948394e-02
      -5.18571846e-02 9.12227333e-02 3.69504169e-02 2.69394312e-02
      2.02349294e-02 6.09268285e-02 -2.83804033e-02 -2.14549117e-02
      1.00367805e-02 3.62493582e-02 4.79183067e-03 -2.77210176e-02
      1.59513708e-02 2.59615723e-02 7.93194696e-02 -3.98420449e-03
      1.23280771e-01 5.48681580e-02 2.37077642e-02 -3.69203207e-03
      -9.54560097e-03 1.43565517e-02 -2.65530832e-02 4.15731110e-02
      1.18792430e-02 9.10194218e-03 6.13017054e-03 4.57247123e-02
      1.17062949e-01 4.31665592e-02 6.60151094e-02 -3.03408839e-02
      -4.11983915e-02 -6.17433637e-02 -8.60603526e-03 -8.59828945e-03
      1.12322241e-01 1.25521328e-02 1.04304561e-02 -1.96330110e-03
      -3.44410352e-02 -1.42426282e-01 -2.11478248e-01 -1.56876087e-01
      -3.15381140e-02 3.49285174e-03 6.92814961e-02 -1.68789681e-02
      1.40088890e-03 1.41725910e-03 -4.37715016e-02 -4.71095666e-02
      8.93447828e-03 -2.32595182e-03 7.90555179e-02 6.41220808e-02
      2.38742214e-02 3.51393372e-02 1.71030015e-02 -1.69651601e-02
      -1.66926309e-02 -1.13051524e-02 6.82090223e-02 1.01204559e-01
      8.94123130e-03 -4.87419069e-02 -6.20500892e-02 3.22391503e-02
      1.25004500e-02 -2.42354516e-02 8.43674224e-03 3.74011672e-03
      2.67445873e-02 -4.30001058e-02 -9.37074572e-02 -6.05822057e-02
      -8.58914927e-02 -1.36823550e-01 -6.47459477e-02 -3.85569176e-03
      -1.03684813e-02 -1.79656353e-02 6.38661683e-02 1.39494669e-02
      2.95835454e-02 5.80928884e-02 -3.02861328e-03 -1.24423234e-02
      1.83926877e-02 2.60812938e-02 6.07568920e-02 -2.68698689e-02
      1.50400968e-02 8.49918425e-02 3.96887399e-02 -4.72114533e-02
      -4.20522923e-03 1.82732679e-02 2.96794865e-02 7.52337929e-03
      -7.15976283e-02 -7.58271366e-02 -4.40227799e-02 -1.07380142e-02
      -1.60797518e-02 9.42943897e-03 9.39796492e-02 1.49574662e-02
      -5.15680537e-02 -5.74165955e-02 -5.80171496e-02 -5.10499161e-03
      7.13787274e-04 4.19396833e-02 5.38696088e-02 6.90675750e-02
      2.44813785e-02 -2.93391626e-02 -8.90732482e-02 -2.26182230e-02
      -9.98056785e-05 2.34475881e-02 -1.13325514e-01 -1.12878084e-02
      9.18131098e-02 5.28685795e-03 -5.74523211e-02 -2.52251867e-02
      -2.62642037e-02 -9.78850853e-03 7.75313424e-03 6.30326048e-02
      4.58935760e-02 7.50119835e-02 3.94937061e-02 -5.85386017e-03
      -9.85934287e-02 -1.06440745e-01 -3.96590047e-02 -6.15856610e-02
      -2.22179778e-02 4.33678888e-02 7.47454166e-02 1.60286762e-02
      -6.82920143e-02 1.47966668e-02 -3.61965969e-02 -2.79053599e-02
      -2.57856231e-02 1.23050865e-02 5.16744070e-02 1.37736842e-01
      7.83844888e-02 2.01044511e-02 -9.96669456e-02 -7.45820403e-02
      -1.14922610e-03 -5.13146706e-02 1.73302740e-03 1.34201124e-02
      7.84218460e-02 1.07717089e-04 -8.59107524e-02 9.52356029e-03
      -1.55074699e-02 -3.95191200e-02 3.36856842e-02 8.01314488e-02
      8.13448876e-02 1.63724780e-01 9.84847546e-02 -1.92719940e-02
      -4.62767817e-02 3.96457054e-02 -1.18747335e-02 -1.63023062e-02
      2.21968349e-02 5.40618412e-02 9.66003388e-02 7.98028037e-02
      -9.93120391e-03 4.61071469e-02 3.18230949e-02 3.70480828e-02
      5.48459589e-02 3.57930660e-02 5.15310057e-02 7.36610442e-02
      5.87630272e-02 3.17368545e-02 -7.56068826e-02 -4.33860086e-02
      -6.78327754e-02 -3.37605774e-02 2.02072741e-04 -1.64010469e-02
      3.26123163e-02 -4.18906733e-02 -1.56097129e-01 -2.21767295e-02
      4.88845780e-02 4.89868745e-02 6.09003976e-02 -2.79016308e-02
      -3.06837232e-04 5.29955178e-02 2.56098211e-02 -3.07355691e-02
      4.80035841e-02 6.59001470e-02 8.33627135e-02 5.83391599e-02
      5.25909886e-02 5.94313033e-02 1.14608929e-01 8.60576406e-02
      5.13516255e-02 2.18180455e-02 2.31324658e-02 3.91394272e-02
      2.62596328e-02 -8.46077781e-03 1.20435031e-02 3.28738280e-02
      1.18240546e-02 2.50905403e-03 -5.02905101e-02 1.28159337e-02
      4.57629710e-02 3.71591076e-02 1.51210055e-02 2.95550264e-02
      7.83718154e-02 9.43955928e-02 -6.62098378e-02 -9.53977332e-02
      -5.71368374e-02 -5.04350737e-02 -6.73259720e-02 2.08193734e-02
      4.44140285e-02 8.11733231e-02 2.60081086e-02 -5.58316894e-02
      -3.48977366e-04 3.89399193e-02 3.73724513e-02 4.98677939e-02
      -5.85968373e-03 8.08792561e-03 1.72835104e-02 -1.02296369e-02
      -2.51571499e-02 -4.61911783e-03 2.86997724e-02 2.71306317e-02
      4.71161716e-02 4.29721847e-02 1.99106708e-03 1.23039249e-03
      -7.03926291e-03 2.01525111e-02 -2.00844761e-02 -7.51076499e-03
      -2.07368340e-02 -1.88944489e-02 2.28847992e-02 2.95691397e-02
      8.43240395e-02 4.64013964e-02 1.12891681e-02 1.35753478e-03
      -2.72337571e-02 -4.42931131e-02 5.58936677e-04 -3.41212340e-02
      2.51960829e-02 2.90449467e-02 3.46956104e-02 -2.94270017e-03
      -3.50490436e-02 -4.03928161e-02 -7.48208463e-02 1.75042134e-02
      -3.28524746e-02 -5.80876358e-02 -3.14938501e-02 -2.63077077e-02
      -2.73961201e-03 3.18233781e-02 -7.31686363e-03 -1.10003247e-03
      9.03985463e-03 -7.55873322e-02 -6.39752373e-02 -2.44883541e-02
      6.63922057e-02 5.11807352e-02 4.67922278e-02 -1.97959952e-02
      2.20673857e-04 -3.11130695e-02 5.96142448e-02 1.54926050e-02
      5.16314507e-02 3.65856588e-02 8.56274068e-02 4.96146195e-02
      4.12396947e-03 -1.85328461e-02 5.28780092e-03 -5.26827574e-02
      7.07864761e-03 7.65266791e-02 6.28543645e-02 6.41372278e-02
      2.09703669e-02 1.70298386e-02 6.39200583e-02 1.99184716e-02
      -1.58162490e-02 2.68968032e-03 -3.07686031e-02 -2.46243575e-03
      6.97794324e-03 -1.19844407e-01 -5.87445050e-02 1.56839937e-02
      2.47721411e-02 -2.98586637e-02 -6.29479392e-03 -9.70744193e-02
      -5.89179322e-02 -8.82017165e-02 1.04983889e-01 -2.66573150e-02
      2.26881150e-02 1.26521252e-02 8.02145898e-03 3.98874804e-02
      3.20876539e-02 6.29127249e-02 9.42122564e-02 5.41777387e-02
      -2.84154303e-02 3.24930437e-02 1.91907492e-02 -2.11038403e-02
      2.56144982e-02 -4.93689952e-03 -3.48336436e-02 3.27716880e-02
      -6.74726591e-02 -8.91001001e-02 -6.86632246e-02 7.47096073e-03
      4.72510122e-02 4.28924039e-02 3.69604640e-02 4.36426187e-03
      -3.59985605e-02 -8.25773478e-02 -9.84464288e-02 -3.96389030e-02
      -4.77548279e-02 2.40947828e-02 2.37413421e-02 5.37248328e-02
      1.09467255e-02 -5.72135001e-02 1.45480316e-02 -3.63018401e-02
      4.24167030e-02 1.29638799e-02 -8.40332475e-04 -2.53002904e-03
      -3.98265757e-02 -5.73009290e-02 -3.53907468e-04 2.84491517e-02
      -5.74068688e-02 1.88747309e-02 2.05849782e-02 3.81126180e-02
      3.69513817e-02 6.04959726e-02 8.06016941e-03 7.54375756e-02
      -2.39064246e-02 -4.31139655e-02 4.34875414e-02 3.61720868e-03
      6.94997907e-02 6.24836273e-02 1.29246205e-01 6.36056736e-02
      -1.69176683e-02 -2.81611755e-02 -7.01079890e-02 -6.95579574e-02
      6.51733484e-03 8.21473300e-02 4.25646566e-02 1.03843302e-01
      4.92716096e-02 -3.92249487e-02 -3.67972255e-02 -1.33770764e-01
      -2.02760566e-02 -1.57801490e-02 -6.56683091e-03 3.46638039e-02
      6.21444918e-02 3.18832546e-02 -7.48267537e-03 -2.27103364e-02
      -8.60125422e-02 -4.55953777e-02 -3.55484039e-02 -3.99735160e-02
      2.83737462e-02 5.03966324e-02 3.40055339e-02 -1.04968203e-02
      -1.30743310e-02 -3.17813046e-02 -4.69752625e-02 -1.82395857e-02
      8.57971162e-02 3.06053516e-02 6.28734827e-02 1.20757762e-02
      -5.52881695e-02 -1.38350260e-02 2.52322070e-02 1.52643388e-02
      1.96768045e-02 -1.85022205e-02 4.01142687e-02 7.48387277e-02
      4.47528027e-02 -3.08936127e-02 -1.14699500e-02 -8.02616179e-02
      -5.83058037e-02 -9.65932310e-02 -2.30030343e-02 -1.80663802e-02
      2.20934376e-02 1.38747878e-02 -1.53006865e-02 -9.66431051e-02
      -4.89881784e-02 -4.19614762e-02 -3.28823552e-02 1.35735516e-03
      7.11524338e-02 8.12347829e-02 6.28509074e-02 -1.38855502e-02
      -1.47815663e-02 8.41486081e-03 3.79107744e-02 1.85993910e-02
      9.60451961e-02 5.86240217e-02 8.34266916e-02 5.99713996e-02
      -2.28926335e-02 -5.22931144e-02 -4.56324928e-02 -6.03929311e-02
      -1.53833684e-02 1.17779039e-02 4.65307087e-02 8.76289755e-02
      5.61679527e-02 -5.01151793e-02 -6.16059043e-02 -4.05820087e-02
      -4.62416932e-02 -7.02477247e-02 5.40451482e-02 5.71643300e-02
      4.35866117e-02 2.28867382e-02 -6.67545721e-02 -3.32624167e-02
      -3.49445716e-02 1.50563987e-03 -5.09657338e-02 -3.89481932e-02
      3.69068258e-03 6.93497732e-02 4.19357717e-02 -4.48280275e-02
      -2.87265964e-02 -4.45059650e-02 -7.28994459e-02 -1.23721741e-01
      -8.98935180e-03 1.58973224e-02 4.97005433e-02 2.39460450e-02
      -3.91104221e-02 6.69350848e-02 1.86840370e-02 -2.05035205e-03
      1.40191196e-02 -2.99103130e-02 2.32705250e-02 4.07268815e-02
      5.10717593e-02 5.57980910e-02 -1.32112228e-03 -9.84699745e-03
      1.64865497e-02 -5.47407493e-02 -1.23757578e-03 -3.16638350e-02
      2.67259385e-02 3.34096737e-02 -1.71310622e-02 3.90826426e-02
      2.75267921e-02 2.15117000e-02 -1.20435236e-02 -2.72160787e-02
      -3.72767332e-03 5.12957871e-02 3.87702994e-02 4.17611226e-02
      1.84653793e-02 -9.40196738e-02 -7.13909864e-02 -5.01040630e-02
      9.34467539e-02 2.03101300e-02 4.64207605e-02 5.59922867e-02
      6.80965409e-02 3.25149000e-02 -7.54792802e-03 -9.68268700e-03
      -1.51918521e-02 -9.80410278e-02 -2.14290712e-02 5.11799417e-02
      6.48854077e-02 7.06761181e-02 6.03914261e-02 3.61367911e-02
      1.87895540e-02 -1.39261214e-02 -3.04373950e-02 -4.10452019e-03
      5.58174588e-02 6.04075976e-02 5.05123325e-02 3.42534222e-02
      1.87427476e-02 -4.18654755e-02 -5.14512435e-02 -8.31850022e-02
      -4.59856167e-02 6.77780248e-03 3.24728526e-02 3.77502665e-02
      9.20102298e-02 4.25644778e-02 5.64541034e-02 3.09254099e-02
      -2.90667601e-02 1.59137622e-02 -3.76472920e-02 8.94144550e-03
      6.26467988e-02 8.34813341e-02 -3.85951400e-02 -3.57062779e-02
      -3.49073485e-02 -6.45286515e-02 -8.08808878e-02 -1.17699683e-01
      -7.80231729e-02 4.85631451e-02 1.11029461e-01 5.04201315e-02
      5.84739521e-02 4.28688079e-02 8.16473290e-02 7.47212842e-02
      8.62332359e-02 7.06859231e-02 1.15349926e-01 4.70143408e-02
      2.62463018e-02 1.10195819e-02 2.64710467e-02 -4.36582509e-03
      3.24202105e-02 2.21849829e-02 -3.03380489e-02 5.25274314e-02
      7.36828595e-02 4.92356718e-02 9.56282690e-02 4.01449911e-02
      -1.39559088e-02 2.99818870e-02 2.38596573e-02 6.92586694e-03
      9.65381563e-02 2.27847090e-03 -8.43409449e-02 -7.81805515e-02
      -1.11503322e-02 -6.78001866e-02 5.42046390e-02 8.26750696e-02
      6.97734728e-02 3.39091197e-02 5.35437390e-02 -1.72418542e-02
      1.94482449e-02 -9.03356820e-03 -6.26138691e-03 -1.76002737e-02
      8.28302186e-03 8.45183991e-03 8.19871202e-02 -5.06068729e-02
      -1.82339381e-02 2.68495432e-03 2.79982314e-02 3.35575230e-02
      8.32383148e-03 2.39516236e-02 4.11691256e-02 1.61257554e-02
      -2.10458227e-02 -6.80405498e-02 -5.44495881e-02 -2.88492851e-02
      9.86206532e-02 3.53167541e-02 6.33111149e-02 5.32054082e-02
      2.06871517e-02 -1.02041448e-02 -1.40869811e-01 -7.53721222e-02
      -8.04300457e-02 -2.88399309e-02 5.01670167e-02 7.85135403e-02
      7.23892376e-02 2.66173705e-02 -1.74602289e-02 -7.43564442e-02
      -2.47274265e-02 -1.17935156e-02 -2.74523571e-02 -4.75233467e-03
      4.14506160e-02 3.67606245e-02 1.92420464e-02 2.79710386e-02
      -1.93105787e-02 -1.17469253e-02 1.68088488e-02 4.83701266e-02
      9.22104716e-02 1.13714635e-01 6.68022633e-02 5.69644384e-02
      -1.45146325e-02 -1.06255636e-01 -6.87540993e-02 -3.03399935e-02
      9.65019129e-03 7.81117007e-02 1.07053414e-01 6.32534400e-02
      1.60474628e-02 7.05539882e-02 -3.73306163e-02 -8.38991031e-02
      -6.86204061e-03 7.12321624e-02 5.39806597e-02 9.79071110e-02
      4.78017367e-02 7.90039822e-02 -4.42857947e-03 -4.81361151e-02
      -2.33957283e-02 1.20934043e-02 7.11125508e-02 1.00755528e-01
      1.38569131e-01 8.19428712e-02 4.31563370e-02 -3.48579255e-03
      -1.00829586e-01 -1.15399495e-01 -7.08647892e-02 9.02280062e-02
      5.88775054e-02 5.10540232e-02 3.22818458e-02 7.47295544e-02
      3.29264887e-02 -1.44457752e-02 -2.14022379e-02 3.66623397e-03
      8.68690014e-02 4.50498462e-02 3.28927375e-02 4.60133143e-02
      5.65879270e-02 6.85897171e-02 -2.46405192e-02 -1.20532274e-01
      -9.97981429e-02 -7.46633634e-02 1.36842160e-03 4.14895415e-02
      1.01330042e-01 4.39036153e-02 1.21896695e-02 -7.97987059e-02
      -7.13485703e-02 -5.71237728e-02 6.34689108e-02 5.08329757e-02
      3.21813533e-03 9.90826637e-04 3.74759883e-02 -2.73429118e-02
      -4.69621876e-03 8.51715356e-03 -1.19110337e-02 -2.88248397e-02
      -8.05018749e-03 -2.59953067e-02 -4.07869592e-02 -3.85392271e-02
      -6.72139600e-03 -2.59915404e-02 -4.11102176e-03 -7.51354620e-02
      -4.76339310e-02 -4.63067032e-02 1.40360119e-02 4.48149331e-02
      2.10504644e-02 1.01068214e-01 9.14513506e-03 1.59947835e-02
      -7.88375444e-04 -6.68852078e-03 1.10448962e-02 8.87398496e-02
      7.20434561e-02 9.73305777e-02 -3.46723087e-02 -2.90718880e-02
      1.45713915e-03 -8.78123790e-02 -1.17596351e-01 2.71319388e-03
      -1.14345197e-02 -3.57933305e-02 -3.67511362e-02 -7.10765785e-03
      7.02539273e-03 6.63941307e-03 1.30534684e-02 -2.45873798e-02
      -3.44457617e-03 2.90102679e-02 -4.18714210e-02 6.32201694e-03
      8.69625583e-02 2.85739545e-03 2.13276763e-02 -6.61728829e-02
      -1.26660261e-02 -5.98026533e-03 8.18781555e-02 5.40045425e-02
      1.05704114e-01 1.26122758e-01 2.10645050e-02 2.81905616e-03
      -3.46182100e-02 -7.48640522e-02 8.49716645e-03 4.72645462e-02
      3.83719541e-02 1.24757253e-01 1.01363147e-02 -5.28406911e-02
      -5.93498461e-02 -2.20377333e-02 3.46564688e-02 1.45738954e-02
      4.50880900e-02 1.19025037e-02 1.33269951e-02 4.49085981e-02
      -1.60832442e-02 -2.95832492e-02 -2.51186918e-02 -4.03853096e-02
      7.61965103e-03 4.03184146e-02 2.09664181e-02 7.51475096e-02</_></support_vectors>
  <decision_functions>
    <_>
      <sv_count>1</sv_count>
      <rho>-1.7941706916940050e+00</rho>
      <alpha>
        1.</alpha>
      <index>
        0</index></_></decision_functions></my_svm>
</opencv_storage>
