<?xml version="1.0"?>
<opencv_storage>
<my_svm type_id="opencv-ml-svm">
  <svm_type>C_SVC</svm_type>
  <kernel><type>LINEAR</type></kernel>
  <C>1.0000000000000001e-01</C>
  <term_criteria><epsilon>1.1920928955078125e-07</epsilon>
    <iterations>1000</iterations></term_criteria>
  <var_all>1764</var_all>
  <var_count>1764</var_count>
  <class_count>2</class_count>
  <class_labels type_id="opencv-matrix">
    <rows>1</rows>
    <cols>2</cols>
    <dt>i</dt>
    <data>
      -1 1</data></class_labels>
  <sv_total>1</sv_total>
  <support_vectors>
    <_>
      2.04337344e-01 1.78126879e-02 -1.70046778e-03 -1.11632220e-01
      3.78128849e-02 -1.67239651e-01 1.13131516e-02 2.60187667e-02
      2.08450764e-01 1.29623741e-01 -6.72855079e-02 -2.38630679e-02
      -7.31343627e-02 -4.97588143e-02 -1.48173749e-01 7.79637182e-03
      2.30382718e-02 1.89907566e-01 1.23104826e-01 -1.49358481e-01
      -8.13231766e-02 -7.28950351e-02 3.23882140e-03 -2.34315265e-02
      8.19389597e-02 -1.70222875e-02 1.29906788e-01 -6.81238472e-02
      -2.33239576e-01 2.98196101e-03 -3.57463397e-02 -1.79007445e-02
      -5.03292046e-02 -7.09797780e-04 -1.07834280e-01 -6.65867850e-02
      9.42075923e-02 -6.87077120e-02 5.81808686e-02 -2.73205917e-02
      -1.81390177e-02 -1.26431614e-01 -3.01999375e-02 -1.34984935e-02
      1.73856765e-01 9.28244293e-02 -1.00291453e-01 -3.87103781e-02
      -5.13170362e-02 -8.33308846e-02 -1.29236476e-02 2.12658979e-02
      6.10962436e-02 1.15447611e-01 -9.48752612e-02 -3.90667170e-02
      3.94105241e-02 3.85014936e-02 -4.30279002e-02 2.45482624e-02
      8.81225616e-02 4.57819663e-02 -6.02897145e-02 -2.32581776e-02
      -4.51052226e-02 -6.09911196e-02 -1.61809996e-01 -1.77537605e-01
      -1.11434080e-01 -3.05074975e-02 -1.16692163e-01 -1.39601976e-01
      5.88472337e-02 2.55186670e-02 7.29437619e-02 -7.58230761e-02
      -1.17020346e-01 -7.67858103e-02 2.71415524e-02 2.27076821e-02
      9.18729082e-02 2.92570721e-02 7.15769455e-02 1.31939240e-02
      -1.73328906e-01 -2.59017706e-01 -1.96688190e-01 -4.82067503e-02
      -4.47840989e-02 -1.75953656e-02 -1.04668150e-02 2.40901988e-02
      1.20214060e-01 -6.74419850e-02 -3.96184176e-02 -6.61616325e-02
      2.45288536e-02 -9.40975398e-02 -8.95074680e-02 -3.00271343e-03
      6.71306998e-02 9.40002427e-02 -6.31380826e-02 -1.29723445e-01
      -2.46761411e-01 -8.45027938e-02 -1.44976631e-01 -9.70448330e-02
      1.67718172e-01 8.47641230e-02 6.15724409e-03 -6.14281073e-02
      -2.67749336e-02 -5.11247851e-02 2.05363729e-03 1.45589951e-02
      5.91409095e-02 7.06623644e-02 -6.11472689e-02 -9.91957337e-02
      -1.49714768e-01 1.30010191e-02 -1.46620318e-01 -7.19078034e-02
      -1.23748491e-02 4.97564226e-02 1.18761487e-01 1.16309352e-01
      9.57352743e-02 -3.82459536e-02 -1.49637729e-01 -1.95698008e-01
      -2.08526701e-01 -1.22859307e-01 -4.47229072e-02 4.30172235e-02
      5.43929189e-02 -4.10678647e-02 -1.56305246e-02 -6.29373789e-02
      -2.26800889e-01 -2.47718126e-01 -1.11871086e-01 -3.54479924e-02
      1.04368135e-01 1.46557823e-01 1.16163135e-01 7.60945724e-03
      -1.48446178e-02 -2.65802965e-02 -1.05501838e-01 1.05505232e-02
      2.29067560e-02 1.41007751e-01 9.31411758e-02 1.09767273e-01
      9.86960828e-02 7.78750796e-03 -3.13789560e-03 -1.50025859e-01
      -1.53461704e-02 9.10761207e-03 1.34201810e-01 3.00773606e-02
      4.38909605e-02 8.27833638e-02 -2.12982632e-02 -6.28622472e-02
      -2.36600861e-01 -2.08338350e-01 8.72689858e-02 7.40690306e-02
      3.76586169e-02 7.97209516e-02 7.19690695e-02 -3.91923040e-02
      -1.04299963e-01 -1.75468728e-01 -9.09681395e-02 2.17125323e-02
      1.59862056e-01 4.01899368e-02 1.03218602e-02 6.04756065e-02
      2.07038596e-02 -1.43869054e-02 -1.89169079e-01 -1.11017779e-01
      -7.80391973e-03 1.15948863e-01 -9.68870986e-03 -5.32683246e-02
      1.09360740e-02 -4.29702103e-02 -8.43701363e-02 -2.20751584e-01
      -1.42900065e-01 -3.75563465e-02 7.68806338e-02 2.98228618e-02
      -1.76189188e-02 1.11673802e-01 -1.21158687e-02 -2.43214574e-02
      -3.03614616e-01 -7.57997930e-02 -1.90822724e-02 1.57296464e-01
      4.18570265e-03 3.87860462e-02 2.43235566e-02 1.17349252e-02
      -1.12926237e-01 -1.32851586e-01 6.68698624e-02 2.69882604e-02
      4.40236554e-02 -7.97487050e-02 -3.89588624e-02 3.64620872e-02
      8.95781368e-02 -9.42917261e-03 -9.81277749e-02 -1.47815913e-01
      -7.21035674e-02 1.30112872e-01 -2.72129942e-02 4.07596007e-02
      6.51549622e-02 9.43828747e-02 -5.48464470e-02 -1.29177287e-01
      -1.21350564e-01 5.37437014e-02 4.20055650e-02 -1.60527471e-02
      -4.06737765e-03 8.28537196e-02 -1.14127107e-01 -2.25811273e-01
      -1.32597014e-01 2.81974263e-02 -7.75965229e-02 1.01799533e-01
      -2.55869143e-02 1.17302507e-01 1.58739984e-01 9.12677646e-02
      -5.87214567e-02 -1.05687134e-01 -1.16143838e-01 1.12398386e-01
      5.24764732e-02 -9.62594822e-02 -1.04388177e-01 -8.70624930e-02
      5.94289228e-02 -5.74428514e-02 5.12136817e-02 -6.55391961e-02
      1.04728080e-01 1.12208560e-01 -3.50327902e-02 -1.00733988e-01
      -1.61833510e-01 -3.56705859e-02 -1.00666046e-01 -1.10697851e-03
      -8.41455255e-03 1.22838922e-01 -1.13031283e-01 -9.68781933e-02
      -2.42679566e-02 -8.70254263e-02 -9.73338783e-02 -2.27731645e-01
      -1.17814444e-01 -1.20354027e-01 -1.61642596e-01 -1.27455279e-01
      5.64299375e-02 -1.84276942e-02 -1.12626582e-01 -5.11379680e-03
      -1.94913283e-01 -4.39460762e-02 -1.14453554e-01 -1.87912866e-01
      1.45788327e-01 3.33374515e-02 2.31057238e-02 -5.39971553e-02
      -1.33919537e-01 -9.47158039e-02 9.99794081e-02 1.82053447e-02
      1.75572559e-01 3.82248163e-02 -2.13152748e-02 1.14701167e-01
      -1.49579823e-01 -1.91292748e-01 -1.76155463e-01 -8.32025078e-04
      -1.33318335e-01 3.47332731e-02 -6.71732798e-02 3.94081231e-03
      2.90876208e-03 -5.15704863e-02 -8.97784159e-03 -5.87730445e-02
      7.20856413e-02 -1.24164030e-01 -2.97546033e-02 -1.29780829e-01
      -9.86887887e-02 1.75158158e-01 -5.64299598e-02 3.25310268e-02
      -6.95518479e-02 6.13071461e-05 -2.87934661e-01 -1.30762011e-01
      -1.43297920e-02 -7.88297839e-05 1.51430160e-01 -4.77946503e-03
      1.22617977e-02 -3.68308984e-02 1.34857008e-02 -1.18134335e-01
      -2.46593636e-02 -1.17613617e-02 -5.99251874e-02 -5.84432185e-02
      -9.46041271e-02 -5.27686290e-02 -4.31986190e-02 1.71261877e-02
      -1.72267810e-01 -4.64992449e-02 -6.06549866e-02 -1.16368204e-01
      1.83094472e-01 1.06267229e-01 9.60079134e-02 -1.37050850e-02
      -2.29537115e-03 -8.75029862e-02 -9.43473876e-02 -1.11240111e-01
      -1.28482148e-01 -6.47094985e-03 7.43348449e-02 -6.84860423e-02
      -8.85706320e-02 -6.56454340e-02 -2.54650116e-01 -1.14641085e-01
      7.60192424e-02 9.54202041e-02 7.09951892e-02 -1.59963425e-02
      -1.16577290e-01 -1.33149415e-01 -2.66928319e-03 -1.40117444e-02
      5.50957688e-04 -3.97419035e-02 4.57978733e-02 2.06686780e-02
      -3.79673019e-02 3.24872173e-02 -1.31205916e-01 -1.97261900e-01
      -1.94858257e-02 8.67013726e-03 3.88951898e-02 5.23496717e-02
      1.53193876e-01 1.08918741e-01 8.45182836e-02 -5.23973107e-02
      -4.91098240e-02 -7.06766844e-02 5.74717000e-02 -7.07682455e-03
      6.62480742e-02 6.74082935e-02 9.65818986e-02 -1.61685552e-02
      -4.54879664e-02 -1.12070605e-01 -1.16706729e-01 -2.30906215e-02
      4.37371060e-02 4.07336913e-02 2.29298268e-02 9.01368484e-02
      -3.01605854e-02 -2.51525864e-02 -2.27410004e-01 -1.30150422e-01
      1.17910884e-01 -1.66224483e-02 -6.06762581e-02 3.91149670e-02
      9.33938101e-02 3.62628023e-03 -9.01414976e-02 -5.08774945e-04
      7.54111819e-03 -3.32913436e-02 7.59232044e-02 4.82876524e-02
      8.06268454e-02 2.50662267e-01 9.90298688e-02 -6.89029926e-03
      -1.20619386e-01 -5.81843592e-03 1.61534816e-01 1.81733060e-03
      -8.99320319e-02 1.06778130e-01 2.36762777e-01 6.62254319e-02
      -5.47063351e-03 -1.59928516e-01 -2.43242327e-02 1.58046484e-02
      2.38735918e-02 -8.04423764e-02 2.33779047e-02 6.45077750e-02
      8.60257261e-03 -8.35739523e-02 -7.92955086e-02 7.90433865e-03
      2.65589990e-02 -2.74289474e-02 -5.52328257e-03 9.59974825e-02
      1.14362024e-01 -2.16207895e-02 -1.63095787e-01 -8.83416012e-02
      -2.78660152e-02 -1.16626903e-01 -2.93511823e-02 -9.34548154e-02
      1.66732088e-01 2.37530202e-01 -5.46071194e-02 -1.56664759e-01
      -9.85319074e-03 -8.20449889e-02 3.95546071e-02 4.95894589e-02
      6.19676858e-02 2.12905556e-01 1.73463821e-01 5.58653474e-02
      5.76141998e-02 -2.72411108e-02 -4.98195179e-02 1.54659450e-01
      4.39288467e-03 -5.99858351e-03 -2.07695342e-03 -2.95414049e-02
      -2.92569008e-02 -8.47179070e-02 -1.74264222e-01 -3.42786610e-02
      2.63922829e-02 4.91697341e-02 -3.57001349e-02 1.55204579e-01
      1.47478610e-01 4.98075671e-02 -8.63479823e-02 -1.43872648e-01
      -8.30265060e-02 1.33270444e-03 1.43343685e-02 5.73894829e-02
      1.25092372e-01 1.24164321e-01 3.16918753e-02 -1.36143602e-02
      -2.04703100e-02 -4.61493656e-02 1.28067985e-01 -1.13756128e-01
      3.61226872e-02 1.36854306e-01 1.63054571e-01 -6.76584095e-02
      -1.17531046e-01 -6.48645982e-02 -1.13372833e-01 -3.17486897e-02
      1.10031525e-02 8.49653780e-03 -9.87826474e-03 -7.28861466e-02
      -8.16512555e-02 -1.52306527e-01 -8.34133700e-02 -1.30437491e-02
      -5.01826266e-03 -1.09516226e-01 8.16359967e-02 4.42246087e-02
      -1.38582096e-01 -2.42382730e-03 -3.16468626e-02 6.94632083e-02
      3.58093269e-02 -1.06092229e-01 -1.90710719e-03 -1.06233969e-01
      -7.38826171e-02 -1.78863838e-01 -6.19881190e-02 -1.68354869e-01
      -1.54767379e-01 -9.52983275e-02 -4.74056490e-02 -1.43147454e-01
      -1.54639468e-01 -7.74723962e-02 -2.64116496e-01 -2.72624306e-02
      -5.64503819e-02 -6.80153118e-03 -1.15440898e-01 -6.10249750e-02
      -1.29418269e-01 -4.19081748e-02 7.21751899e-02 -6.66883728e-03
      9.21505168e-02 3.35130692e-02 1.29950330e-01 -1.07376322e-01
      -1.41372129e-01 -4.44543846e-02 -1.63989976e-01 6.34082034e-02
      7.38709792e-02 1.57809824e-01 2.37189885e-02 9.23988819e-02
      -1.54655531e-01 -1.59613371e-01 -1.69498622e-01 -2.25326434e-01
      -1.23901181e-01 -9.72828493e-02 1.26133949e-01 3.37420329e-02
      8.35249871e-02 -1.50709629e-01 -9.88018587e-02 -1.06852628e-01
      -1.73746511e-01 -7.31104761e-02 -5.11575956e-03 1.19152896e-01
      1.62818923e-03 5.29413559e-02 -1.00767612e-01 -2.23102216e-02
      -1.16051391e-01 -1.51709229e-01 9.70227644e-02 1.27198407e-02
      9.11803395e-02 -3.08751725e-02 2.21457705e-02 -1.01739593e-01
      -1.95798129e-01 -1.35014996e-01 -1.24538980e-01 7.57608786e-02
      7.83847049e-02 9.77097452e-02 -5.38876951e-02 -7.82492198e-03
      -9.39815938e-02 -2.00162634e-01 -2.67742686e-02 -7.12274909e-02
      3.49961482e-02 -5.21112606e-02 -2.67065130e-02 -1.13121875e-01
      -7.16634169e-02 -5.12797907e-02 -6.86329156e-02 4.68153134e-02
      -1.00449950e-01 7.82946311e-03 -1.17138959e-02 -1.09731574e-02
      -1.06625035e-01 -3.35745886e-02 -6.86227530e-02 -2.35112812e-02
      -1.21394306e-01 -1.48656145e-01 4.27374355e-02 -3.57269943e-02
      -1.28347039e-01 -8.33657458e-02 9.25927795e-03 -1.03116646e-01
      -1.09041281e-01 -3.92231764e-03 -7.21511245e-02 -3.72141972e-03
      -9.78976116e-03 4.77273762e-02 -5.20763882e-02 -6.91655651e-02
      -1.09605558e-01 4.65786792e-02 5.93924802e-03 -9.81857702e-02
      1.02152318e-01 8.82397369e-02 9.87290218e-02 3.65175381e-02
      5.83965629e-02 -6.49503097e-02 3.53170969e-02 8.16805884e-02
      -7.68298507e-02 9.87188965e-02 7.55144283e-03 1.17840059e-01
      1.39469758e-01 1.47268221e-01 2.48564910e-02 1.33006051e-01
      -1.51367620e-01 -1.37723327e-01 1.32653145e-02 -7.84034729e-02
      -1.12498999e-01 2.91949082e-02 -3.67436334e-02 3.28806341e-02
      3.35122235e-02 -8.35643262e-02 -8.55536759e-02 5.50209209e-02
      9.53288078e-02 -1.07976034e-01 4.81907167e-02 -3.91621925e-02
      -8.38059280e-03 -7.97287375e-02 6.68278784e-02 -9.84495319e-03
      9.81609374e-02 6.63567036e-02 1.51615679e-01 1.95075288e-01
      1.99295759e-01 1.53394654e-01 1.90411225e-01 1.26903400e-01
      2.26236833e-03 1.73980892e-01 1.96979512e-02 -5.74902259e-02
      3.04187406e-02 5.78766279e-02 2.11125035e-02 1.86550751e-01
      -3.01115829e-02 -1.84514165e-01 -2.01855954e-02 -4.00206260e-02
      -1.96774393e-01 -1.33090960e-02 -9.12072062e-02 -8.60468894e-02
      3.35482322e-02 4.20586728e-02 -7.56786838e-02 6.88182414e-02
      6.62223250e-02 -6.08378910e-02 -1.23650588e-01 -4.83600684e-02
      -6.45210147e-02 6.31980971e-02 9.49413478e-02 5.11861742e-02
      1.34365872e-01 2.79167909e-02 -1.28035203e-01 -5.50298356e-02
      -8.13553855e-02 -4.20365594e-02 1.44233376e-01 6.21947199e-02
      2.34502368e-02 1.16120197e-01 1.54112026e-01 -4.57767658e-02
      -5.48719056e-02 -1.53993920e-03 -2.13897420e-05 8.24103877e-02
      -7.11235330e-02 2.02226192e-02 1.37224123e-01 1.11504301e-01
      4.23929654e-02 -7.44446516e-02 -1.67261228e-01 -1.21973582e-01
      2.46924087e-02 2.85048824e-04 3.77706476e-02 1.30957648e-01
      1.28034368e-01 -1.38675794e-01 -2.73672819e-01 -1.38035655e-01
      -1.99947730e-01 1.16842734e-02 6.14423268e-02 -2.87645002e-04
      1.10125341e-01 5.82097135e-02 -2.69267634e-02 -7.11445063e-02
      3.97272892e-02 4.25397605e-02 1.25397965e-01 7.40330294e-02
      3.22742434e-03 8.35159868e-02 4.71299477e-02 -7.01517984e-02
      -2.17495248e-01 -2.08170786e-01 -3.59681472e-02 1.02992505e-01
      5.79612143e-03 -6.51847497e-02 -3.76804322e-02 -9.68901888e-02
      -6.84234425e-02 -1.56352133e-01 -2.18086559e-02 -4.67159264e-02
      -6.10802285e-02 -1.94656208e-01 -2.10782960e-01 -8.12083110e-02
      -1.83528915e-01 -5.57951443e-02 -7.42699057e-02 3.72262448e-02
      -1.02270745e-01 -1.47332281e-01 -1.50493695e-03 -1.06398404e-01
      -6.65864348e-02 -1.33614644e-01 -4.36980985e-02 -1.66733503e-01
      -6.77951500e-02 -5.18030562e-02 -6.40598536e-02 -4.82745208e-02
      -1.02713011e-01 -3.29448059e-02 -5.73383979e-02 -1.10584266e-01
      -8.50617662e-02 -1.90606713e-02 -1.20819248e-01 -1.27010141e-02
      -1.36711136e-01 -1.65038764e-01 -8.35126936e-02 -1.48367554e-01
      -2.21115071e-02 2.04210337e-02 1.72095895e-01 -1.00637011e-01
      -1.02560513e-01 -1.27715737e-01 -6.87887967e-02 6.50736392e-02
      1.06348377e-02 5.42202927e-02 -6.89421641e-03 5.94191253e-02
      -1.36305362e-01 -4.86871563e-02 -2.07835048e-01 -1.58839986e-01
      -3.77754271e-02 4.30585220e-02 -1.09519407e-01 -1.90982725e-02
      1.17304437e-01 -5.01367934e-02 -1.66008100e-01 -1.92586020e-01
      -1.93978667e-01 -2.23719496e-02 5.57243302e-02 1.09535448e-01
      2.12515555e-02 1.26284078e-01 -2.86360197e-02 -1.36705488e-01
      -5.39329834e-02 3.28837670e-02 1.04345284e-01 -3.23996954e-02
      -6.48706928e-02 -1.24849737e-01 -9.10185128e-02 -2.13541538e-01
      -1.18851863e-01 3.96121703e-02 6.31703110e-03 7.21916035e-02
      3.48556857e-03 -4.99782041e-02 -1.24107763e-01 -7.21824542e-02
      -1.46444574e-01 -7.51466230e-02 -1.25934720e-01 -1.75012842e-01
      -7.81740770e-02 -1.11358546e-01 -1.40208546e-02 -8.89574829e-03
      5.46119474e-02 -1.77015498e-01 -2.06111252e-01 7.55783683e-03
      -7.84497410e-02 -1.95031278e-02 1.47026940e-03 -2.25581173e-02
      -3.31257097e-02 4.72910367e-02 -4.88477200e-02 -1.12331562e-01
      -2.08403375e-02 -1.01478890e-01 1.38478428e-01 3.69051732e-02
      2.95301676e-02 -1.76333524e-02 1.15892738e-02 -1.19021043e-01
      -1.18939064e-01 7.12628663e-02 2.99620684e-02 1.81647629e-01
      8.24352801e-02 9.90802422e-02 1.52310459e-02 1.03740707e-01
      -3.51070426e-02 -5.65921105e-02 -1.62981357e-02 -8.69823694e-02
      -7.97041226e-03 -3.70553695e-02 -8.05826206e-03 -4.39672805e-02
      6.95449933e-02 6.69268100e-03 -7.70586953e-02 3.17729153e-02
      1.58419013e-02 3.53503823e-02 4.84976582e-02 -6.19275961e-03
      -8.12404156e-02 4.67691310e-02 -1.26346052e-01 -1.40982270e-01
      -1.38913065e-01 -1.30697824e-02 5.40729016e-02 6.63668849e-03
      -1.19348569e-02 -2.91464087e-02 4.11815420e-02 -1.67411670e-01
      -1.89282715e-01 3.98635194e-02 -4.38220128e-02 7.56847998e-03
      3.42882588e-04 -4.96321134e-02 -1.59766003e-02 6.76989630e-02
      -1.06017143e-01 9.43218470e-02 8.35964903e-02 4.38234843e-02
      1.19232379e-01 1.02255614e-02 -6.21279106e-02 -1.02923349e-01
      3.36173512e-02 -8.53530169e-02 -1.18428387e-01 1.92333460e-02
      -9.54140127e-02 -1.11740017e-02 8.45625699e-02 -4.05236818e-02
      -4.33596112e-02 1.01387203e-01 -4.48000245e-02 -2.83850171e-02
      -1.92759618e-01 -2.89026439e-01 -1.25300288e-01 -1.46306574e-01
      -1.06582649e-01 -5.81382923e-02 -3.67565975e-02 -7.89371952e-02
      -1.38784215e-01 -5.44440411e-02 -4.30560894e-02 4.99034673e-02
      -3.96320075e-02 -7.94496387e-02 -7.90250823e-02 -8.96788761e-02
      -1.27561344e-03 2.41415313e-04 4.51772623e-02 -1.27019227e-01
      -5.80167808e-02 -2.56187562e-02 6.76719099e-02 5.08772507e-02
      2.05567002e-01 3.89220491e-02 3.87263112e-02 -1.05858952e-01
      -3.07429377e-02 -8.11871327e-03 -6.60075471e-02 6.43258020e-02
      5.96794970e-02 6.42834902e-02 8.93094093e-02 3.16412598e-02
      2.35605240e-02 -7.87064508e-02 2.47664470e-02 -1.52879640e-01
      -1.68072894e-01 -1.81957737e-01 1.12328278e-02 1.36543456e-02
      7.92475864e-02 -4.78375293e-02 -1.33751139e-01 -4.25570831e-02
      -1.03006750e-01 -1.29246235e-01 -2.82830268e-01 -2.76534885e-01
      -6.23724349e-02 -8.27069059e-02 1.42785823e-02 -4.69148569e-02
      4.52844985e-02 3.01202089e-02 3.10549308e-02 -1.65309738e-02
      8.47247094e-02 4.42535691e-02 9.76610035e-02 1.26841053e-01
      -3.25680897e-02 7.66943246e-02 -7.86149129e-03 1.18591182e-01
      4.72533656e-03 2.30807364e-02 3.16181965e-02 1.07818380e-01
      6.69046640e-02 -7.34745786e-02 -1.28205955e-01 -5.89457974e-02
      7.84066543e-02 -3.03544868e-02 -3.56569774e-02 -4.92696743e-03
      -1.82214566e-02 -3.00744586e-02 -2.17778981e-01 -1.94935709e-01
      -1.08032525e-01 -2.03045756e-01 -1.45583630e-01 -8.00527260e-02
      -6.01855926e-02 -5.89873306e-02 1.95032373e-01 -1.56824961e-02
      -1.40612081e-01 -1.52148873e-01 1.92270391e-02 -9.06899944e-02
      -6.84597492e-02 -2.24642921e-03 7.31801093e-02 -4.51510213e-02
      -8.95371586e-02 -5.31770922e-02 -1.41127005e-01 -1.09516121e-01
      -5.96880578e-02 -6.14834093e-02 -9.06361938e-02 3.16569023e-02
      -2.05120578e-01 -2.43100762e-01 -1.09277084e-01 1.10523865e-01
      2.58309990e-02 -4.76624668e-02 1.09027572e-01 -1.32204453e-02
      -9.41557512e-02 -2.20013946e-01 -1.94839537e-01 -8.20342358e-03
      1.33597657e-01 1.71906963e-01 6.23763315e-02 8.21345821e-02
      -1.15057547e-02 -1.53818399e-01 -1.29550979e-01 -1.52982429e-01
      -1.21140286e-01 -9.18516703e-03 -7.92783126e-02 -4.67281137e-03
      8.54872912e-02 -8.36000293e-02 -1.66848265e-02 -6.23715408e-02
      -1.35916278e-01 -5.55409268e-02 6.87043071e-02 1.67577490e-01
      5.58063872e-02 6.19932413e-02 -2.29932424e-02 -3.00300606e-02
      -1.60314098e-01 -1.98302627e-01 1.46717206e-03 -5.55160716e-02
      -1.50835086e-02 2.94470377e-02 6.92823604e-02 -6.34081140e-02
      -1.60133630e-01 1.01214774e-01 -7.02330992e-02 1.05334120e-02
      -2.00016964e-02 4.97168163e-03 3.78476419e-02 9.92350727e-02
      1.38010699e-02 1.11728804e-02 -5.28480336e-02 -1.49624228e-01
      -2.29213163e-02 -5.19850403e-02 3.99701744e-02 -5.97674353e-03
      4.07409407e-02 -9.75640267e-02 -1.15459807e-01 -8.30696970e-02
      -7.99155980e-02 -8.84127244e-02 -2.56416444e-02 1.00342356e-01
      1.63560972e-01 1.42388433e-01 7.35090440e-03 -6.87005147e-02
      -7.79193714e-02 -2.65029352e-02 -2.14007194e-03 1.28554786e-02
      4.32650596e-02 6.44459575e-02 6.03712611e-02 -3.79248895e-02
      -8.91747177e-02 1.49613604e-01 2.85069402e-02 5.62729165e-02
      -2.96899136e-02 7.54856840e-02 5.76461218e-02 9.17689428e-02
      -5.46208099e-02 -6.36670552e-03 -1.36766970e-01 -2.71418151e-02
      -5.29921129e-02 -9.89096612e-02 -3.91143002e-03 3.13043669e-02
      -3.52651179e-02 -1.69702992e-01 -2.09767833e-01 4.58215810e-02
      1.16650537e-01 9.79662761e-02 -6.18375465e-03 -1.81002892e-03
      5.76703995e-03 7.40914419e-02 -1.31416954e-02 -2.37437095e-02
      2.33236197e-02 -1.37778753e-02 1.75667685e-02 -1.18911505e-01
      -1.09845158e-02 -1.76632509e-01 -4.15380672e-03 -1.63593233e-01
      -1.26293316e-01 1.12245157e-01 5.08728698e-02 1.33543089e-01
      4.76477742e-02 3.35517824e-02 -8.74300301e-02 6.39748052e-02
      -2.86450461e-02 1.35544187e-03 -5.84173203e-02 -3.60632241e-02
      -4.89343405e-02 -1.30681813e-01 3.46434601e-02 -1.63295791e-01
      -8.01888015e-03 -7.56844729e-02 -1.63104817e-01 -1.24481924e-01
      2.21435614e-02 -2.33687721e-02 -8.20974186e-02 5.35576381e-02
      -2.18206644e-02 7.14250356e-02 -3.21110673e-02 -9.53754634e-02
      -4.60026879e-03 -9.89557281e-02 -5.67505136e-03 -7.48751536e-02
      -6.89247996e-02 -1.03726596e-01 -1.05735902e-02 -5.39874472e-02
      -3.92484553e-02 -4.66140769e-02 -2.73575168e-02 7.29008019e-02
      3.17426920e-02 7.11224154e-02 -1.89549606e-02 -4.65104133e-02
      -7.34659582e-02 -1.50541347e-02 -7.32333809e-02 -1.38207689e-01
      -9.90611911e-02 -5.67008518e-02 -4.24996065e-03 -8.90483335e-02
      -7.22884610e-02 -8.06826651e-02 5.63464127e-02 4.43385951e-02
      -2.08939508e-01 -1.11576162e-01 -1.69667834e-03 2.79761888e-02
      -4.35271934e-02 -1.20016597e-01 -5.12974486e-02 2.36788914e-02
      -6.62455484e-02 -1.48100808e-01 -2.53387652e-02 4.07815538e-02
      4.50752117e-02 -9.23515018e-03 1.15095163e-02 -8.59105680e-03
      5.77306375e-02 -9.68144927e-03 -7.65139237e-02 4.98504154e-02
      -3.99585888e-02 -7.88047630e-03 -6.87259361e-02 -3.76929007e-02
      -1.20083475e-02 5.64402044e-02 2.77957916e-02 -2.01667652e-01
      1.36844069e-03 -5.48026413e-02 7.15359151e-02 4.20680530e-02
      -1.86410844e-02 -4.94634062e-02 7.12671503e-02 -2.17772238e-02
      -2.50388831e-01 -1.32645920e-01 -5.61397076e-02 -1.54003099e-01
      -1.08557843e-01 -3.78571302e-02 -1.54474899e-01 -5.84170185e-02
      7.41957501e-02 1.18753478e-01 1.09972849e-01 -1.22205727e-01
      1.59021821e-02 -6.29523620e-02 -1.44249454e-01 -9.82219726e-02
      -6.33467585e-02 -1.02581643e-01 -9.05272141e-02 -7.22905174e-02
      -1.74355015e-01 -1.08045228e-01 -7.55578056e-02 -1.69260547e-01
      -2.91124552e-01 -1.92449331e-01 1.28888220e-01 7.99910724e-03
      3.18585411e-02 -8.38298574e-02 -2.54856460e-02 5.90664484e-02
      -6.64501637e-02 -9.91170630e-02 3.68142501e-02 5.72122745e-02
      -9.34095401e-03 -8.35927110e-03 -6.28050491e-02 -1.31479288e-02
      2.37897746e-02 -2.04195268e-02 -1.42863601e-01 -6.74416944e-02
      4.30438668e-02 -8.20435137e-02 -1.03663892e-01 -2.93080006e-02
      4.89310957e-02 6.89981431e-02 4.33704965e-02 -1.59154877e-01
      9.60873067e-03 -1.02255940e-01 -1.82614565e-01 -9.15026739e-02
      -4.87310626e-02 3.91802453e-02 -6.37892187e-02 -7.09691718e-02
      -1.06947765e-01 -8.99040774e-02 9.42160189e-02 -7.44326413e-02
      2.58031972e-02 -7.24568143e-02 -1.99359972e-02 3.02957240e-02
      -2.52945032e-02 -1.11900300e-01 -5.21476120e-02 -1.78563651e-02
      -1.35008752e-01 -5.50127402e-02 -5.52373715e-02 -3.20106149e-02
      4.20442298e-02 4.06122282e-02 1.85858402e-02 -4.41949666e-02
      -3.35160606e-02 -2.19963938e-01 -1.35702744e-01 -9.36965272e-02
      3.88495289e-02 -2.17675604e-02 1.38088197e-01 8.34828466e-02
      -3.15317549e-02 3.55570540e-02 -8.13086480e-02 -5.57677858e-02
      1.25089940e-02 1.30719796e-01 1.05202667e-01 1.37166023e-01
      8.15436989e-02 7.22155953e-03 -1.01581417e-01 -2.07839623e-01
      -7.01703653e-02 -1.88069176e-02 -5.71619608e-02 -4.36916091e-02
      5.63099086e-02 -2.05414183e-02 -1.41722530e-01 1.78089738e-02
      -1.34914041e-01 -3.04087773e-02 -1.83419380e-02 4.37405296e-02
      1.38977291e-02 5.58637194e-02 -1.06805354e-01 -2.38213502e-03
      -7.18419030e-02 -6.12124242e-02 -1.36941820e-01 -7.97455981e-02
      -2.57591321e-03 1.48140881e-02 5.23178233e-03 -3.78847383e-02
      -2.19473749e-01 2.67207231e-02 1.51418090e-01 1.29032969e-01
      -2.79159099e-03 1.10914662e-01 7.38742799e-02 8.65340158e-02
      -2.31725927e-02 -6.35599047e-02 -2.38246303e-02 -1.17383339e-01
      -4.62109037e-02 -1.16574287e-01 7.35894218e-02 -3.60001065e-02
      -2.58561149e-02 -4.66588922e-02 -4.28825580e-02 -1.04567245e-01
      -4.71998677e-02 -3.72427106e-02 -7.35595003e-02 1.26637623e-01
      6.73250780e-02 8.56733099e-02 -1.49712793e-03 -6.85851872e-02
      -1.10427327e-01 -4.53017931e-03 -4.17688712e-02 -6.51992559e-02
      1.78714380e-01 2.05381233e-02 3.45048681e-02 -8.37656185e-02
      -1.66321188e-01 -1.45391244e-02 1.57233942e-02 1.08727627e-02
      1.11349234e-02 1.22608922e-01 1.33676112e-01 1.00858755e-01
      1.11019164e-01 1.11530796e-02 -1.15894057e-01 -9.55445096e-02
      -5.77271841e-02 -1.28209561e-01 2.11697742e-02 -5.67369908e-02
      -1.20092958e-01 -1.87308237e-01 -1.65244505e-01 5.67661365e-04
      -3.59708518e-02 -4.48595434e-02 -7.59006962e-02 -2.00097170e-02
      -3.03065535e-02 1.28781097e-02 -5.50867096e-02 -2.73769442e-02
      -8.04948062e-03 -9.88471732e-02 -3.87931950e-02 -7.16760755e-02
      9.46795568e-02 5.14120981e-02 -3.36964615e-02 7.79867321e-02
      6.03108108e-02 3.97600010e-02 -7.71396235e-02 3.30146290e-02
      8.32064301e-02 1.41798332e-01 3.51713933e-02 -4.41652760e-02
      5.65856360e-02 5.27273901e-02 -5.09977899e-03 -1.24869525e-01
      -3.55011821e-02 -1.19872838e-01 -4.57528383e-02 -1.14146866e-01
      -6.71474338e-02 3.20966169e-02 1.73299462e-02 -3.45906941e-04
      -1.55687541e-01 -1.25213191e-01 -7.85664245e-02 -5.51968114e-03
      -1.29514471e-01 -2.05262136e-02 5.54443412e-02 4.80576456e-02
      9.21553895e-02 -1.36094287e-01 -9.26569328e-02 -4.79557225e-03
      2.47127116e-01 3.34606096e-02 3.12718861e-02 2.45486423e-02
      1.02302901e-01 1.58898801e-01 -1.51914433e-02 5.26622608e-02
      1.37548000e-02 -3.46354507e-02 -6.27451241e-02 3.70411552e-03
      -8.13851207e-02 8.11275393e-02 3.99366096e-02 -9.54601821e-03
      5.59901148e-02 -9.87767708e-03 3.36380713e-02 -8.47994685e-02
      6.23779632e-02 -2.95576453e-02 2.50348691e-02 2.15213876e-02
      -1.19411238e-01 -1.67773157e-01 -1.74439654e-01 -3.25525180e-02
      -1.14983171e-01 -7.92266577e-02 -9.60622132e-02 6.54547429e-03
      9.40676555e-02 1.99929364e-02 -3.29011604e-02 -6.97998330e-02
      8.20734445e-03 1.08481944e-02 -9.61046368e-02 -1.97123796e-01
      -1.82667971e-02 1.07328549e-01 -1.03292666e-01 -1.87453344e-01
      -1.17064297e-01 -1.86977033e-02 -1.30609691e-01 -8.19361880e-02
      -1.21374719e-01 -2.86493134e-02 2.38554373e-01 1.30376816e-01
      8.89718086e-02 3.52265500e-02 1.64004173e-02 -6.41289651e-02
      -2.78668515e-02 -8.82367194e-02 8.11587647e-02 6.65199682e-02
      1.60333272e-02 2.75776419e-03 -7.51440972e-02 6.28965721e-02
      -1.17699616e-01 -6.96616769e-02 -7.69026726e-02 -2.57711136e-03
      1.18534490e-01 1.74545087e-02 3.42033766e-02 -6.88139275e-02
      -5.27011007e-02 5.87298125e-02 4.57573682e-02 1.75113995e-02
      1.30081877e-01 3.94190624e-02 -1.75886601e-01 -1.30699262e-01
      -9.11257863e-02 -6.83992431e-02 -5.07910959e-02 2.23827716e-02
      2.51936503e-02 3.49780731e-02 1.45439088e-01 1.52216703e-02
      1.44083142e-01 -5.48006669e-02 3.65881547e-02 -3.79277878e-02
      2.46716868e-02 1.47379741e-01 1.67134956e-01 -6.89039007e-02
      -9.37532559e-02 2.98728198e-02 -6.77778199e-02 -5.31822890e-02
      -1.22506611e-01 -7.69770592e-02 3.57022882e-02 4.94756959e-02
      -4.88764457e-02 -1.61302671e-01 -7.88109526e-02 3.91448960e-02
      1.23761714e-01 -3.41967680e-02 6.89409301e-02 1.19822202e-02
      -5.77112986e-03 -4.75510433e-02 -1.78868920e-01 -9.99459252e-02
      -9.92764011e-02 7.36029968e-02 -2.76616719e-02 5.10595143e-02
      -2.39939746e-02 -2.45700367e-02 -5.70784509e-02 -1.35409966e-01
      -2.77777668e-02 -5.69641776e-02 -6.64138421e-02 -2.51502879e-02
      5.85087165e-02 7.73789212e-02 9.34707150e-02 6.06411248e-02
      -4.48276475e-02 -1.37820080e-01 -6.78618327e-02 2.08377652e-02
      1.08606443e-01 1.46705613e-01 9.11316872e-02 1.89865068e-01
      -6.12554252e-02 -1.63581759e-01 -7.45381415e-02 -1.03890955e-01
      1.14268720e-01 1.40988836e-02 9.94169340e-02 1.60377342e-02
      2.41848044e-02 5.33207022e-02 -9.36328471e-02 -5.78801408e-02
      3.29328403e-02 2.38924742e-01 6.68385997e-02 1.92298040e-01
      5.35333827e-02 2.24985570e-01 6.64853491e-03 -1.53432012e-01
      -9.40297171e-02 -1.50620028e-01 4.52223457e-02 4.03063707e-02
      8.52828100e-02 7.36800730e-02 2.30965763e-01 -1.09663950e-02
      -2.36870855e-01 -1.13821201e-01 -6.63419664e-02 1.48660585e-01
      5.34244925e-02 6.38487935e-02 -2.53217760e-02 1.27407864e-01
      8.13761202e-04 -4.29214947e-02 6.32579112e-03 4.29383740e-02
      1.42622843e-01 5.49865812e-02 -9.96020064e-03 -3.10111847e-02
      1.17347009e-01 4.72617410e-02 2.18056366e-02 -9.24743041e-02
      -1.94462705e-02 3.40273157e-02 -2.61294618e-02 -3.69557440e-02
      1.45891095e-02 -2.33909469e-02 -1.98667385e-02 -2.60616034e-01
      -1.07363641e-01 -4.27610241e-02 1.23393342e-01 5.28980978e-02
      -2.90593170e-02 -8.53309557e-02 4.76299115e-02 -9.06017721e-02
      -8.25004876e-02 -1.97986159e-02 -9.86471493e-03 3.56694357e-03
      -4.69984040e-02 -5.35963103e-02 -3.58910747e-02 -1.57771319e-01
      4.40490693e-02 1.17409602e-02 -9.03209671e-03 -1.05331741e-01
      -9.89773870e-02 -6.90150261e-02 -6.24343148e-03 4.78663594e-02
      5.94554134e-02 1.41869083e-01 3.21163125e-02 9.91569161e-02
      1.41133144e-02 7.94051364e-02 -1.38161983e-02 1.37926728e-01
      1.33536294e-01 1.91970602e-01 -4.70908061e-02 2.21040901e-02
      1.06067233e-01 -1.02797151e-01 -4.37306985e-02 -4.00695354e-02
      -1.04953848e-01 -2.42517628e-02 -1.57587141e-01 -2.82787974e-03
      -6.00674190e-02 -2.98831854e-02 -9.50060040e-02 3.91157437e-03
      3.50359417e-02 4.55600955e-02 -5.72341979e-02 -4.44192812e-02
      1.40072569e-01 9.59291831e-02 7.74481967e-02 3.15824859e-02
      -1.26899304e-02 2.87144091e-02 1.65656507e-01 7.75059536e-02
      2.14363366e-01 2.09805936e-01 7.77474642e-02 5.45530804e-02
      -8.03859252e-03 1.01723470e-01 6.09197207e-02 3.75522003e-02
      -5.02883596e-03 1.64294451e-01 -8.80109146e-04 -1.56757101e-01
      4.31997590e-02 -3.02529186e-02 8.83764625e-02 3.83827314e-02
      1.05217122e-01 -8.96674860e-03 -4.27442528e-02 -7.26697221e-02
      -1.17195539e-01 3.73560674e-02 -3.15604880e-02 5.37257083e-03
      3.02094570e-03 1.91175770e-02 -1.84125319e-01 -5.63509017e-02</_></support_vectors>
  <decision_functions>
    <_>
      <sv_count>1</sv_count>
      <rho>-5.8906172515654625e+00</rho>
      <alpha>
        1.</alpha>
      <index>
        0</index></_></decision_functions></my_svm>
</opencv_storage>
