<?xml version="1.0"?>
<opencv_storage>
<my_svm type_id="opencv-ml-svm">
  <svm_type>C_SVC</svm_type>
  <kernel><type>LINEAR</type></kernel>
  <C>1.0000000000000001e-01</C>
  <term_criteria><epsilon>1.1920928955078125e-07</epsilon>
    <iterations>1000</iterations></term_criteria>
  <var_all>1764</var_all>
  <var_count>1764</var_count>
  <class_count>2</class_count>
  <class_labels type_id="opencv-matrix">
    <rows>1</rows>
    <cols>2</cols>
    <dt>i</dt>
    <data>
      -1 1</data></class_labels>
  <sv_total>1</sv_total>
  <support_vectors>
    <_>
      2.07469668e-02 7.85313081e-04 -4.81629802e-04 -3.21633299e-03
      6.47555850e-03 6.80393772e-03 1.91394221e-02 1.66840423e-02
      2.53304727e-02 4.46641259e-03 -4.29104222e-03 -6.44409610e-03
      -1.35672111e-02 -5.73226921e-02 -3.14727314e-02 -2.38764305e-02
      -1.72943529e-02 6.76720124e-03 -3.37662771e-02 -4.09020744e-02
      -9.90493409e-03 -5.29030245e-03 -2.61433912e-03 1.93557818e-03
      -2.71192146e-03 -1.22017339e-02 -3.01545821e-02 -9.20253806e-03
      -2.76626982e-02 2.16841213e-02 1.21040363e-02 2.10529622e-02
      -1.08559132e-02 -3.88012975e-02 -6.92407265e-02 -7.17202155e-03
      7.81893171e-03 1.23806009e-02 1.91369727e-02 6.75782328e-03
      1.37179298e-02 -1.27106300e-02 -2.29380764e-02 -1.42636858e-02
      2.01086467e-03 3.24740149e-02 1.96638107e-02 1.76307373e-02
      1.38951354e-02 -2.08816435e-02 -1.25279278e-02 -1.34783275e-02
      -3.28401802e-03 1.28903622e-02 -4.17729281e-02 1.30130304e-02
      3.14321071e-02 9.85524151e-03 3.23007815e-02 7.89850391e-03
      -4.91361581e-02 -7.26897568e-02 -6.46631792e-02 -3.91350612e-02
      1.36526516e-02 3.04209217e-02 4.48216200e-02 4.70886268e-02
      1.13215139e-02 -1.01935202e-02 -3.27127278e-02 -5.41663989e-02
      3.90284322e-02 1.83744933e-02 1.82323791e-02 1.44904703e-02
      2.19326206e-02 1.65803917e-03 -1.71878450e-02 -1.20026655e-02
      1.37949325e-02 7.58676510e-03 1.28222173e-02 1.75404139e-02
      -1.51647925e-02 -6.16491027e-02 -7.65663311e-02 -5.32491207e-02
      -2.87815165e-02 -8.81567597e-03 -3.37499790e-02 3.08115762e-02
      3.47665660e-02 2.10366901e-02 3.32564749e-02 -1.09845754e-02
      -3.44206952e-02 -3.54290977e-02 -5.52028455e-02 6.66547334e-03
      5.63178658e-02 6.86758682e-02 5.82439452e-02 -1.04565574e-02
      -7.15165883e-02 -8.82185474e-02 -6.53909296e-02 -2.92472765e-02
      1.18192537e-02 3.75067107e-02 4.75011431e-02 2.28323732e-02
      -2.37984047e-03 -4.32261042e-02 -3.14693600e-02 -1.94335785e-02
      -9.07308515e-03 2.35492773e-02 4.85169590e-02 6.04480468e-02
      1.71163715e-02 1.05739245e-02 -3.47187482e-02 -2.43539084e-02
      4.77871252e-03 3.96023970e-03 -6.47699181e-03 3.18085104e-02
      5.11259176e-02 3.86219807e-02 -5.18255215e-03 -8.00916329e-02
      -1.10812105e-01 -8.25770646e-02 -4.99284342e-02 1.67530496e-02
      4.62939367e-02 5.30390553e-02 3.78754959e-02 -2.41995063e-02
      -7.88469091e-02 -5.97719960e-02 -1.78224239e-02 -9.09366366e-03
      -2.33664658e-04 4.50837873e-02 6.05652705e-02 3.65922861e-02
      2.43348405e-02 -2.39916388e-02 -3.25640440e-02 -3.69005576e-02
      -1.13959191e-02 1.51142646e-02 1.45970341e-02 2.15642527e-02
      1.54644495e-03 1.50075778e-02 -5.20981364e-02 -5.44304848e-02
      -6.13362230e-02 -5.66431833e-03 8.99954885e-03 3.59276906e-02
      4.56382185e-02 1.98077392e-02 -4.66993870e-03 -3.81556712e-02
      -2.21136622e-02 5.40041504e-03 -3.04101198e-03 2.30043624e-02
      1.75905433e-02 2.53412146e-02 2.77013215e-03 -7.21938862e-03
      -5.54664135e-02 -5.65005019e-02 -3.79201882e-02 -6.04256475e-03
      1.22270538e-02 1.31906215e-02 1.70212109e-02 1.17964000e-02
      3.17108594e-02 -4.40015271e-02 -7.51198009e-02 -7.16172755e-02
      -2.31448263e-02 1.95199549e-02 7.22142868e-03 1.31386053e-02
      5.61005995e-03 4.46531102e-02 1.91247799e-02 -2.02311911e-02
      -2.94068046e-02 4.85954806e-03 3.96216027e-02 1.21962596e-02
      1.45986611e-02 7.25175859e-03 1.34961074e-02 -3.55887674e-02
      -3.47265564e-02 -3.43668461e-02 -1.95015047e-03 2.19140835e-02
      7.78543344e-03 8.16480163e-03 1.05924916e-03 5.57133695e-03
      -3.25260572e-02 -6.57872930e-02 -4.38020043e-02 -1.74372662e-02
      1.09307235e-02 1.52208633e-03 2.02971371e-03 -3.19814519e-03
      3.10968403e-02 9.33591835e-03 -2.45651715e-02 -2.42833681e-02
      -2.32503959e-03 9.84107051e-03 5.71279088e-04 6.13769703e-03
      -2.05339325e-04 2.88077146e-02 1.33366976e-02 1.25274491e-02
      -4.42194939e-03 2.07339949e-03 3.55948950e-03 5.13644563e-03
      5.63679729e-03 -3.16075655e-03 -2.65089758e-02 -6.54761270e-02
      -7.71686137e-02 -6.22030273e-02 -4.89418879e-02 2.41640788e-02
      2.42944225e-03 7.96314329e-03 2.11200141e-03 4.75595407e-02
      2.13924143e-02 -2.43942402e-02 -2.34856065e-02 1.46675191e-03
      -9.52287111e-04 -9.95048415e-03 9.04235337e-03 8.74390732e-03
      1.04364380e-02 6.67942967e-03 3.79360747e-03 -1.01685282e-02
      -2.44656531e-03 -8.89549218e-03 -2.32352992e-03 1.82227585e-02
      9.21671372e-03 -1.48691032e-02 -3.19498666e-02 -3.35930251e-02
      -5.43147214e-02 -3.43671963e-02 -3.41168903e-02 -3.34546752e-02
      1.14617934e-02 3.16344686e-02 2.57045105e-02 4.03962890e-03
      -2.75775837e-03 -2.47908924e-02 -3.83284763e-02 -3.82636189e-02
      -6.61189621e-03 1.03554847e-02 1.83117203e-02 3.66506875e-02
      1.84243377e-02 7.03875581e-03 -5.13919666e-02 -5.20116985e-02
      -3.31556797e-03 2.11921223e-02 2.99589541e-02 1.36262160e-02
      2.38453094e-02 7.07414560e-03 -1.23829292e-02 -4.01641838e-02
      -2.69232970e-02 -2.25319061e-02 4.04705200e-03 2.96100117e-02
      2.04350688e-02 3.74949016e-02 1.24176368e-02 -1.18383486e-02
      -4.01681401e-02 -3.58411074e-02 -3.54798362e-02 5.89789171e-03
      1.78618263e-02 2.25250553e-02 3.85975279e-02 2.18049474e-02
      -7.81720132e-03 -5.82294315e-02 -4.02869210e-02 -4.49448526e-02
      -3.80478846e-03 1.83493420e-02 2.39321087e-02 2.92871557e-02
      8.45330302e-03 -1.16550978e-02 -5.53648286e-02 -5.93918078e-02
      1.25882588e-02 3.60947326e-02 5.08829691e-02 2.60247272e-02
      5.05608805e-02 1.64635312e-02 -1.43083390e-02 -3.79674658e-02
      -2.73543708e-02 -2.39035489e-05 2.76663546e-02 4.19210084e-02
      2.91293319e-02 -1.23474305e-03 -1.53741026e-02 -3.63199934e-02
      -5.01230806e-02 -4.10134271e-02 -3.39250527e-02 3.77440918e-03
      2.68460251e-02 2.38721725e-02 3.17791775e-02 -7.60078605e-04
      -5.38531169e-02 -7.22714514e-02 -4.44265790e-02 -1.12350667e-02
      6.81113685e-03 8.05013441e-03 -7.63587130e-04 9.98467486e-03
      -4.44481568e-03 -5.05430661e-02 -5.91661558e-02 -3.44004184e-02
      2.10597385e-02 4.78818119e-02 5.53665161e-02 5.10301143e-02
      2.86281127e-02 -4.98401560e-02 -6.59419373e-02 -4.74858060e-02
      -8.02667253e-03 1.38486633e-02 2.32206956e-02 2.37215944e-02
      7.01157423e-03 -3.72993462e-02 -6.62621111e-02 -6.60502762e-02
      -1.70389246e-02 -6.32145954e-03 -8.76579154e-03 7.71586271e-03
      9.23929922e-03 -1.09445788e-02 1.23098586e-02 -1.94500200e-02
      -3.93213630e-02 -4.04610336e-02 -2.77698524e-02 -4.90376446e-03
      -2.30822191e-02 -2.76029315e-02 -2.17116736e-02 -2.45001670e-02
      -6.15467830e-03 -5.11240289e-02 -1.16863037e-02 -1.11826174e-02
      2.72092838e-02 3.48447561e-02 3.78436991e-03 -1.90031342e-02
      -6.10033236e-02 -5.98256178e-02 -4.66459207e-02 -2.59886384e-02
      5.60071226e-03 2.82795895e-02 1.14528285e-02 1.96319930e-02
      -8.59361328e-03 1.15507441e-02 -2.81280242e-02 -3.36769037e-02
      -2.03775372e-02 -4.67906380e-03 1.00383833e-02 -3.67414579e-02
      -6.05210029e-02 -5.37899509e-02 -6.36017472e-02 -2.18324345e-02
      -3.08735874e-02 1.01781087e-02 9.79728904e-03 2.35365778e-02
      -9.57529433e-03 -2.79538427e-02 -3.48842070e-02 -4.69051562e-02
      -3.78216580e-02 -6.92118146e-03 2.29119360e-02 2.58996077e-02
      4.90076914e-02 1.55303972e-02 1.56040015e-02 6.71251724e-03
      2.21791603e-02 -3.51387858e-02 -4.87126596e-02 -4.10786234e-02
      1.10348985e-02 -5.70365053e-04 8.53490084e-03 1.57863051e-02
      8.33361875e-03 1.72037538e-02 -5.78767359e-02 -7.59933591e-02
      -2.81809736e-02 -5.53613193e-02 3.55949253e-02 8.08695704e-03
      -8.58008221e-04 -7.52801588e-03 -3.30063002e-03 -1.37427012e-02
      5.76627022e-03 2.51271203e-02 3.69598679e-02 2.59593055e-02
      6.00455562e-03 4.48701112e-03 -6.68085506e-03 -1.26385018e-02
      -2.83166245e-02 -3.15033346e-02 9.05556080e-04 3.16066705e-02
      2.02518217e-02 2.72645056e-03 5.46398060e-03 2.62484583e-03
      8.29119142e-03 -3.07984948e-02 -6.20930456e-02 -3.46361138e-02
      3.11299507e-03 9.24521126e-03 4.20687255e-03 5.79631934e-03
      -5.80495165e-04 3.49733233e-02 2.37821904e-03 -2.04915944e-02
      -3.36528500e-03 -5.95208863e-03 2.66854279e-02 2.05669101e-04
      -1.41660625e-03 -7.76216853e-03 1.06490003e-02 -3.14964317e-02
      -2.89606713e-02 -9.82844830e-03 2.69615483e-02 2.85814367e-02
      2.67639128e-03 1.25797903e-02 4.06938745e-03 1.38571188e-02
      -3.05753797e-02 -2.48127412e-02 -2.04210989e-02 2.65945680e-02
      -1.62109248e-02 6.71647117e-03 3.06698177e-02 4.80127148e-02
      2.08626352e-02 -2.59409677e-02 -3.60711738e-02 -1.79375969e-02
      -2.70512830e-02 -1.98514778e-02 8.02372675e-03 2.72950251e-02
      1.82094667e-02 3.02343741e-02 1.57227069e-02 6.16781274e-03
      -1.78455710e-02 -1.75326690e-02 -3.00268140e-02 -2.13072654e-02
      -1.56831723e-02 1.67676061e-03 3.99154909e-02 -6.51758118e-03
      -2.96002310e-02 -2.78126281e-02 -2.34426763e-02 -5.34517579e-02
      -3.36202569e-02 -2.32659318e-02 2.20271456e-03 2.91572567e-02
      1.79200638e-02 -8.24510178e-04 -2.62021553e-02 -5.32151721e-02
      -3.36966291e-02 1.58783402e-02 3.54840904e-02 2.67184637e-02
      3.04855742e-02 1.00809280e-02 -1.15006361e-02 -6.03146926e-02
      -4.35223132e-02 -4.75650430e-02 -1.39358332e-02 1.59247182e-02
      1.70464497e-02 2.09975298e-02 -8.45206319e-04 -2.85378397e-02
      -5.34505472e-02 -5.16515821e-02 -4.67229746e-02 -2.65361574e-02
      -1.55702615e-02 6.03819592e-03 2.92531978e-02 2.20475681e-02
      1.43194813e-02 -1.78509001e-02 -5.49499802e-02 -3.09017207e-02
      -8.99453275e-03 9.84025840e-03 1.83828212e-02 2.93100011e-02
      8.07987526e-03 -1.16979387e-02 -2.32653208e-02 -3.03561464e-02
      -2.07442492e-02 -1.23818568e-03 2.75584459e-02 2.47193184e-02
      3.54011059e-02 2.16156288e-04 -4.81094681e-02 -7.21111745e-02
      -4.38070521e-02 -4.67395559e-02 -7.20917480e-03 -2.51672324e-03
      1.40723540e-03 8.44811834e-03 -5.84628247e-03 -5.30521423e-02
      -7.73346201e-02 -4.56221439e-02 -2.13463958e-02 -1.14787621e-02
      1.04208086e-02 7.35714938e-03 3.14173996e-02 4.32622246e-03
      -1.35172047e-02 -2.35065371e-02 -3.51541489e-02 2.96557113e-03
      -4.10701754e-03 9.18281451e-03 7.78491935e-03 1.20288879e-02
      -1.82713848e-02 -2.42964476e-02 -5.02253175e-02 -4.95783007e-03
      -5.94660565e-02 -3.28318514e-02 -1.57217272e-02 -1.00724529e-02
      7.52963475e-04 -8.41506571e-03 -3.37217823e-02 -5.38308322e-02
      -4.64114435e-02 -4.39540073e-02 -5.33560775e-02 -4.51232903e-02
      -1.65800918e-02 9.51245241e-03 2.43667793e-02 -1.15631381e-02
      -8.98638461e-03 -3.72320302e-02 -9.56271961e-03 -1.94218829e-02
      -1.36941466e-02 2.65202648e-03 3.26617062e-02 -4.39512404e-03
      -2.49270424e-02 -3.14858407e-02 -8.83419719e-03 -1.62681509e-02
      -2.40711104e-02 -1.42219346e-02 -1.72374374e-03 2.95236818e-02
      1.00673214e-02 -2.21819133e-02 -2.67785173e-02 -1.71721205e-02
      -6.77478239e-02 -1.05625249e-01 -9.80516225e-02 -9.52685475e-02
      -8.48867074e-02 2.52784770e-02 2.26741564e-03 1.60387065e-02
      -3.81598622e-02 1.22986939e-02 -2.74736490e-02 -4.65059094e-02
      -3.53186615e-02 -1.64115261e-02 8.63903575e-03 2.97283754e-02
      2.97221933e-02 2.83142440e-02 -1.56790372e-02 -3.72888930e-02
      -2.55205091e-02 -6.27560215e-03 1.48910098e-02 1.57910772e-02
      4.81309695e-03 -9.01398249e-03 -6.03656424e-03 -5.49763395e-03
      -1.50997378e-02 -4.24498599e-03 4.97434614e-03 2.05563232e-02
      6.44439319e-03 1.06036719e-02 -7.72550935e-04 -3.18139396e-03
      6.33543218e-03 -3.11539527e-02 -6.93060979e-02 -7.88493305e-02
      -8.05274919e-02 -1.01318536e-02 2.02685129e-02 2.28200294e-02
      2.01184265e-02 1.55016445e-02 2.04912270e-03 -6.53828075e-03
      -1.89948231e-02 -4.05734293e-02 -4.91648987e-02 -3.35067920e-02
      -7.11692544e-03 9.05330852e-03 -3.43449856e-03 -1.30599523e-02
      -1.18254470e-02 -3.16181337e-04 3.04299407e-03 6.87218038e-03
      1.05853034e-02 8.70960578e-03 2.26995000e-03 6.43262593e-03
      1.19871115e-02 4.54577198e-03 -6.87289378e-03 2.64252871e-02
      1.07514067e-02 -2.39318563e-03 1.30028259e-02 5.16494922e-03
      2.04193573e-02 3.90934013e-03 2.74358178e-03 -2.19444069e-03
      1.48576545e-02 -1.93885770e-02 -4.44620587e-02 -6.53503323e-03
      1.53365387e-02 4.02394719e-02 6.91205868e-03 2.27567758e-02
      1.03656286e-02 2.37880573e-02 -4.79268841e-02 -6.19922206e-02
      -4.75902371e-02 1.74008235e-02 2.50588264e-02 9.41935554e-03
      7.13071041e-03 7.16761965e-03 4.41010557e-02 8.33629724e-03
      -9.51601565e-03 1.31735662e-02 2.68846583e-02 1.91240460e-02
      -4.86357929e-03 -1.92608796e-02 -2.97955591e-02 -1.40065495e-02
      -3.33871469e-02 -3.83621678e-02 -3.12122656e-03 2.97688171e-02
      -2.45312210e-02 -4.35425434e-04 -9.83658433e-03 1.12950457e-02
      6.81492984e-02 -8.93314078e-04 -1.08165955e-02 -2.78074387e-02
      -2.62826029e-02 -4.46235538e-02 -3.50943580e-02 -1.49023216e-02
      9.49899142e-04 4.95154113e-02 3.64148021e-02 -1.96043612e-03
      -2.79983245e-02 -3.88433598e-02 -3.30829769e-02 -4.41689678e-02
      -3.88388894e-02 1.11952284e-02 5.64954244e-02 -1.14772907e-02
      -1.79226417e-02 -1.65996626e-02 -3.33150588e-02 -4.07961830e-02
      -5.54813705e-02 -2.21893303e-02 -1.00628985e-02 1.71042420e-02
      1.00184856e-02 -1.93749531e-03 -1.69807449e-02 -2.91435216e-02
      -3.58850397e-02 -3.54780406e-02 -6.41814573e-03 -6.57125795e-03
      2.24325247e-02 1.34252608e-02 -1.08190160e-03 -3.39732356e-02
      -3.99813540e-02 -1.96044501e-02 -8.14662781e-03 1.46471942e-02
      1.12880394e-02 3.07790060e-02 1.76633559e-02 5.49785420e-03
      -6.75116666e-03 -2.33478788e-02 -7.96625912e-02 -4.83119003e-02
      -2.12075692e-02 -2.22763531e-02 -3.28264614e-05 1.94392987e-02
      2.16787010e-02 9.10894945e-03 -5.05422056e-02 -3.11143063e-02
      -2.56881807e-02 2.88903160e-04 -5.02683106e-04 1.76946372e-02
      6.95839385e-03 1.76545419e-02 -5.58216916e-03 -1.59331933e-02
      -3.52142230e-02 -1.26311351e-02 1.07256183e-02 -1.56166516e-02
      -6.09435048e-03 -2.47327741e-02 -1.94962770e-02 -4.23796847e-02
      -4.94477712e-02 1.30402772e-02 9.55523364e-03 1.20926565e-02
      4.12368827e-05 3.21225775e-03 -1.41855823e-02 -1.43299187e-02
      -4.90296334e-02 -7.89680635e-04 -3.24387737e-02 -4.22746725e-02
      -1.31504424e-02 -3.76517959e-02 2.57814047e-03 -5.32173412e-03
      1.65927522e-02 -1.39318462e-02 -2.85409074e-02 5.45660686e-03
      9.17378627e-03 1.43699152e-02 -3.04894941e-03 1.28614232e-02
      6.32052775e-03 1.62788164e-02 -8.63444351e-04 -8.87632254e-04
      -3.71552631e-02 -1.42688267e-02 -1.67733133e-02 -1.25496620e-02
      -4.27212492e-02 -3.17657851e-02 -2.48969998e-02 -4.37261574e-02
      -3.60243767e-02 -9.74273961e-03 -3.13122943e-02 -1.39485970e-02
      3.89142020e-04 2.50029694e-02 1.61340330e-02 -3.18180840e-03
      -1.09975412e-02 -5.51965181e-03 -2.09048949e-02 5.21276472e-03
      -9.02669784e-03 -3.65775190e-02 -2.51684245e-02 -2.58845510e-03
      3.49784158e-02 1.81849562e-02 -2.35407837e-02 2.20516659e-02
      1.10817188e-02 1.36068445e-02 4.00515925e-03 1.56785585e-02
      6.25842577e-03 9.31694359e-03 8.95841885e-03 2.37235986e-02
      -3.50623727e-02 -4.72567081e-02 -3.93616743e-02 -7.52066355e-03
      1.24811931e-02 7.92177487e-03 -4.32163099e-04 -2.55010594e-02
      -2.57707983e-02 -1.43819507e-02 -2.78584398e-02 -5.18344482e-03
      7.59656494e-03 2.34398916e-02 1.31657626e-03 4.78897709e-03
      -1.73815507e-02 -1.29268076e-02 2.12418642e-02 1.15094632e-02
      1.21451411e-02 9.73328762e-03 2.14909948e-02 4.69129620e-04
      1.71724090e-03 1.93690939e-03 1.88063718e-02 -2.44164132e-02
      -1.89959928e-02 1.40215158e-02 1.56311188e-02 5.46448352e-03 0.
      1.28156098e-03 4.90055594e-04 -4.81615681e-03 -5.13250418e-02
      -5.14044538e-02 -1.82038397e-02 -3.59885162e-05 1.25786318e-02
      2.36787903e-03 3.60104698e-03 -1.03513571e-02 -5.00541478e-02
      2.37167533e-02 7.49936618e-04 5.95425488e-03 1.05440873e-03
      7.64822587e-03 7.27194827e-04 -2.57025417e-02 7.24807568e-03
      2.15474926e-02 7.16822641e-03 2.36520241e-03 1.52481999e-02
      1.23624001e-02 1.85388140e-02 -3.70430740e-07 3.13769048e-03
      1.07370433e-03 8.42181873e-03 -1.80644430e-02 -1.96939334e-02
      -1.50788482e-02 -5.96545190e-02 -2.22033914e-02 6.97339978e-03
      1.32150333e-02 3.41275823e-03 1.01287710e-03 1.79096088e-02
      3.26963258e-03 1.59739447e-03 3.42891342e-03 3.43154632e-02
      1.99748501e-02 2.15902664e-02 1.69543382e-02 2.16781404e-02
      2.47898158e-02 -1.08188093e-02 -1.34902233e-02 -3.09613738e-02
      -4.10540700e-02 -3.65997776e-02 -3.06434967e-02 1.31184710e-02
      3.30081917e-02 5.14150364e-03 -1.39038218e-02 -1.75201930e-02
      -7.71210482e-03 2.05330960e-02 1.22838281e-02 1.73808690e-02
      7.02252612e-03 1.06314588e-02 3.37737091e-02 -3.30302045e-02
      6.94200338e-04 -9.48940963e-03 -1.59675386e-02 -3.01941372e-02
      1.04395999e-02 3.28014195e-02 7.46330246e-02 -5.24475006e-03
      -4.39639948e-02 -4.83570099e-02 3.50314043e-02 4.72261906e-02
      -1.79459509e-02 -3.40645052e-02 -1.33488905e-02 3.60356364e-03
      -3.09520680e-02 -5.84041812e-02 -4.60637510e-02 -2.47687064e-02
      1.74518535e-03 1.73103176e-02 2.24951357e-02 1.25240777e-02
      -5.25938487e-03 -8.37918464e-03 -4.42411415e-02 -3.77231799e-02
      8.50929599e-03 -4.02298989e-03 -3.87361497e-02 -4.89278398e-02
      -2.17283182e-02 1.75440796e-02 -3.35908458e-02 -3.97440419e-02
      -2.84975134e-02 3.17617925e-03 -1.02876592e-02 4.69039939e-03
      -1.82529129e-02 4.39594267e-03 -3.24178953e-03 -5.94661310e-02
      -4.95301932e-02 -3.45960334e-02 -2.46480629e-02 -2.11678119e-03
      7.09485961e-03 3.60435583e-02 -1.68753397e-02 -3.49251144e-02
      -4.47015427e-02 -4.13096398e-02 -1.34187592e-02 -1.14331078e-02
      6.12743199e-02 2.71010734e-02 2.71852836e-02 -2.93176202e-03
      -2.51778774e-02 -5.00217974e-02 -3.92434113e-02 -2.82905325e-02
      -7.18353316e-03 -9.00580510e-02 -1.48731023e-02 1.28526557e-02
      -1.84479486e-02 -2.70298775e-02 -3.77356261e-02 -4.46122773e-02
      -3.40590030e-02 -1.76813342e-02 2.72165500e-02 1.33601902e-02
      1.76608264e-02 -1.23083754e-03 -1.94015913e-02 -6.18819967e-02
      -6.35850504e-02 -3.46773416e-02 -4.69287112e-02 5.08631463e-04
      1.49216678e-03 1.01798372e-02 -2.41545513e-02 -5.42014092e-02
      1.64764095e-02 -9.28289257e-04 4.16415418e-03 -6.92751398e-03
      2.07397118e-02 2.28125397e-02 3.33306901e-02 1.02410791e-02
      1.58138871e-02 -7.03790039e-02 -6.12275340e-02 -4.14668620e-02
      -3.30397338e-02 2.44218595e-02 1.42374495e-02 1.56695712e-02
      -2.15182826e-02 -4.93368320e-02 -1.42187672e-02 -3.55960838e-02
      -2.86346860e-02 -1.24547919e-02 2.59494688e-02 3.13432701e-02
      4.60838452e-02 1.43596893e-02 -8.54870025e-03 3.34300427e-03
      1.39869926e-02 3.03260610e-03 -2.80061327e-02 2.88258083e-02
      1.33246020e-03 2.68155728e-02 1.83622744e-02 4.35501279e-04
      1.89917628e-02 1.15506733e-02 1.15985489e-02 4.70787473e-03
      1.92451179e-02 6.05744915e-03 1.02526769e-02 8.69647227e-03
      1.93630103e-02 -3.05507984e-02 -3.21657732e-02 -2.76181493e-02
      -2.38272361e-02 -1.56424362e-02 -9.96011309e-04 2.30619665e-02
      1.37137640e-02 -4.63334508e-02 -4.03943546e-02 -3.21457721e-02
      -1.53581556e-02 -4.56097070e-03 2.19725631e-03 -8.83769616e-03
      2.40746583e-03 -1.24428011e-02 -2.51590945e-02 1.89508013e-02
      1.55469710e-02 1.45684611e-02 1.06706331e-02 1.29057374e-02
      1.27738225e-03 3.89247132e-03 3.27977329e-03 1.73482411e-02
      1.01316310e-02 4.28776257e-03 8.75710882e-03 7.00579816e-03
      1.09511167e-02 1.02042386e-05 6.11663039e-04 2.70741497e-04
      1.03953788e-02 -2.18937378e-02 -9.33646969e-03 -1.34625018e-03
      -1.10228453e-02 -1.36045897e-02 2.20329291e-03 7.99482223e-03
      1.84540683e-03 -2.29259338e-02 -2.46880855e-02 -4.61094119e-02
      -5.23104817e-02 -5.03682941e-02 7.49366265e-03 -1.28888907e-02
      -1.88090894e-02 -3.03785615e-02 -1.54988132e-02 1.09826224e-02
      5.88089554e-03 1.48019325e-02 2.22461503e-02 1.48750115e-02
      1.64012345e-05 1.16661319e-03 4.20359196e-04 1.15237394e-02
      1.49096120e-02 -1.49369584e-02 -1.16468426e-02 -1.04808167e-03
      3.84797296e-03 6.33263821e-03 7.21629057e-03 6.08449220e-04
      2.31994353e-02 -1.47326449e-02 -3.00330967e-02 -2.79742852e-02
      -1.30052343e-02 -7.61644868e-03 -1.85277313e-02 -2.11416632e-02
      -2.37826519e-02 -1.65496934e-02 -1.67795829e-03 1.61432084e-02
      6.26653293e-03 -4.22797282e-04 -3.14104115e-03 -2.07537804e-02
      -1.22007104e-02 -6.62203599e-03 -8.73400737e-03 -2.39438913e-03
      -1.46690123e-02 -1.47168934e-02 -1.65339150e-02 8.54470301e-03
      7.03970809e-03 1.09161315e-02 5.35912113e-03 4.14380385e-03
      -1.09425234e-02 -3.33105065e-02 -1.80305615e-02 -2.49229297e-02
      -3.81178521e-02 -3.26546021e-02 -5.24011953e-03 3.55877429e-02
      3.55196651e-03 4.90325037e-03 -6.02305913e-03 -4.10611788e-03
      -7.14169769e-03 6.81579160e-03 -9.06972797e-04 7.44658010e-03
      8.72543920e-03 1.19630406e-02 3.07309604e-03 3.12732607e-02
      5.21479808e-02 1.06586525e-02 -1.14827948e-02 -5.54399658e-03
      3.51601765e-02 2.24238466e-02 6.08576415e-03 -2.92101055e-02
      -4.09397073e-02 -3.08535267e-02 -2.63646105e-03 -9.06261988e-03
      -1.99886933e-02 -7.00573325e-02 -2.49684956e-02 -1.76240392e-02
      -4.58833575e-02 -4.35292944e-02 -3.55066434e-02 -1.77988410e-03
      -3.84362356e-04 -2.51704158e-04 -2.01327913e-02 -7.35750049e-03
      -1.68096330e-02 -1.25433551e-03 -1.35734491e-02 1.05109215e-02
      -2.28440948e-03 -6.19162060e-03 1.61628779e-02 -7.50982203e-03
      2.02754438e-02 -1.73229836e-02 -8.97505973e-03 -3.47472355e-02
      -2.32008379e-02 -1.08068287e-02 -1.39404675e-02 -2.04116777e-02
      -2.54461337e-02 -3.51778269e-02 -3.98413353e-02 -3.52126472e-02
      -3.61525603e-02 -4.17406149e-02 -8.85318872e-03 3.16507206e-03
      8.04305170e-03 1.36015480e-02 -2.06946675e-03 -1.70514826e-02
      -2.28236299e-02 -4.69458662e-02 -4.42350693e-02 -2.26268806e-02
      8.61232914e-03 9.63226054e-03 2.24222634e-02 5.01668127e-03
      -4.52683121e-03 -5.09821363e-02 -4.66074310e-02 -3.62215079e-02
      -2.16975641e-02 -1.20071498e-04 2.88748741e-03 -1.78354420e-02
      -3.04831415e-02 -6.68071210e-02 5.16530592e-03 -2.30384767e-02
      -6.63550384e-03 -6.07335940e-03 1.44010093e-02 5.43265929e-03
      -1.67846578e-04 -4.96736867e-03 1.80252194e-02 -2.09768973e-02
      -3.70372050e-02 -3.08213457e-02 -1.34056266e-02 1.33804502e-02
      1.04236118e-02 1.23891374e-02 3.44219455e-03 -8.34046677e-03
      -6.21915236e-03 -1.94797665e-02 -8.17503780e-03 2.35177111e-03
      3.84797789e-02 2.15634126e-02 2.22606715e-02 1.58075001e-02
      8.69705109e-04 -3.04639302e-02 -8.06741491e-02 -4.49091531e-02
      -4.39924784e-02 -2.09257174e-02 7.44313467e-03 2.49066274e-03
      1.23697268e-02 6.87799836e-03 -1.14648684e-03 -4.82467972e-02
      -4.65865694e-02 -3.82793806e-02 -2.41315197e-02 -4.55222931e-03
      1.27898529e-02 9.28277522e-03 1.65858548e-02 -1.20881647e-02
      -1.18903806e-02 -3.53883021e-03 4.82486235e-03 6.88697863e-03
      1.26311556e-02 8.93228501e-03 5.64349722e-03 -1.12142479e-02
      -5.16269170e-03 -1.22956438e-02 -1.31127099e-02 -7.58108729e-03
      -7.63864024e-03 2.29315110e-03 1.07284943e-02 7.63477990e-04
      -5.10995369e-03 -3.02541419e-03 -5.16995192e-02 -6.30455464e-02
      -5.40639535e-02 -1.20160924e-02 -1.82952657e-02 -3.24821030e-03
      1.43240776e-03 1.07349521e-02 -6.91110492e-02 -5.86675629e-02
      -5.03456481e-02 -3.90741341e-02 -2.20874064e-02 1.12580974e-02
      2.51242481e-02 1.63820367e-02 1.14453239e-02 1.12794163e-02
      2.93808803e-03 -4.25918354e-03 -1.10819722e-02 -6.94478583e-03
      -1.47069062e-04 9.96659137e-03 -9.51524184e-04 1.03032477e-02
      3.74861574e-03 -2.15196628e-02 -3.59415896e-02 -2.99609955e-02
      -1.43933641e-02 -7.10187806e-03 -6.74301572e-03 -1.14364652e-02
      9.13022668e-04 -3.50633524e-02 -2.24971566e-02 -3.09737623e-02
      -5.37051558e-02 -6.11713994e-03 1.49875591e-02 3.51691619e-02
      1.88344251e-02 -3.21069807e-02 -7.51472171e-03 1.46288972e-03
      9.24815610e-03 -3.39664221e-02 -2.22680774e-02 -1.58434547e-02
      -2.74220365e-03 -7.01384759e-03 -2.45491471e-02 7.89960939e-03
      -1.59420669e-02 -2.37498954e-02 -3.33704390e-02 -2.35644039e-02
      -1.39872413e-02 -1.32055450e-02 -1.23884669e-02 5.81450248e-03
      2.60830000e-02 1.33755077e-02 5.02916984e-03 3.06686107e-03
      -8.84645991e-03 -1.12737063e-02 -8.71407986e-03 -1.81977719e-03
      1.45450346e-02 -1.36042805e-03 7.17471214e-03 3.33980843e-03
      -3.15475538e-02 -2.23928653e-02 -2.90494971e-02 -1.38248708e-02
      -1.00920955e-02 -1.62682999e-02 2.69028228e-02 6.67643314e-03
      2.03131903e-02 4.09847824e-03 2.11700611e-02 -1.51842441e-02
      -1.07751414e-02 -1.35736810e-02 1.94009170e-02 -1.30317044e-02
      -7.90932029e-03 -6.05298532e-03 3.74874217e-03 -9.78902914e-04
      -1.35295447e-02 -3.43535026e-03 7.15816673e-03 5.30685158e-03
      1.42531237e-02 2.34390050e-02 3.25106047e-02 -1.66295317e-03
      -1.42230792e-02 6.36946177e-03 2.97517832e-02 3.00874878e-02
      2.35431381e-02 1.39632849e-02 2.00054608e-02 3.44640054e-02
      -3.67158698e-03 -7.08288630e-04 -2.18254775e-02 -1.12885674e-02
      -6.01006113e-03 -1.87646353e-03 -7.51174940e-03 3.10594048e-02
      -2.12267898e-02 -2.17437651e-02 -2.18122955e-02 -3.53817418e-02
      -9.64326411e-03 3.14450753e-03 -1.61963105e-02 -1.88202143e-03
      5.86779509e-03 2.10722517e-02 8.80046748e-03 5.09920251e-03
      9.53626074e-03 -2.20529698e-02 -1.17288604e-02 -2.28853151e-02
      -2.30893325e-02 -5.93876727e-02 -5.07612191e-02 -2.87941750e-02
      4.92759934e-03 -3.58771160e-02 -6.47239983e-02 -6.69761226e-02
      -4.89753485e-02 1.71890091e-02 8.55417550e-03 8.73865187e-03
      2.66830786e-03 3.87836434e-02 3.86800282e-02 5.08461371e-02
      3.18916328e-02 1.94853097e-02 -2.06570067e-02 -2.67687291e-02
      -3.13702933e-02 -2.72115991e-02 -2.73110420e-02 -2.95350701e-03
      -2.28325278e-02 -4.58534360e-02 -2.83334441e-02 -3.39484140e-02
      -2.39690356e-02 -2.75801383e-02 -1.81050301e-02 -7.44774332e-03
      -1.79164466e-02 -2.63644271e-02 -3.06566916e-02 -1.98098794e-02
      -3.78040560e-02 -5.47210015e-02 -3.91750634e-02 -2.68494841e-02
      1.23939672e-02 2.17883270e-02 1.69988498e-02 1.72862727e-02
      6.96338573e-03 -1.49577158e-03 -3.08704320e-02 -2.98731178e-02
      -1.44956196e-02 8.33618268e-03 -1.27414633e-02 -1.38179511e-02
      -1.44098932e-02 -3.81782011e-04 -4.90154177e-02 -5.09298779e-02
      -3.93696986e-02 -1.35131152e-02 1.09358421e-02 -5.23665035e-03
      -4.88023972e-03 2.30968045e-03 -6.29289495e-03 -3.25840414e-02
      -5.95664009e-02 -4.46717702e-02 -4.35748808e-02 -7.70789245e-03
      3.70799401e-03 3.30372294e-03 1.75463930e-02 1.57135315e-02
      1.60919428e-02 -5.24633937e-02 -4.34561670e-02 -4.38552015e-02
      1.89776288e-03 2.27224138e-02 3.52526158e-02 2.05197297e-02
      3.52925546e-02 -5.21978848e-02 -6.72390386e-02 -4.76203412e-02
      -2.37823650e-02 -3.09337750e-02 -4.07481380e-03 2.61312351e-03
      3.31515516e-03 -2.04994082e-02 -1.96709335e-02 -4.94493954e-02
      -3.92584503e-02 -1.83589719e-02 -1.06020933e-02 2.41982322e-02
      3.82298306e-02 1.44547131e-02 5.12346299e-03 2.22981516e-02
      -3.78867164e-02 -5.35433479e-02 -3.94945666e-02 -2.11347193e-02
      1.30510749e-02 2.66497433e-02 1.49640366e-02 3.97582576e-02
      1.91267952e-02 -3.83296609e-02 -4.54365835e-02 -3.54304984e-02
      -3.19181243e-03 2.49610338e-02 3.18457410e-02 1.89503804e-02
      4.00449783e-02 -3.46971229e-02 -6.78357407e-02 -5.49099557e-02
      -2.89764125e-02 2.04178635e-02 3.93862650e-02 4.35413234e-02
      3.66879590e-02 -5.03089186e-03 6.07825132e-05 -6.57570213e-02
      -6.65340945e-02 -6.34792447e-02 2.13554632e-02 2.73550171e-02
      2.75776628e-02 6.11758837e-03 3.06582917e-02 1.87423173e-02
      -3.35505866e-02 -3.84134017e-02 -4.59703095e-02 -1.01856431e-02
      1.45426122e-02 2.48592850e-02 8.96736700e-03 2.00418103e-02
      4.89121955e-03 -3.84306721e-03 -1.67650152e-02 -4.09057029e-02
      -2.36620214e-02 -5.63613325e-03 8.38443823e-03 6.37044664e-03
      -1.15343966e-02 1.74136069e-02 -4.74068932e-02 -5.14814146e-02
      -6.93658590e-02 5.23652555e-03 4.75789309e-02 3.68122272e-02
      9.63379070e-03 2.41792127e-02 -2.69649364e-02 -2.62409565e-03
      -7.08972244e-03 -2.43357033e-03 2.81645008e-03 -3.24304611e-03
      -9.19073634e-03 -3.33140530e-02 -3.53477821e-02 1.33126918e-02
      1.02781178e-02 9.58702236e-04 -2.65209489e-02 -5.43796942e-02
      -1.91865060e-02 -3.99498036e-03 -8.43822304e-03 1.78329868e-03
      1.92389060e-02 1.65387038e-02 3.21013629e-02 4.39085532e-03
      3.35726677e-03 -1.41797522e-02 -6.78442093e-03 -1.07729435e-02
      -2.64804740e-03 -1.84650663e-02 1.51746962e-02 2.50717327e-02
      -1.09278038e-02 -3.50958370e-02 -1.39739467e-02 -3.04734260e-02
      -4.27018292e-02 -2.94392388e-02 1.55920694e-02 2.18408424e-02
      4.58416017e-03 2.87834927e-02 1.30785368e-02 -1.12073319e-02
      -1.38623395e-03 -1.97400693e-02 8.37945472e-03 4.22037020e-02
      4.08297926e-02 4.13932204e-02 -1.60898361e-03 1.98356118e-02
      -1.28449099e-02 -7.60719785e-03 -1.17200296e-02 2.90416814e-02
      4.89393715e-03 7.42427260e-03 -2.43524299e-03 -2.35645492e-02
      -2.59689428e-02 -1.19047770e-02 -2.41575041e-03 -8.55300017e-03
      -4.43684077e-03 2.64709070e-03 -1.25981364e-02 -2.01888233e-02
      3.89542291e-03 1.54853463e-02 -8.43055826e-03 -5.60142705e-03
      -6.12127711e-04 2.61824625e-03 -1.44341588e-03 -4.89180256e-03
      -9.57816467e-03 5.65987919e-03 5.31732338e-03 -4.34322236e-03
      3.79306567e-03 -3.29071307e-03 1.16954930e-02</_></support_vectors>
  <decision_functions>
    <_>
      <sv_count>1</sv_count>
      <rho>-2.1801188558082321e+00</rho>
      <alpha>
        1.</alpha>
      <index>
        0</index></_></decision_functions></my_svm>
</opencv_storage>
